{"type":"LSTM","options":{"inputSize":19,"inputRange":19,"hiddenLayers":[20,20],"outputSize":19,"decayRate":0.999,"smoothEps":1e-8,"regc":0.000001,"clipval":5,"maxPredictionLength":100,"dataFormatter":{"indexTable":{"H":0,"o":1,"i":2,"e":3,"y":4,"a":5,"l":6," ":7,"g":8,"t":9,"h":10,"w":11,"r":12,"u":13,"d":14,"n":15,"stop-input":16,"start-output":17,"unrecognized":18},"characterTable":{"0":"H","1":"o","2":"i","3":"e","4":"y","5":"a","6":"l","7":" ","8":"g","9":"t","10":"h","11":"w","12":"r","13":"u","14":"d","15":"n","16":null,"17":null,"18":null},"values":[{"input":"Hoi","output":"Hey"},{"input":"Hallo","output":"Hello"},{"input":"Hoi","output":"Hi"},{"input":"Hoe gaat het","output":"How are you"},{"input":"Hoe gaat het","output":"How are you doing"}],"characters":["H","o","i","e","y","a","l"," ","g","t","h","w","r","u","d","n","stop-input","start-output","unrecognized"],"specialIndexes":[16,17,18]}},"trainOpts":{"iterations":15000,"errorThresh":0.005,"log":true,"logPeriod":250,"learningRate":0.01,"callbackPeriod":10,"timeout":"Infinity","layers":[10]},"input":{"rows":20,"columns":19,"weights":[0.835638701915741,1.9599453210830688,-0.7942920923233032,1.2411330938339233,-0.252511203289032,-0.4168436527252197,1.882028579711914,0.4549962878227234,-0.7817046046257019,0.49616876244544983,0.10563662648200989,0.28774043917655945,0.5145751237869263,2.6106338500976562,0.03556296229362488,-0.1347554326057434,1.3752697706222534,-1.5804177522659302,-2.1412694454193115,0.2822549045085907,1.4265447854995728,1.4933362007141113,-0.04908762872219086,1.4704935550689697,-1.220105767250061,-1.568145751953125,-0.5833956599235535,-1.7479043006896973,-1.252718210220337,1.098705530166626,2.421651840209961,0.5225002765655518,0.49931269884109497,0.3499569594860077,1.1568084955215454,3.719050407409668,0.1923719346523285,0.2757759690284729,-0.3031871020793915,1.1204696893692017,1.6770172119140625,0.5775902271270752,0.8589179515838623,-0.41139593720436096,-0.3413929343223572,0.9062115550041199,0.9310263395309448,-1.3854892253875732,0.7858220338821411,0.9805572628974915,1.7497279644012451,1.1580151319503784,1.290448784828186,2.4664015769958496,2.565387487411499,-0.29858896136283875,0.0814598798751831,-0.8246359825134277,-0.9568830728530884,3.7347042560577393,-4.0159101486206055,0.732605516910553,-2.6462697982788086,-3.692075490951538,-2.8260562419891357,-0.9801449179649353,1.1901137828826904,-0.949844241142273,1.1479483842849731,2.602745294570923,0.40894630551338196,-1.2553740739822388,1.4407614469528198,-0.03207456320524216,1.1776318550109863,0.7866335511207581,-2.106566905975342,1.2363920211791992,1.9196714162826538,-2.270944833755493,-1.7712726593017578,-0.19323554635047913,-2.5470516681671143,-1.7940350770950317,2.4936344623565674,1.1723735332489014,2.2832696437835693,0.4158133864402771,1.822324514389038,-0.6757921576499939,-0.21535629034042358,1.131330966949463,-2.411388397216797,1.4061055183410645,-0.05333264544606209,-0.6615276336669922,-0.50936359167099,-0.05897059291601181,0.873309314250946,0.5815432071685791,-2.082108497619629,2.762881278991699,2.5241785049438477,-1.8852524757385254,0.7854657769203186,-2.5207722187042236,2.1428942680358887,-0.15977226197719574,4.245181560516357,0.3039546310901642,-0.3423612117767334,1.559354543685913,-0.9342169761657715,-0.754852294921875,0.8110889792442322,-0.5339464545249939,0.25214293599128723,1.6946474313735962,2.0906450748443604,-1.1370688676834106,2.1380996704101562,2.635601758956909,-1.0813220739364624,-1.0489234924316406,0.6402020454406738,-0.8011229634284973,-0.14585840702056885,-2.151477575302124,2.0194857120513916,1.863020896911621,0.020525172352790833,-1.9918162822723389,-1.3122493028640747,2.172288656234741,4.141080379486084,-1.3739144802093506,4.099537372589111,5.42830228805542,-2.5880818367004395,2.1781957149505615,0.061640363186597824,-3.1354684829711914,4.8536505699157715,7.118661403656006,-1.6681574583053589,-3.188004970550537,3.4515068531036377,-1.4096955060958862,-3.9326159954071045,-0.41160666942596436,-3.1766064167022705,-0.46814507246017456,-1.8869915008544922,-0.37671977281570435,2.7008070945739746,-2.8703508377075195,-1.6801480054855347,2.504936456680298,-3.3513782024383545,-2.8836004734039307,2.2620224952697754,1.0412118434906006,-4.7485857009887695,0.34129178524017334,1.9671891927719116,-2.503822088241577,0.24226516485214233,1.081908106803894,-1.2784771919250488,0.9465587139129639,3.162658929824829,2.3659887313842773,1.3383736610412598,-2.6773152351379395,2.398782968521118,1.3422467708587646,-0.7707828879356384,2.2310726642608643,1.863418698310852,0.12618190050125122,0.8136957287788391,1.0085129737854004,-3.805410146713257,-1.5220377445220947,-1.5627567768096924,0.16609160602092743,-3.464674472808838,-1.8799952268600464,-1.1152772903442383,0.12766693532466888,-1.525200366973877,-0.43008777499198914,-0.8441248536109924,1.6529396772384644,-2.684605836868286,3.2804336547851562,0.6705042719841003,-5.790255069732666,1.654291033744812,1.7563836574554443,-2.4008240699768066,0.8464248776435852,1.8200464248657227,2.2708418369293213,0.3144228458404541,-0.7439455986022949,-0.18082085251808167,1.2966560125350952,1.7048648595809937,-0.5948210954666138,-2.39968204498291,-1.5954521894454956,-1.954092264175415,1.9768272638320923,0.3638654351234436,-2.139864921569824,-1.9136496782302856,-0.8184948563575745,-3.65272855758667,0.2693147361278534,1.362699270248413,-1.1393133401870728,-0.9108962416648865,0.7688953280448914,1.7733485698699951,4.878701686859131,0.8131188154220581,-1.3795243501663208,-4.503118991851807,-0.2980616092681885,-1.3673782348632812,0.5346354842185974,-4.354101657867432,4.08900785446167,0.341602087020874,-0.3764597773551941,-0.2520376145839691,1.1409353017807007,-1.777458906173706,-1.1724787950515747,0.3042871654033661,0.005367334000766277,-0.7452896237373352,4.11696720123291,3.966282606124878,5.8079833984375,1.594333291053772,-2.285496473312378,-2.276643991470337,2.533535957336426,-1.933916687965393,-1.7558658123016357,0.7751975059509277,1.465192198753357,-3.0301613807678223,1.5673245191574097,6.926224231719971,-4.98022985458374,0.22867648303508759,4.101179599761963,-0.009591849520802498,-5.0083794593811035,5.6586713790893555,-1.431569218635559,0.9181476831436157,0.8341243863105774,-0.2943154275417328,-6.58531379699707,-0.29309433698654175,-1.3059252500534058,-7.335911273956299,7.277590274810791,0.4661804139614105,-3.005845308303833,5.739875316619873,-0.9954385161399841,-3.7681210041046143,0.05381525307893753,1.7407444715499878,-9.25472640991211,-0.806003749370575,-4.916767120361328,-2.748741388320923,2.9968252182006836,7.526951789855957,-0.14286459982395172,1.160305380821228,5.196842670440674,-2.706899404525757,-1.867416501045227,-1.9793733358383179,-4.842299938201904,-1.6209917068481445,3.1990065574645996,6.222021579742432,-2.2102341651916504,3.311640501022339,7.841787815093994,0.15122011303901672,-5.458407402038574,2.4176368713378906,-3.3273427486419678,-4.528048515319824,0.34029126167297363,-0.3619793951511383,-3.2008821964263916,-2.918114185333252,-4.889297962188721,0.3185115158557892,2.363776683807373,-0.24947020411491394,-4.23784875869751,-0.7991657853126526,-1.5179802179336548,-1.3828870058059692,4.2812957763671875,1.4445114135742188,-2.266509532928467,-4.1773362159729,3.231476068496704,0.8125264048576355,4.585587024688721,2.9830081462860107,-3.009387493133545,-0.6364795565605164,0.08726316690444946,2.226263999938965,1.142878532409668,-1.1033920049667358,1.3963795900344849,1.4225423336029053,-1.0602056980133057,1.0122485160827637,0.037733711302280426,-2.3927690982818604,0.21593916416168213,-2.803816795349121,-0.08931150287389755,1.0977262258529663,0.8424192070960999,-0.04021161422133446,0.8338835835456848,-2.1030588150024414,0.3652392625808716,-0.2171562761068344,-0.008619732223451138,-2.236527681350708,-0.025608085095882416,-1.7682076692581177,-2.741628646850586,1.4994581937789917,0.1499103307723999,-0.9338597655296326,1.2117854356765747,0.5403501391410828,2.2966907024383545,1.2577250003814697,0.502541184425354,0.29377466440200806,1.4188289642333984,0.8607251048088074,0.023723464459180832,-0.06984695792198181,0.051503799855709076,-0.06815306097269058,-0.025921380147337914,0.0038376422598958015,-0.026113230735063553,-0.026099825277924538,0.030130300670862198,-0.009076869115233421,-0.03730963543057442,0.05006028339266777,0.034713104367256165,0.0006286000134423375,-0.06825148314237595,0.014777526259422302,0.04919997602701187,0.015959622338414192,-0.07002679258584976]},"hiddenLayers":[{"inputMatrix":{"rows":20,"columns":19,"weights":[0.49312612414360046,1.0433824062347412,-1.1437608003616333,0.6813838481903076,-3.4692015647888184,1.6798831224441528,0.25591328740119934,-2.3527400493621826,1.9545891284942627,-1.2487648725509644,-0.5148422718048096,-1.1308189630508423,-0.12951359152793884,-1.0300840139389038,-0.9410951733589172,-0.6796776652336121,-1.4825266599655151,0.09336204081773758,1.6507289409637451,-1.4748303890228271,-2.154893159866333,0.2469627559185028,-1.418575406074524,-3.8681187629699707,2.130657911300659,-1.4926995038986206,-0.9956427216529846,2.1028623580932617,0.40177541971206665,-1.0137783288955688,0.9229282736778259,0.49322065711021423,0.310152143239975,-0.44321051239967346,-0.5244956016540527,-0.5571610927581787,1.6868573427200317,1.4439133405685425,-1.3294811248779297,-0.05686379224061966,0.9016513824462891,-1.0415356159210205,-0.9384638667106628,-1.1187654733657837,-0.6807894110679626,-0.38525500893592834,1.1769239902496338,0.8609148263931274,0.6219714283943176,2.4141149520874023,3.217106819152832,2.5613324642181396,-1.3140085935592651,1.0941200256347656,1.3569958209991455,0.3240758776664734,-1.882335901260376,-0.23928973078727722,0.6020643711090088,-0.24562549591064453,0.6517608761787415,2.2704715728759766,-1.4665790796279907,2.2608048915863037,1.601071834564209,-1.7878600358963013,-2.0668156147003174,0.6770738959312439,-0.7221083045005798,-1.8268243074417114,0.7098175883293152,2.266354560852051,-1.3149051666259766,2.183366060256958,-1.9623870849609375,-1.1362577676773071,1.7631702423095703,0.01974770426750183,-0.8292605876922607,-0.9282054901123047,0.770432710647583,0.738633394241333,-0.37709173560142517,-0.6481956839561462,-0.5955486297607422,2.703977584838867,0.5580185055732727,-0.27026382088661194,0.5017049908638,2.1607635021209717,-0.5224078297615051,-0.3476369380950928,-1.5176879167556763,-0.0148996002972126,-0.4460916519165039,0.6269333958625793,1.550953984260559,-0.3637670576572418,-2.5402328968048096,1.0426524877548218,-0.3621441125869751,-0.9674661755561829,-1.2582578659057617,-1.5886173248291016,-0.20935285091400146,0.9992355108261108,2.142272710800171,0.21073268353939056,2.920447587966919,-0.24449218809604645,-0.014091611839830875,2.066425323486328,-0.20649902522563934,0.3559495210647583,-2.072230577468872,2.073896884918213,3.0530526638031006,-2.1304783821105957,-0.854685366153717,0.16094806790351868,-1.7661932706832886,-2.1721389293670654,2.4674508571624756,-1.024011254310608,0.0910193994641304,-0.20181375741958618,2.264355421066284,-1.8085023164749146,0.9318133592605591,1.275409460067749,1.0183359384536743,0.7462342977523804,1.848925232887268,-0.8251563906669617,0.5960572957992554,1.4832791090011597,-2.1575522422790527,0.10136397927999496,-0.12458177655935287,-2.770174741744995,-2.668281078338623,-0.2532598674297333,-0.7711451053619385,1.5802470445632935,1.116128921508789,0.48181241750717163,0.968838095664978,0.4954480826854706,1.1997283697128296,1.8567163944244385,0.683349609375,-0.15525884926319122,-0.32142242789268494,-1.2431029081344604,-0.5922564268112183,-1.4306960105895996,-0.6536676287651062,2.1502811908721924,-1.028056263923645,-0.8476617932319641,0.6143290400505066,-2.406075954437256,-0.8992598652839661,-1.2709650993347168,-0.1400180459022522,-1.243967890739441,3.5074660778045654,-3.462115526199341,-1.3160480260849,0.4148520231246948,0.5273653864860535,0.10884785652160645,0.5446272492408752,-1.2859761714935303,1.2587462663650513,-3.473198175430298,1.452409267425537,-0.40404582023620605,-0.4533134698867798,2.954414129257202,0.33833661675453186,-0.3957434892654419,-0.8431415557861328,-0.6641969680786133,0.11962341517210007,1.142716646194458,-2.1858153343200684,-1.84910249710083,0.18708297610282898,0.8741775155067444,-0.19274236261844635,-0.4805639386177063,-0.24236352741718292,-1.186180591583252,-2.0662431716918945,2.5404410362243652,-1.6110056638717651,-1.9310280084609985,1.0822579860687256,0.4724443256855011,-1.5132423639297485,-0.513045072555542,1.267646074295044,-0.10506273061037064,-1.0092402696609497,-0.12193573266267776,-1.6917344331741333,0.6584249138832092,0.45628371834754944,-1.1626532077789307,-1.0398386716842651,0.11856714636087418,0.021776918321847916,0.031166870146989822,-0.5531631708145142,0.4974513649940491,0.22475294768810272,0.5909120440483093,-0.09181996434926987,0.3552487790584564,1.559483528137207,1.3759536743164062,0.236315056681633,-0.6138359308242798,2.2865400314331055,0.9063330292701721,-1.3644211292266846,-0.9330016374588013,-1.5884267091751099,-0.584781289100647,-0.4741792678833008,0.1183290109038353,-3.357729196548462,1.283531665802002,-0.5786094665527344,-1.2890124320983887,1.553613305091858,1.3261483907699585,-1.5983332395553589,-1.0980416536331177,1.5289846658706665,-1.2514069080352783,-0.7863917350769043,0.46444129943847656,-0.5948925018310547,1.4519500732421875,1.9597032070159912,1.884557843208313,-1.8011561632156372,-2.5698800086975098,0.3016600012779236,0.7193472981452942,-0.0584416538476944,2.597933292388916,0.9317348599433899,-2.1485307216644287,1.0068707466125488,-0.5964967608451843,-0.39749768376350403,-2.3039119243621826,-0.5623206496238708,-0.29041287302970886,-0.18209455907344818,0.4830697774887085,-0.9617436528205872,-0.49885615706443787,-1.9507437944412231,-0.1405177116394043,1.6870534420013428,0.08149003982543945,-1.491869568824768,0.6155283451080322,-1.0959506034851074,-0.8821628093719482,1.7284432649612427,0.5234974026679993,-0.7637512683868408,-0.4461974501609802,0.9345765709877014,-1.9807324409484863,-0.87282395362854,0.7290073037147522,-0.3090989589691162,0.8277983665466309,1.1854076385498047,0.4059552550315857,-1.5496361255645752,-0.9087013006210327,-1.5885483026504517,-0.43885624408721924,-0.30076301097869873,-0.9794347286224365,-1.9673675298690796,-1.2834136486053467,-1.9134312868118286,-1.0572806596755981,0.12123339623212814,-2.1154839992523193,0.04498585686087608,2.344001531600952,-1.7550359964370728,2.4068145751953125,1.937293291091919,0.9112401008605957,0.8339186906814575,-1.1326347589492798,-1.012932300567627,0.8771218061447144,1.3361027240753174,0.4776748716831207,1.6537086963653564,-0.33000048995018005,-1.5892302989959717,-1.4658246040344238,-1.1666772365570068,-0.9582365155220032,-1.4891650676727295,1.597943902015686,0.8094909191131592,-0.734186589717865,1.7074694633483887,0.5967899560928345,0.6761322021484375,-2.559065341949463,-0.018823692575097084,-0.26903873682022095,-0.7352378368377686,-1.889549970626831,0.31687960028648376,-0.7192193269729614,-0.8811202645301819,1.0218309164047241,0.09198453277349472,-0.5253500938415527,0.38480669260025024,0.19406524300575256,1.5706849098205566,0.271543025970459,0.4531679153442383,-1.7665824890136719,1.300550103187561,0.711316704750061,-1.2932485342025757,-1.855223298072815,1.6910320520401,-2.9805920124053955,-0.18641552329063416,0.47075924277305603,-1.3363896608352661,-1.199310302734375,0.2737913429737091,0.18913568556308746,-0.22018097341060638,2.3966383934020996,1.0560709238052368,1.760825753211975,-0.6061292290687561,2.680621385574341,1.0215797424316406,1.3658009767532349,1.000102162361145,-1.2966899871826172,-2.62869930267334,-1.4268027544021606,-0.9693936705589294,-0.23559021949768066,1.2425531148910522,0.6623157858848572,0.18669556081295013,1.4345918893814087,-1.1527245044708252,-1.1829962730407715,0.10877998918294907,-1.6033889055252075,-0.8744588494300842,1.0208524465560913,-0.46954670548439026,0.49475836753845215,0.6596079468727112,-0.750962495803833]},"inputHidden":{"rows":20,"columns":20,"weights":[0.7956851124763489,-0.3440574109554291,-1.314354419708252,-0.20066972076892853,0.04924610257148743,1.3648574352264404,0.7954599261283875,-0.19885797798633575,-0.578677773475647,0.6836051344871521,1.6679068803787231,1.3648850917816162,-0.07179129868745804,-0.17963801324367523,0.537277340888977,0.2490958720445633,-2.5798420906066895,-0.109049491584301,1.8265886306762695,-1.9046351909637451,0.10378747433423996,-0.6629090309143066,1.8832833766937256,0.23377355933189392,-1.0350761413574219,-0.04815821722149849,0.44137758016586304,0.2021215558052063,0.7906332612037659,-0.16677431762218475,-0.3320685923099518,-0.005065910052508116,-0.4891699254512787,-0.36144793033599854,0.04404279589653015,1.037534475326538,-0.510062575340271,-1.0834777355194092,-0.8988943696022034,0.9442391395568848,-1.6248536109924316,-1.0811312198638916,-2.3369297981262207,0.0192452110350132,2.686424732208252,2.556748151779175,-1.7642602920532227,-3.9922103881835938,0.6271861791610718,-3.365741491317749,0.6391388773918152,-0.813373863697052,0.05061058700084686,0.7409636974334717,-0.32094696164131165,-1.206368088722229,-0.05874089151620865,-2.135348081588745,1.8882832527160645,-0.0702594444155693,0.1208273321390152,0.3447902202606201,-0.6254512071609497,2.4580893516540527,-0.5890907645225525,-1.3981170654296875,-1.5590410232543945,-0.23150885105133057,0.2404583990573883,0.6831851601600647,0.5493273735046387,-0.048608288168907166,-0.11235576122999191,2.9364736080169678,-0.3570961356163025,-0.5865644216537476,1.9007577896118164,0.11167463660240173,-0.7265592813491821,0.5117906332015991,-5.364795684814453,2.3750529289245605,-1.750988245010376,-0.38563036918640137,-1.582341194152832,0.41868606209754944,1.411900520324707,0.02365553379058838,-0.5497313141822815,-1.924906611442566,-2.986689805984497,-1.6617929935455322,0.37494125962257385,0.08870820701122284,-2.0015947818756104,-0.20907188951969147,0.8343127965927124,-2.1356706619262695,-2.3357622623443604,0.00910597387701273,-1.4744973182678223,0.8568912148475647,-0.12172899395227432,2.3618743419647217,-0.00003879018913721666,-1.5198003053665161,1.7062405347824097,0.3892628848552704,1.1129722595214844,-0.8132591843605042,-0.31332868337631226,-0.1412065327167511,1.3898732662200928,2.8329269886016846,-0.8544378280639648,1.3561558723449707,-0.5804773569107056,2.323096990585327,0.5524547100067139,0.4769967198371887,0.2638138234615326,-1.0326757431030273,1.4009867906570435,-1.2526297569274902,-0.2867892384529114,-0.013349884189665318,0.09490600228309631,-1.691412329673767,1.7825193405151367,1.6065999269485474,-0.3784079849720001,1.0977286100387573,-0.985023558139801,-0.547805666923523,0.23414728045463562,-0.5015925168991089,0.6725831627845764,1.2653902769088745,-0.22704258561134338,-0.19171519577503204,-0.6803556680679321,0.3136896789073944,-1.508449673652649,-2.367645502090454,0.47453081607818604,3.2327523231506348,-0.39011043310165405,0.382236123085022,1.323352336883545,0.5722585320472717,-0.8137878775596619,0.6643010973930359,-1.175378441810608,-1.2449685335159302,1.3224329948425293,-0.14647485315799713,-2.194913148880005,-0.26538100838661194,3.2406749725341797,-2.5199055671691895,-2.8598461151123047,3.2589452266693115,-0.7823283076286316,-0.060346364974975586,1.7989894151687622,0.11092397570610046,2.7160232067108154,-0.9108524322509766,1.139447569847107,-0.2468828707933426,0.18387535214424133,0.21005545556545258,1.4170749187469482,-0.9044157266616821,-0.9222517609596252,-1.7277237176895142,-0.6321350932121277,-0.9232242107391357,0.09644660353660583,1.1230237483978271,0.102267786860466,0.916170597076416,-0.9537844657897949,0.02054528146982193,-0.9299670457839966,-0.29431772232055664,-0.38452649116516113,-0.6596691608428955,2.375065565109253,0.3614000678062439,0.17637667059898376,0.7014976143836975,-0.17858342826366425,-0.05252913013100624,-0.26010850071907043,0.4309902489185333,-0.5868170261383057,-1.1972213983535767,0.28401318192481995,-0.9707502126693726,-0.6951567530632019,0.12345770001411438,-1.8926979303359985,-0.7846879959106445,0.6515374779701233,0.17823819816112518,0.6549145579338074,-0.1303327977657318,0.4644962251186371,-0.14584091305732727,-0.40345674753189087,-1.065739393234253,0.6415759921073914,-1.2620517015457153,-2.3585453033447266,-1.1687595844268799,-1.576489806175232,-0.3830355405807495,-0.5035478472709656,-0.13831810653209686,0.7054792642593384,-0.3310547471046448,-1.6274479627609253,-0.5270224213600159,-0.6049646735191345,-0.011353605426847935,-2.1901543140411377,-1.7797658443450928,-1.774129867553711,-2.2144148349761963,0.4443870186805725,-0.4731655716896057,-2.3498122692108154,0.3714247941970825,-0.5694171190261841,-2.572938919067383,-0.4910590350627899,1.4719984531402588,-0.3574858009815216,-0.7327710390090942,-1.2545334100723267,1.1841092109680176,-3.0076358318328857,-0.7697380185127258,1.8286563158035278,0.6098710894584656,-2.314302682876587,-1.054161787033081,0.37351876497268677,1.1378659009933472,-1.4537302255630493,-1.6454699039459229,0.2516745626926422,-0.6897631287574768,-2.1743204593658447,-0.34265559911727905,-0.3231295943260193,0.668816089630127,-0.4686068296432495,-1.7596982717514038,-1.4723771810531616,-0.4251042902469635,-0.14908958971500397,-0.30006006360054016,-1.31510591506958,-0.7123512625694275,0.4411669075489044,1.565093755722046,0.8984531164169312,-0.26958295702934265,1.674862027168274,0.8130052089691162,-0.684617280960083,-1.0801244974136353,-0.8421517014503479,0.6500048637390137,1.7012630701065063,0.40233996510505676,-0.06948473304510117,2.076756238937378,-0.04926266521215439,0.5355698466300964,-2.0364389419555664,0.8983976244926453,-3.388962984085083,1.3897466659545898,-2.6501381397247314,-0.46309006214141846,0.19320757687091827,0.5395047068595886,1.0362915992736816,0.05212228745222092,-0.09409743547439575,-0.5318006277084351,1.024640440940857,-1.3566282987594604,1.1636531352996826,-0.9846367835998535,-1.0868725776672363,0.17708225548267365,-1.2440783977508545,1.074622631072998,-2.3008155822753906,-0.42371243238449097,-0.7920921444892883,0.7076966762542725,0.46797582507133484,3.650606870651245,1.0386970043182373,-0.28791484236717224,0.14192770421504974,-1.375327229499817,2.570955514907837,-0.45258578658103943,-2.109201669692993,4.517038345336914,-0.4994584918022156,-2.728834867477417,-0.507358193397522,-1.3577059507369995,0.1795605570077896,-1.1878958940505981,1.072929859161377,3.0851807594299316,-4.176665782928467,-2.933079719543457,-1.4703829288482666,-0.27277979254722595,1.0145753622055054,-0.23061582446098328,1.770825982093811,-2.3455052375793457,-1.8147616386413574,2.5403106212615967,-1.8396011590957642,-1.3933523893356323,1.6460535526275635,-0.4784233570098877,-0.28517627716064453,3.9994728565216064,1.5608551502227783,-2.1340882778167725,-0.48202911019325256,-2.2994256019592285,1.1420137882232666,3.185884952545166,-1.0724048614501953,0.5854020118713379,0.3115406930446625,2.2378032207489014,0.07329157739877701,0.9035482406616211,-4.449160575866699,-1.3433403968811035,-2.074683427810669,0.20229315757751465,-3.38065767288208,1.5717867612838745,2.0207207202911377,-1.2197628021240234,0.8149261474609375,-0.48289400339126587,0.7315549254417419,-1.5851417779922485,1.4916481971740723,-0.24704934656620026,-1.5343061685562134,1.832054853439331,0.39100366830825806,-0.6779747009277344,2.1108953952789307,-0.9571333527565002,-1.9736621379852295,-0.7232261896133423,0.6457811594009399,0.21289876103401184,0.7895349860191345,-0.9844068288803101,1.1447392702102661,2.3273041248321533,-0.29922744631767273,-1.2303653955459595,-1.4046335220336914,0.2997203469276428,-0.412170946598053,-2.6975791454315186,1.3740497827529907,-2.0806899070739746,-2.157804012298584,2.164750814437866,0.47796180844306946,-2.673518657684326,1.9706567525863647,-3.2178566455841064,-0.7379699945449829,-0.4464873969554901,-0.7703661322593689,-1.5947097539901733,-1.5474439859390259,0.8697444796562195]},"inputBias":{"rows":20,"columns":1,"weights":[-0.3270377814769745,-0.6562359929084778,1.091418743133545,0.41467195749282837,0.25881683826446533,0.7298207879066467,-0.5110188722610474,-2.0875895023345947,-0.30005183815956116,0.047651566565036774,-0.37371382117271423,0.7968804836273193,-0.4042312204837799,1.116088628768921,-0.05019897222518921,-2.187608480453491,3.3789141178131104,1.4373149871826172,-0.7406802773475647,-0.11706601828336716]},"forgetMatrix":{"rows":20,"columns":19,"weights":[0.5435730814933777,-0.20792235434055328,-0.16210028529167175,-0.3787551522254944,-0.0997108519077301,1.575008749961853,1.0407196283340454,0.1149861291050911,-0.03735252842307091,-0.02386680245399475,-2.4056320190429688,-2.950389862060547,0.04749840125441551,-1.4907475709915161,1.150248646736145,-0.2268320769071579,-1.6950218677520752,1.0627886056900024,1.817753791809082,-0.563908040523529,1.0488759279251099,-1.4552948474884033,1.98787522315979,-0.25726133584976196,-1.261668086051941,1.6743066310882568,1.3226531744003296,0.5428491830825806,1.7124282121658325,-0.10451623797416687,0.19493648409843445,-0.47590065002441406,1.1407191753387451,-0.21912534534931183,0.40901482105255127,2.556288480758667,-0.23694154620170593,-0.562850296497345,0.43025583028793335,-0.13161177933216095,0.5501739382743835,2.7715539932250977,1.6748420000076294,-1.7081265449523926,1.3072664737701416,2.798962116241455,-1.0891798734664917,-1.691571593284607,1.067724585533142,0.22362132370471954,-0.9743529558181763,0.18924249708652496,0.014491233974695206,1.347867488861084,1.852469801902771,-0.9463145732879639,-1.3575973510742188,0.9788714647293091,1.5442368984222412,1.0764342546463013,-1.2210382223129272,0.7698860168457031,-1.5816514492034912,0.0631716251373291,0.9413483738899231,0.053316205739974976,0.13134479522705078,3.56199049949646,1.3243203163146973,-1.07206130027771,1.2182704210281372,0.4617079198360443,0.6182329654693604,0.34147030115127563,-1.4631773233413696,-1.537360668182373,0.6045895218849182,1.346350073814392,0.1135832816362381,-1.7846331596374512,-0.07036576420068741,0.313949853181839,0.6718548536300659,0.38587766885757446,-0.01977362670004368,3.2049379348754883,-0.20056705176830292,0.048661887645721436,0.14648383855819702,1.2011237144470215,-1.3616905212402344,-0.7247138619422913,0.814702570438385,-0.006190975196659565,0.40624308586120605,-0.5546916127204895,1.8006213903427124,0.8235897421836853,-0.8206817507743835,1.5012154579162598,-0.6920916438102722,-0.8369808197021484,-0.26180803775787354,0.3013402223587036,-0.47923019528388977,1.5823276042938232,1.9148948192596436,0.08264017850160599,2.004594087600708,0.1612796187400818,-0.1915760636329651,1.6678932905197144,-0.2212236076593399,-0.7130976319313049,1.5248744487762451,-0.11366470158100128,-0.126459002494812,1.6331055164337158,0.9589788317680359,-0.2874027490615845,1.3102792501449585,1.5281471014022827,-1.5486257076263428,0.7947449684143066,0.4422955811023712,-0.21500630676746368,-1.1861152648925781,1.298954963684082,-1.2070949077606201,1.3061388731002808,0.4415874183177948,0.13646401464939117,-0.18386051058769226,0.3411087095737457,-0.13814419507980347,2.0150086879730225,-1.138137698173523,-0.5767614841461182,0.47001153230667114,-2.2686855792999268,-1.8232837915420532,1.2665951251983643,-0.07113583385944366,0.3364652097225189,0.1571619063615799,0.7979346513748169,0.4067102074623108,0.31775519251823425,-1.1720428466796875,-1.9914159774780273,0.1113048866391182,-0.9525727033615112,0.12038470804691315,-1.3889833688735962,-1.626969814300537,-0.30421212315559387,0.872539222240448,2.326129674911499,-0.2550390958786011,-0.8785989880561829,-1.3369650840759277,-0.1509065330028534,-0.38214701414108276,0.5040051341056824,-1.4970793724060059,1.0614848136901855,0.606814444065094,-2.0149624347686768,0.9915409684181213,0.6447288990020752,1.8350839614868164,0.3254910707473755,-1.2048530578613281,0.38754913210868835,-1.0404541492462158,-1.8556568622589111,2.3325107097625732,-1.163820505142212,-1.7955875396728516,1.5229710340499878,-0.19832655787467957,-1.1868845224380493,-0.6761155724525452,0.35778847336769104,-0.48938217759132385,-0.299625039100647,-0.5289532542228699,-2.4564313888549805,-0.6565334796905518,0.7848082780838013,-2.2361295223236084,1.6335877180099487,0.13973471522331238,-0.19533134996891022,0.12856848537921906,-1.3057774305343628,-1.2373881340026855,-0.20466990768909454,0.22177539765834808,0.24347913265228271,0.7911564111709595,-0.2403402477502823,0.7067183256149292,-0.0589100643992424,1.3303329944610596,2.085874557495117,-0.34401315450668335,-0.04458320885896683,0.7001512050628662,0.10181701183319092,1.3312259912490845,0.3624572455883026,-0.8798028230667114,-0.005274096503853798,-0.982263445854187,-0.7249300479888916,-2.175079822540283,0.10722643882036209,2.328695058822632,0.3517354428768158,-0.20804913341999054,0.3103049397468567,0.32645946741104126,-1.3179619312286377,-0.025967849418520927,-0.9515486359596252,-0.0743551254272461,0.5234336256980896,0.25024959444999695,-0.9812750220298767,1.0436946153640747,-1.30312180519104,-0.593055009841919,-0.2876720130443573,-1.0101574659347534,-0.6219704151153564,0.7304538488388062,2.355217456817627,0.29080930352211,2.3560986518859863,2.0317513942718506,1.4351462125778198,-1.0906022787094116,1.881815791130066,-1.23606276512146,-0.7830398082733154,-1.3735164403915405,0.23159268498420715,0.5340821146965027,0.26669520139694214,1.267249345779419,2.6687910556793213,-1.9295519590377808,0.6039931774139404,2.741143226623535,-1.2211499214172363,-1.0258386135101318,1.0197230577468872,-1.1415492296218872,-0.6175510287284851,-1.3702170848846436,-0.04653448984026909,0.7042293548583984,1.018913984298706,-0.9548050761222839,-1.4030667543411255,-0.1447063386440277,0.9739936590194702,3.055370569229126,-1.224271297454834,0.541905403137207,0.29855865240097046,-2.619293451309204,-0.10070789605379105,-0.14502021670341492,-2.0250046253204346,0.9140066504478455,-0.18572592735290527,0.36863940954208374,-0.8529899716377258,1.8258188962936401,2.121790647506714,-1.311472773551941,-0.19146181643009186,-0.3984942138195038,-0.296419620513916,1.6905580759048462,0.5932151675224304,1.4355162382125854,-0.7294184565544128,-1.210488200187683,-0.3344457447528839,1.7734812498092651,2.7479145526885986,0.728660523891449,1.1219732761383057,-1.2689192295074463,1.0526607036590576,-0.7765734195709229,-0.18250122666358948,1.3630003929138184,-1.5281226634979248,-0.8960274457931519,-1.1961884498596191,2.048271417617798,0.4729626476764679,1.3704501390457153,-1.9173251390457153,0.37918269634246826,-0.6798014640808105,-2.0747900009155273,-2.0662288665771484,-0.787754476070404,1.066346526145935,0.8092542886734009,1.2271620035171509,0.8004605174064636,1.8990507125854492,-1.618480920791626,0.30114540457725525,-0.3258803188800812,1.5666589736938477,0.4310535192489624,-2.338602066040039,-3.2660436630249023,-0.6842798590660095,0.3497461974620819,-0.6261894702911377,1.7995235919952393,-0.5877795815467834,-1.4056344032287598,1.3112050294876099,-1.3627327680587769,-2.8279271125793457,-1.2421693801879883,-0.2606857717037201,-0.36638519167900085,0.05968048796057701,0.8514991998672485,-0.09420786798000336,3.9536185264587402,1.834700345993042,-1.9096348285675049,0.3508610129356384,0.7090355157852173,-0.12095567584037781,-0.21675193309783936,0.04379016533493996,-1.7452099323272705,-0.3160030245780945,2.4987752437591553,-0.5765543580055237,1.3976728916168213,-0.11569339036941528,1.0185432434082031,-0.9886513948440552,2.3252387046813965,0.5598646998405457,-0.996081531047821,-1.1105926036834717,0.43236207962036133,-0.02851823903620243,0.2293182909488678,1.0882270336151123,-0.35328349471092224,1.4932019710540771,-1.38853919506073,-0.358011931180954,-0.15386012196540833,0.3888821005821228,-2.073054552078247,-0.44145041704177856,0.026606712490320206,1.131547212600708,0.003189460141584277,1.3882235288619995,1.5400924682617188,1.7895961999893188,-0.15036281943321228,-0.439607173204422]},"forgetHidden":{"rows":20,"columns":20,"weights":[0.5506170988082886,-1.0182794332504272,-2.089820384979248,-0.5549631118774414,0.6597793698310852,0.5371288657188416,0.22789956629276276,0.05088024213910103,-0.6281166672706604,-0.6223931312561035,-0.8030629754066467,-0.32150372862815857,1.201201319694519,0.21050238609313965,-0.6630764007568359,0.3441264033317566,-0.7580647468566895,-1.0887080430984497,-0.2757600247859955,-0.2352881133556366,1.0361207723617554,-1.0376437902450562,-3.0107688903808594,2.5900566577911377,-0.5531707406044006,-2.0632858276367188,-1.7148956060409546,-1.3058072328567505,-0.5504434704780579,-0.4495300352573395,1.149718165397644,1.9171220064163208,-1.1672694683074951,2.9127695560455322,0.6963831782341003,0.43243682384490967,0.9186217784881592,-1.5092068910598755,0.060388822108507156,2.0004541873931885,-1.6667710542678833,-0.12699107825756073,-0.7435014843940735,-1.0255059003829956,-0.8102357983589172,1.0686872005462646,-0.406914085149765,-1.9295333623886108,-0.1927405148744583,-1.8718503713607788,-0.9001474976539612,-1.887485384941101,-1.3410415649414062,-0.7419515252113342,-1.8263345956802368,0.05155331641435623,-1.042401671409607,1.2899965047836304,0.22246071696281433,-0.13720746338367462,0.4801907539367676,-0.7466001510620117,-1.1976490020751953,0.8769182562828064,-0.19512447714805603,0.255143940448761,0.23773784935474396,1.2195671796798706,-1.503739833831787,1.6256412267684937,-0.09462863206863403,-0.3110524117946625,-0.29195788502693176,1.159556269645691,0.9645846486091614,0.340972900390625,0.8868902921676636,-0.7913307547569275,-1.076564073562622,-0.46538814902305603,0.7645216584205627,-0.5393875241279602,-0.43601199984550476,-0.0786062553524971,-2.315765142440796,0.2762347161769867,-0.5453788638114929,-0.03588736057281494,-0.20075969398021698,0.23708771169185638,1.4845259189605713,1.3912467956542969,-0.23096251487731934,-0.9217171669006348,1.6986173391342163,1.2112970352172852,1.3725481033325195,-1.6891188621520996,-0.2908172905445099,1.34285306930542,0.022412966936826706,0.10078515112400055,-0.45670652389526367,0.4830631613731384,-1.61439847946167,-1.8384689092636108,-0.6524068713188171,0.705332338809967,-1.9901701211929321,0.11327040940523148,0.1577834188938141,-0.11380589008331299,0.6238822937011719,0.11348745226860046,0.3765839636325836,-0.01068428810685873,1.7878904342651367,0.21407346427440643,-1.5906449556350708,0.4506061375141144,-1.0411547422409058,-0.5155027508735657,0.07937516272068024,0.588577151298523,0.05654646456241608,-0.2911391854286194,-0.5685826539993286,-1.7162822484970093,-0.8332980275154114,-0.2975476384162903,-2.747333288192749,-0.2529504597187042,-0.8349778056144714,0.12599532306194305,-4.2143049240112305,-1.6014138460159302,-2.0944395065307617,1.0071163177490234,0.17830291390419006,-1.192034363746643,-1.9740430116653442,-1.6203398704528809,-3.1537065505981445,-0.8645805716514587,0.6069671511650085,2.323859691619873,1.4532780647277832,-1.6661239862442017,-0.1026163250207901,-1.6147226095199585,1.354576587677002,-2.0042941570281982,-0.11238221824169159,-2.8039445877075195,-0.9602369070053101,-0.22349144518375397,-1.2447718381881714,-1.1173990964889526,-0.21306176483631134,-0.15334802865982056,0.5553750991821289,0.02332231029868126,1.3428295850753784,1.3230713605880737,0.18903596699237823,-1.0356816053390503,-1.2460479736328125,1.2414723634719849,0.5922136306762695,0.3671140968799591,1.4631978273391724,1.0964381694793701,-0.5042534470558167,0.4474031627178192,-0.2919059991836548,2.7942583560943604,-1.0560489892959595,0.8422561883926392,-0.1690911203622818,-0.7597665786743164,0.5460100769996643,2.5954084396362305,0.10961797833442688,0.7124794125556946,0.9520702958106995,-1.4898594617843628,0.419648677110672,1.142663598060608,0.935434103012085,0.5945475697517395,0.35243910551071167,0.8785482048988342,1.0168709754943848,1.1591721773147583,1.0485656261444092,0.2980850040912628,0.47472628951072693,-0.9288618564605713,-0.4063647389411926,1.751975178718567,3.867870330810547,-4.580450057983398,1.8613148927688599,1.1038538217544556,-2.410405158996582,-1.7193543910980225,-2.2918307781219482,0.5146876573562622,-1.7769540548324585,0.5871981978416443,2.3190042972564697,1.1354409456253052,-1.0194146633148193,1.8168883323669434,0.909753143787384,-0.7294044494628906,1.5547211170196533,0.40750938653945923,0.3272459805011749,0.9650784134864807,0.01578351855278015,2.522972345352173,-0.6341056823730469,-2.142000913619995,2.715492010116577,3.7407917976379395,-0.19133447110652924,-1.689865231513977,2.318342447280884,2.3163363933563232,-3.9083545207977295,0.24147909879684448,1.2415872812271118,-2.9990947246551514,0.03255005553364754,-0.8081372380256653,-0.8635095953941345,-0.26380032300949097,1.0010035037994385,0.6253811120986938,-1.9601550102233887,-1.0719126462936401,2.365347385406494,-0.08756478875875473,-0.5753499865531921,-0.16715863347053528,0.4637933671474457,0.4756709039211273,-1.8239784240722656,-1.5282388925552368,-0.5235095620155334,1.4325544834136963,-0.03447621688246727,1.1162950992584229,-1.2634888887405396,-1.8923475742340088,1.795905351638794,0.6557822227478027,-0.9432861804962158,-0.7533866763114929,-0.8536710739135742,0.4992426335811615,-1.4500255584716797,-1.0089961290359497,-0.3948863446712494,-0.7011187076568604,-1.072305679321289,-0.722256064414978,-0.36527177691459656,-0.1953553557395935,0.2512452006340027,-1.8187408447265625,-0.03763744607567787,-0.2744396924972534,-0.8636392951011658,0.12178967893123627,0.5147995948791504,-0.2582245469093323,-0.6881120204925537,0.338494211435318,-0.10855583846569061,2.5381672382354736,-1.1301740407943726,-0.03251950070261955,1.8445957899093628,1.0532972812652588,0.629078209400177,0.6675564646720886,0.7611994743347168,0.7215604186058044,-1.2900115251541138,0.09004219621419907,1.288330316543579,-0.21528935432434082,0.04582490399479866,0.9256861805915833,-1.538222312927246,-1.6711156368255615,-0.0042746481485664845,-0.48469674587249756,1.4084798097610474,0.7613970637321472,-1.4124107360839844,-1.6342765092849731,1.2920238971710205,1.4685781002044678,-0.3366701304912567,-3.4846479892730713,0.6582297086715698,-0.8142201900482178,-1.4005467891693115,-1.456446647644043,0.9620342254638672,-1.1222883462905884,-2.359290838241577,-1.1884063482284546,-1.26954185962677,-0.026865486055612564,0.43769755959510803,-2.57222056388855,0.10392322391271591,0.07754075527191162,1.2188787460327148,1.4685171842575073,-0.7686882615089417,-1.9110156297683716,-0.4780718684196472,0.7210967540740967,-1.2349261045455933,0.0303373821079731,1.1720563173294067,0.3294864892959595,1.3050888776779175,2.2114782333374023,-0.5298592448234558,-0.09277141094207764,0.5256704092025757,0.27180907130241394,0.40396931767463684,1.052880048751831,-0.43072155117988586,1.5479450225830078,-0.4084128439426422,2.0593199729919434,0.6751053333282471,0.7337014675140381,0.3428281843662262,-1.1077557802200317,1.430979609489441,-0.22812342643737793,0.05067373439669609,-0.18694432079792023,-1.377025842666626,6.493138313293457,0.3712380826473236,-0.49826309084892273,0.8418219089508057,-1.169964075088501,0.8059710264205933,-3.264251708984375,1.3527562618255615,-1.3206137418746948,-1.1178786754608154,-0.353913813829422,-1.3994616270065308,-1.3296035528182983,-2.0858566761016846,-0.1712527573108673,-0.9420625567436218,-0.3887079954147339,1.36506187915802,1.3033511638641357,-0.6179732084274292,-1.0299172401428223,1.6975651979446411,-0.9027036428451538,2.032583475112915,-0.25431933999061584,-0.46936219930648804,1.2613461017608643,-0.9933905005455017,0.6435842514038086,0.600128710269928,0.6627613306045532,0.02095789462327957,0.7160004377365112,-1.068477749824524,0.9800122976303101,-1.300266981124878,1.245593547821045,-1.6660953760147095,-1.0670793056488037,1.8535521030426025,-0.9727686643600464,-2.3120617866516113,0.5807726383209229,-1.1924009323120117,0.11020247638225555,-0.9621106386184692,-1.0625542402267456]},"forgetBias":{"rows":20,"columns":1,"weights":[0,0,0,0,0,0,0,0,0,0,0,0,0,0,0,0,0,0,0,0]},"outputMatrix":{"rows":20,"columns":19,"weights":[-3.3041937351226807,-1.2852054834365845,0.1555383950471878,-1.339401125907898,-0.9850332736968994,-0.3524399995803833,-2.1610970497131348,-2.3465163707733154,0.14829766750335693,1.284429669380188,-0.3294920325279236,0.6647242903709412,-0.6121206283569336,2.0915825366973877,0.28966057300567627,2.081313133239746,-0.5339846014976501,-0.24870961904525757,-0.2551022469997406,-2.255733013153076,-0.459875226020813,-0.13554494082927704,-1.3843803405761719,-2.1947197914123535,2.048455238342285,-0.9490640163421631,-0.9367278814315796,4.353302478790283,-0.6269150972366333,-0.5578590035438538,1.6766602993011475,-0.04178338870406151,0.11894766986370087,1.261989951133728,0.4134663939476013,-2.315966844558716,1.8443430662155151,2.8201937675476074,-1.6468889713287354,0.10882789641618729,1.3838200569152832,-0.5502581000328064,1.5867280960083008,-1.239190936088562,-0.6644964814186096,0.44862210750579834,-1.2940855026245117,-1.644193410873413,2.163996696472168,-1.1129120588302612,-0.6221859455108643,-2.520829200744629,0.49579542875289917,1.7720868587493896,1.165314793586731,1.9422824382781982,-0.749796986579895,3.3599720001220703,-0.7211541533470154,0.6793360114097595,-1.2472165822982788,0.9019901156425476,0.8939511179924011,-0.7850897312164307,-0.7141323685646057,-2.509432077407837,-0.4836188852787018,1.6135070323944092,0.7978981733322144,-0.3444637954235077,0.8848651647567749,-1.1322788000106812,0.02902355045080185,0.5190874934196472,-0.4009943902492523,-1.4379868507385254,1.183303952217102,-1.94785475730896,-1.935472846031189,0.29887154698371887,0.48586827516555786,-0.24675945937633514,0.7356312274932861,-0.38828936219215393,-0.6350692510604858,0.7794246077537537,1.3774001598358154,-2.7632315158843994,-1.7144179344177246,-1.533523440361023,-0.4491252899169922,-1.8310245275497437,-1.0067286491394043,0.373830646276474,1.3700075149536133,1.5052127838134766,0.9646137952804565,-2.6922521591186523,-1.0673227310180664,-0.6054105758666992,-1.18080735206604,-0.7899951338768005,-0.6366950273513794,-1.0512936115264893,-1.457077145576477,0.5402877926826477,0.21661904454231262,-2.003278970718384,2.3221445083618164,0.4673096537590027,-2.195261240005493,0.6297732591629028,0.025658387690782547,-0.3449067771434784,-0.18327198922634125,3.768038511276245,3.1433029174804688,0.07748133689165115,-1.7713345289230347,0.8238521218299866,-2.689962863922119,-1.1327557563781738,1.5999101400375366,-1.0722075700759888,1.2875655889511108,0.7880497574806213,2.3706772327423096,0.30959761142730713,1.7171276807785034,-0.7002398371696472,-1.0247681140899658,-1.2508231401443481,0.5711490511894226,-0.2849024534225464,0.38277146220207214,-0.718652606010437,-0.22450436651706696,-0.04086947813630104,1.1041078567504883,-0.6246488690376282,-0.1849132925271988,-0.8065460324287415,-2.4048027992248535,-0.29387468099594116,-1.05652916431427,0.30364516377449036,0.3537704348564148,3.222867250442505,0.9305614233016968,2.0984034538269043,0.7001744508743286,0.5749552249908447,1.6132416725158691,-0.8075000047683716,0.7053443193435669,0.09941327571868896,1.5558791160583496,-0.3060612678527832,1.4164578914642334,-0.11360755562782288,-2.398695707321167,1.0299532413482666,0.28399497270584106,0.6105395555496216,-0.4283198118209839,-0.680768609046936,-0.5482968688011169,0.5578629970550537,1.3146408796310425,-0.029468752443790436,-0.44033700227737427,-1.6362354755401611,-0.28240054845809937,0.1635703444480896,-0.22400809824466705,-2.137896776199341,2.6728551387786865,-1.007871150970459,-1.0180526971817017,2.112372875213623,-0.46444979310035706,-3.186993360519409,0.1343540996313095,0.5483572483062744,0.31631338596343994,0.32354092597961426,0.4441882371902466,-1.0312621593475342,1.273276686668396,3.4089434146881104,-0.9390391707420349,-0.30526527762413025,0.5293071269989014,-0.7357450127601624,-1.1900118589401245,0.5152454376220703,-1.4415359497070312,-1.7226152420043945,-0.7687252163887024,-0.25623518228530884,-0.01728300005197525,0.6646484732627869,1.835053563117981,-0.7314498424530029,0.14580664038658142,0.7790662050247192,1.131765365600586,2.3004443645477295,1.257763147354126,0.3248644173145294,-0.40918785333633423,2.06699538230896,0.08741051703691483,0.9744274616241455,-1.253278374671936,-0.5355760455131531,1.0557949542999268,-0.46808555722236633,1.8113046884536743,3.514044761657715,0.23543167114257812,1.1553070545196533,-1.4655698537826538,-0.9572821259498596,0.7922807335853577,-0.2808285653591156,-2.5914406776428223,-1.9451286792755127,-0.9288527369499207,-0.8706706166267395,-1.559950351715088,-3.0963540077209473,-2.492792844772339,2.0303802490234375,-0.9171467423439026,-2.490957498550415,0.6819592118263245,0.4412236511707306,-1.737775444984436,0.4818304777145386,-0.3214157223701477,-0.40767911076545715,-0.9663876295089722,-0.36089733242988586,-1.7751120328903198,1.8469843864440918,1.6490148305892944,-0.2767222225666046,-1.2010046243667603,-2.3154635429382324,0.4176013767719269,1.9375371932983398,-0.8213024139404297,2.5193350315093994,3.455632209777832,0.09391738474369049,-1.2092335224151611,-0.24237066507339478,-1.011982798576355,-1.0490823984146118,-0.40862616896629333,1.2439703941345215,-0.31924158334732056,0.2311919778585434,-4.209084510803223,-2.158364772796631,0.3989652991294861,0.11370488256216049,-1.079573392868042,-2.027825117111206,-2.7978978157043457,1.834492564201355,0.031975604593753815,-1.9547301530838013,0.422532320022583,0.6968657374382019,-1.2890225648880005,0.13634636998176575,1.9342857599258423,0.721663236618042,-1.4541139602661133,-0.30108243227005005,-1.8053089380264282,1.430980920791626,1.8307087421417236,0.7047218084335327,0.7697966694831848,1.1213414669036865,-2.115415573120117,1.4869201183319092,-0.8756639361381531,-1.9829508066177368,-1.9452959299087524,-1.275785207748413,0.07957632094621658,1.1039228439331055,3.944830894470215,1.4356591701507568,2.4189906120300293,0.04217927157878876,0.35471513867378235,3.091010093688965,-0.44150564074516296,-0.21572984755039215,-0.5391192436218262,0.029945077374577522,-0.0941358283162117,0.09606649726629257,-0.4664815664291382,-1.4168963432312012,0.33013594150543213,-0.8830681443214417,-0.3031389117240906,0.07759127765893936,-0.5704911947250366,0.743891716003418,0.001257785246707499,-0.15169936418533325,-0.03728364035487175,0.9681622982025146,0.4598528742790222,-0.291490763425827,-0.12555593252182007,-1.0155107975006104,2.080066680908203,2.2166473865509033,-2.0190277099609375,-0.8584756255149841,1.8679490089416504,-2.8960065841674805,-1.3268680572509766,1.240220069885254,-0.8279566764831543,1.4292653799057007,0.9929402470588684,2.5969181060791016,-0.6438731551170349,0.78936767578125,1.0654476881027222,-0.621323823928833,1.7985255718231201,0.47652968764305115,-2.402348279953003,-0.12549616396427155,1.9885261058807373,-2.5893874168395996,-0.44661253690719604,0.8137082457542419,-1.077406406402588,-1.7607347965240479,-0.03879785165190697,-0.5458613038063049,-1.4204362630844116,2.3395285606384277,-0.10231851786375046,1.7505505084991455,0.3372628390789032,0.664372444152832,-0.10002238303422928,1.7597202062606812,0.5011407136917114,0.735538125038147,-1.6719417572021484,-0.07071127742528915,-0.23070494830608368,1.5659968852996826,-1.3470338582992554,0.5083761811256409,1.4898608922958374,-2.568547487258911,-0.10096783936023712,-1.0350154638290405,-1.146846055984497,-0.23091164231300354,-0.49155789613723755,0.1956474781036377,-0.9521573781967163,0.9565201997756958,0.5256894826889038,-0.2758556008338928]},"outputHidden":{"rows":20,"columns":20,"weights":[-0.9345729351043701,1.2988243103027344,-2.442512035369873,-0.4506077170372009,0.5766143202781677,1.8153198957443237,0.8191808462142944,0.4394415318965912,1.178977370262146,0.9660043120384216,-0.3788847327232361,-0.36258119344711304,1.1050686836242676,-0.3160717487335205,-0.22651028633117676,-1.3715134859085083,-3.1423745155334473,1.5307402610778809,0.6242166757583618,-0.35464364290237427,0.0564560629427433,1.1180864572525024,-0.9227079749107361,1.0619224309921265,-0.10464059561491013,-0.8374882936477661,-0.8582822680473328,-0.4417699873447418,0.9842085242271423,1.50370192527771,0.1579350084066391,0.4072406589984894,-1.668730616569519,-0.27806416153907776,0.006995595525950193,-1.2883663177490234,0.343718945980072,1.9002180099487305,0.3234274983406067,0.8808428645133972,-0.9984181523323059,-1.566955804824829,-3.4163551330566406,0.6097107529640198,0.23855319619178772,0.38177916407585144,-2.347548246383667,-2.309915781021118,0.3956746459007263,-3.5466198921203613,1.2221283912658691,-1.45703125,-1.4188475608825684,2.3003551959991455,-1.8918637037277222,-1.5865966081619263,2.239297866821289,-1.7067151069641113,0.8279541730880737,2.2179651260375977,-1.22515070438385,1.8833061456680298,3.344536066055298,2.5237629413604736,-1.7041168212890625,-3.167017698287964,2.3538761138916016,-0.5865458250045776,-0.4165326952934265,1.1590765714645386,-1.9459290504455566,0.3835795223712921,1.2668545246124268,0.7917728424072266,-1.318074107170105,-0.7315856218338013,0.5697216987609863,-0.08886305242776871,-2.7393195629119873,0.8669791221618652,-0.18398916721343994,-0.584650456905365,0.6847870349884033,-0.07989896088838577,-2.2909128665924072,0.6989005208015442,-2.4274089336395264,1.2775527238845825,0.22116181254386902,-0.314187228679657,-0.4752826690673828,-1.041780710220337,-2.8031105995178223,0.5018133521080017,-1.1745538711547852,0.10932262241840363,-0.8016370534896851,-0.9291329383850098,0.46026045083999634,1.5464568138122559,-1.1213006973266602,-1.8174728155136108,0.7800795435905457,2.8661062717437744,-1.4360275268554688,-0.35588616132736206,1.866746187210083,3.6224472522735596,0.25391820073127747,-1.1967735290527344,2.0768983364105225,0.4874158203601837,1.0535595417022705,1.8748242855072021,-0.032262060791254044,1.7428382635116577,-1.4036235809326172,-1.8583241701126099,-0.09212154150009155,0.5483686327934265,-1.5452836751937866,-0.1998073011636734,-1.1873186826705933,-0.9759764671325684,0.6633894443511963,-2.1353304386138916,0.11746562272310257,-0.5979595184326172,-0.06081743910908699,-1.8310884237289429,-0.9828768968582153,0.4115126132965088,0.4494517743587494,0.3341948688030243,-0.2754887640476227,-1.2534441947937012,-0.034258242696523666,2.4067654609680176,-1.2082324028015137,1.990962028503418,-0.973904013633728,2.2688820362091064,-2.070777654647827,-2.3600995540618896,2.880608558654785,0.2565247416496277,0.77702397108078,2.2044124603271484,1.7304199934005737,1.5439196825027466,-0.38495132327079773,-0.39251187443733215,1.5740879774093628,-1.1074120998382568,1.1047669649124146,1.9413903951644897,-1.8605369329452515,-0.06480536609888077,1.5275825262069702,-1.4712885618209839,-2.516054153442383,0.028443843126296997,-5.249033451080322,-0.1071092039346695,0.06673687696456909,-2.2746803760528564,1.8237979412078857,-0.2801082134246826,-2.727306365966797,-1.6913243532180786,-2.104583501815796,-4.5044121742248535,1.4568378925323486,0.8430120944976807,-3.2145943641662598,0.227508082985878,0.550696074962616,1.3238240480422974,-1.8124865293502808,1.8639651536941528,-0.1102277860045433,2.8398938179016113,-1.6436647176742554,0.7664045095443726,0.6852671504020691,-0.782321572303772,-2.0822317600250244,-1.0455703735351562,0.31791216135025024,-0.26536011695861816,0.9091452956199646,-0.8351209759712219,-1.4018065929412842,1.774653673171997,-1.4169750213623047,-1.4528775215148926,-0.13913774490356445,0.18454909324645996,0.5078353881835938,2.584174394607544,0.2788171172142029,-1.0432417392730713,-1.5783900022506714,1.670630931854248,-3.5354931354522705,-2.1499242782592773,-1.5484541654586792,-1.5057414770126343,-2.192654609680176,-1.2622623443603516,1.1389914751052856,1.0461344718933105,-1.673059105873108,1.7189191579818726,-0.5189605951309204,-2.784770965576172,3.2159643173217773,0.6643065214157104,-2.048462390899658,-0.5586204528808594,0.4161585867404938,0.238429993391037,-0.7607964277267456,-0.7026441097259521,0.41429054737091064,1.005547046661377,-1.199265480041504,-0.2362462729215622,-1.5096427202224731,-0.39256107807159424,-1.2318813800811768,0.7703120112419128,0.3087749481201172,-0.21019195020198822,-1.8573400974273682,-0.39485853910446167,-1.964844822883606,0.14711995422840118,-0.8557870388031006,-0.49486491084098816,-0.1557636857032776,1.0350538492202759,-0.3971295654773712,-0.8277613520622253,-1.6650868654251099,0.3138920068740845,-0.8573946952819824,-0.7441310882568359,0.6624810695648193,-0.4538276493549347,-0.7917048931121826,-2.0395867824554443,0.2987827658653259,0.09877490997314453,-3.005892038345337,-1.738486409187317,-0.6217049956321716,0.18259619176387787,-0.47221338748931885,-1.1749168634414673,-0.8816564679145813,0.1994093805551529,-0.8329938054084778,0.6516945362091064,-0.7108234763145447,-2.5626537799835205,0.4163380563259125,-0.23009897768497467,-0.9110912084579468,0.5257182717323303,1.6877048015594482,-1.835436463356018,-1.2736233472824097,1.8869487047195435,1.0505183935165405,-1.824520230293274,3.512643575668335,-0.5840495228767395,-0.9600992202758789,1.0038962364196777,-0.7750169038772583,-0.0781472846865654,-1.2323201894760132,-1.5083057880401611,-0.8247493505477905,0.24068191647529602,-0.16570284962654114,0.6562153697013855,-0.7184159755706787,1.1976592540740967,0.09643075615167618,2.3867101669311523,2.3187644481658936,0.3435339629650116,1.4767946004867554,-1.4467713832855225,-2.1871206760406494,-0.6370745301246643,0.5440986156463623,-1.245431661605835,-3.530522346496582,1.2361197471618652,-2.2386577129364014,-2.6234145164489746,0.9166345000267029,0.7189459204673767,0.10811520367860794,-0.2371278703212738,-1.6378370523452759,0.8259347081184387,0.07031857967376709,-3.9944722652435303,0.9451847076416016,-2.0331814289093018,-0.6831225752830505,-0.5039474964141846,0.9864293336868286,-0.3353640139102936,-1.3605839014053345,-0.15454836189746857,2.9665215015411377,-1.4386831521987915,-0.09649094194173813,0.6827239990234375,0.06899312883615494,-5.232035160064697,-4.287975788116455,-0.8281791806221008,-0.573592483997345,-1.662253737449646,2.8698863983154297,-0.31906989216804504,-4.790098667144775,-1.5200997591018677,1.0799440145492554,-2.1725382804870605,3.2963085174560547,0.5851816534996033,1.5000252723693848,0.6071903705596924,0.8635571599006653,0.07000969350337982,-0.16806760430335999,0.17116111516952515,-1.215106725692749,0.022346768528223038,-0.21149875223636627,0.002730396343395114,0.716075599193573,0.9868537783622742,-0.2630791664123535,-0.3501306474208832,-0.8620750904083252,-0.5656675696372986,0.11117788404226303,-1.704832673072815,0.6589640974998474,0.3294377028942108,-0.21212546527385712,0.046905480325222015,1.7132909297943115,-2.6437156200408936,1.4629993438720703,1.59172523021698,-0.5261730551719666,-0.503860592842102,-0.8347911238670349,1.1980645656585693,-0.2383924126625061,0.24950508773326874,-0.11363738775253296,-1.805895209312439,-1.8289995193481445,2.5392701625823975,-1.33668053150177,0.21675549447536469,-0.8725362420082092,-0.043547868728637695,-0.9354599118232727,0.5803666114807129,1.6962547302246094,-3.1916768550872803,-1.8966658115386963,4.140700340270996,-1.4885671138763428,-1.3993499279022217,-0.17219829559326172,-1.3249953985214233,-2.146198272705078,0.39159831404685974,1.4599218368530273,-1.3684980869293213,-0.2814004421234131,2.557865619659424,-1.6206315755844116,1.8160557746887207,0.007077582646161318,-1.7192087173461914,1.5557739734649658,0.15199518203735352]},"outputBias":{"rows":20,"columns":1,"weights":[-0.3239489197731018,-0.6168463230133057,0.23667918145656586,0.8860822916030884,-1.017737627029419,0.521269679069519,-0.506594717502594,-0.9031869769096375,-0.4237932562828064,-0.03412943333387375,-0.3917367160320282,1.824838638305664,-0.41691094636917114,0.6001684665679932,-0.07148699462413788,-2.259392738342285,0.9087585210800171,2.4701356887817383,-0.8938777446746826,-0.05961501970887184]},"cellActivationMatrix":{"rows":20,"columns":19,"weights":[-0.0987086221575737,1.14815354347229,1.1616337299346924,-3.0083022117614746,-0.6774846315383911,0.3225134015083313,-1.229828953742981,-1.4564849138259888,0.3894042670726776,0.7776132822036743,-0.533470630645752,0.24431714415550232,1.6514443159103394,0.327087938785553,-1.152957558631897,1.18565034866333,1.3387562036514282,1.0088247060775757,1.1499600410461426,1.3753489255905151,-0.4090660512447357,-1.0340453386306763,1.2411937713623047,1.4370990991592407,-0.33298787474632263,0.6296296715736389,2.2167463302612305,-0.5232506394386292,-1.8587428331375122,-0.012979068793356419,-2.3208413124084473,-0.250037282705307,-0.8040918707847595,1.8259857892990112,-1.3337277173995972,0.4448789060115814,-0.6433231234550476,-0.1431586593389511,-0.4119746685028076,0.9315250515937805,1.5902973413467407,-2.406877279281616,-1.1405326128005981,-0.5356415510177612,-0.8617563247680664,-1.4081991910934448,-0.8685197830200195,0.5433687567710876,0.045556776225566864,1.519600749015808,0.2952880859375,0.8028371334075928,-0.5600330233573914,1.7984178066253662,-0.8270541429519653,3.1369903087615967,-0.5763471126556396,0.9438316226005554,-0.11848361790180206,0.7247225046157837,-0.21292202174663544,-1.9448096752166748,1.7127490043640137,1.5370277166366577,-0.5331990718841553,0.4564245045185089,2.003347158432007,-1.5562282800674438,0.6646435856819153,1.1895991563796997,1.9239178895950317,-1.4260003566741943,0.2029719352722168,-1.8017252683639526,0.343822181224823,-0.3625068962574005,1.2441790103912354,0.5450173020362854,-0.8024318814277649,0.5542688369750977,-0.034668851643800735,-0.4483319818973541,1.4024004936218262,-0.4592869281768799,0.0433141365647316,0.5004866719245911,-0.3244817554950714,-2.183804512023926,0.6865317821502686,-2.5017426013946533,-0.33087629079818726,-0.7156902551651001,-1.491263508796692,0.36289167404174805,-0.20254841446876526,0.9593919515609741,-0.9882936477661133,-1.3868261575698853,0.6445666551589966,0.12998691201210022,0.6561471223831177,-0.3867681920528412,0.09841557592153549,0.5604634881019592,-0.6291822195053101,0.14483708143234253,-1.92104172706604,-0.08570155501365662,-1.1281908750534058,0.4089132845401764,-1.5942901372909546,-1.3154205083847046,-0.9326674342155457,0.4172593951225281,0.02999771013855934,-0.060934048146009445,-1.9904773235321045,0.3278595209121704,-1.2364013195037842,0.12330853939056396,2.2644803524017334,1.4129457473754883,0.88405841588974,1.4205273389816284,0.9212093353271484,-1.5436739921569824,-2.6986935138702393,0.036287859082221985,-0.39802074432373047,-2.457977294921875,-1.654181957244873,-0.7981204390525818,-0.008159332908689976,-0.10038537532091141,-1.0847681760787964,-0.8569464683532715,-1.124133586883545,-2.5374860763549805,1.9955857992172241,-1.432777762413025,-1.7150081396102905,1.489158034324646,0.609184205532074,-0.5626343488693237,-0.1306842416524887,0.5212545990943909,-1.2153161764144897,0.20312142372131348,-0.33116525411605835,-1.6796915531158447,0.5468955039978027,1.556338906288147,-1.214934229850769,-0.23416735231876373,0.34658896923065186,-0.3549284338951111,-1.8344976902008057,1.4054629802703857,-1.103455901145935,-1.192376971244812,1.599403977394104,-0.28127920627593994,-1.5194194316864014,-1.4255427122116089,0.9173673391342163,-0.7589177489280701,0.6709803938865662,-0.8535802960395813,-0.43638673424720764,1.6811895370483398,1.4592845439910889,-0.25138187408447266,0.48182401061058044,-0.2782211899757385,0.04539743810892105,-0.053946953266859055,0.4572681486606598,-0.07529747486114502,0.47477322816848755,-0.14887703955173492,-2.7900192737579346,-1.4245609045028687,-2.240616798400879,-0.5913845896720886,-0.14301759004592896,1.8035967350006104,-0.3571156859397888,0.14041881263256073,1.1266162395477295,0.6324612498283386,0.39395004510879517,-1.0198287963867188,0.09191251546144485,-1.5057791471481323,0.9574897289276123,1.6711369752883911,0.5415360331535339,-1.9636070728302002,-0.9462499618530273,1.030621886253357,0.0014312646817415953,0.10877662152051926,0.842978835105896,-1.1389493942260742,-1.5737943649291992,-0.009249500930309296,-1.0406352281570435,0.5297596454620361,1.317683458328247,0.0028625924605876207,-0.3364957273006439,1.1747572422027588,-4.116335391998291,-0.2820553481578827,1.2545722723007202,-0.15069665014743805,-2.6872899532318115,-0.8837392926216125,0.7087997198104858,-0.14407455921173096,0.35594987869262695,0.22137664258480072,-0.6464556455612183,0.06213418394327164,1.0833042860031128,-0.13721492886543274,0.8788160085678101,1.3929134607315063,0.03631452098488808,-0.7385118007659912,-2.190321922302246,1.058887004852295,0.4996575713157654,1.404866099357605,1.064103364944458,2.0279488563537598,-0.6264662742614746,-1.1071523427963257,0.19206199049949646,-1.0560169219970703,-0.7053154110908508,-0.4955540895462036,1.226817011833191,-1.9941867589950562,-0.43455639481544495,-0.3153407871723175,0.4883566200733185,1.3592597246170044,0.4173380434513092,0.5956791639328003,-1.1189624071121216,-1.9993598461151123,0.9275068640708923,-0.11319524794816971,-0.42725032567977905,1.225759744644165,1.116479516029358,-0.09882359951734543,0.7007920145988464,1.4333302974700928,-0.08925554156303406,-0.810571551322937,-0.9569739103317261,-0.41748321056365967,0.10738059878349304,-0.9511712789535522,-0.3636246621608734,-1.6058062314987183,-0.1878681480884552,0.10210844874382019,-0.9398256540298462,0.39561423659324646,0.04894261062145233,-0.7259489297866821,0.26602792739868164,0.9095191359519958,0.15470339357852936,0.36956125497817993,0.302936851978302,-2.7275211811065674,-2.4024789333343506,0.5240684151649475,-1.936005711555481,1.3944244384765625,0.28625842928886414,-1.7921772003173828,-0.3321569561958313,-0.09227052330970764,0.0012957537546753883,-3.422982931137085,0.415179967880249,0.7911379933357239,0.7674561738967896,2.5357391834259033,-0.04061891883611679,-2.3190598487854004,-0.4703173339366913,0.5480986833572388,2.192289352416992,0.9334704875946045,-0.6400268077850342,-0.29671305418014526,0.11431416124105453,0.00799885019659996,-0.6391220092773438,-0.2755928039550781,2.552992582321167,-1.8883839845657349,0.48626163601875305,0.31144046783447266,-0.5987690091133118,-1.5360832214355469,-0.3942478895187378,-0.2371620237827301,-1.0452111959457397,1.6031991243362427,0.7924320697784424,0.9158450365066528,0.0947742760181427,1.315112829208374,1.18540358543396,0.17174245417118073,-0.29950496554374695,0.43705183267593384,0.251029908657074,0.3753194510936737,0.24505586922168732,-1.1629979610443115,0.6228991150856018,-0.6714583039283752,-0.8704267144203186,0.4704777002334595,1.6701141595840454,0.6841117739677429,1.7127439975738525,0.5983261466026306,1.822634220123291,-0.9273579716682434,0.38314828276634216,1.1957049369812012,1.4211139678955078,0.4995884597301483,0.14897367358207703,1.4192497730255127,-0.09596719592809677,-0.09063006192445755,-1.7320680618286133,0.4702793061733246,0.3173700273036957,-0.5355714559555054,1.0784410238265991,-0.22943393886089325,-0.8772175908088684,-2.244657278060913,-0.12123603373765945,0.5195753574371338,1.2010443210601807,-1.583805799484253,-1.121301293373108,0.47026994824409485,0.6961346864700317,-1.0311567783355713,0.0622355118393898,1.8090741634368896,-1.8672363758087158,0.27357178926467896,0.6214871406555176,-2.1652567386627197,-1.4821783304214478,1.5644848346710205,-0.45362716913223267,-0.4036719501018524,0.3509348928928375,1.965897560119629,0.39589542150497437,-0.05812928453087807,2.1521527767181396,1.4633395671844482,1.2696126699447632,0.31197863817214966]},"cellActivationHidden":{"rows":20,"columns":20,"weights":[-0.5903418064117432,-0.6186423897743225,0.1534283310174942,0.8354408740997314,0.7353852987289429,0.7754970192909241,0.7352609634399414,0.8089805245399475,0.7445226311683655,-0.34409698843955994,0.8514688611030579,0.02298707142472267,0.5359620451927185,1.1078470945358276,-0.4179474115371704,-0.15996599197387695,0.46062520146369934,0.37728869915008545,-0.007896476425230503,-0.7050257921218872,-1.2642486095428467,1.7362726926803589,-1.1923282146453857,1.3134682178497314,1.9097213745117188,1.4535396099090576,0.48756298422813416,-0.09411890804767609,2.117175817489624,-1.2874159812927246,-0.9595819115638733,0.3178270161151886,-0.5024945139884949,-1.3641235828399658,0.29559361934661865,1.5951648950576782,-1.6380877494812012,-0.1662387251853943,1.9743037223815918,-1.9169496297836304,-3.1679608821868896,0.2194070965051651,0.04887905344367027,0.6249492168426514,-0.9998591542243958,0.5049505829811096,2.8136439323425293,2.398298978805542,0.818530797958374,1.5650334358215332,-0.21504734456539154,-2.47318434715271,3.303429126739502,0.009515218436717987,-1.829740047454834,2.081303119659424,-0.2638269364833832,-0.9707522988319397,-1.9704724550247192,-0.8106916546821594,0.41493934392929077,-0.4715486466884613,1.486962080001831,0.6332676410675049,-0.6396638751029968,-0.7047674059867859,0.41133633255958557,0.3944717347621918,-0.5991237163543701,-0.26155778765678406,0.70253586769104,0.5197864174842834,0.3425111770629883,1.4176396131515503,-0.03727920725941658,0.829365074634552,-1.5393263101577759,-1.3358445167541504,-1.1166900396347046,-0.35346922278404236,0.0790189653635025,0.26917847990989685,1.2036080360412598,-0.10093411058187485,0.979688286781311,0.9383227825164795,-2.71144700050354,-1.9776545763015747,0.36900702118873596,-2.1729307174682617,-0.02983943186700344,-1.6813664436340332,-1.5627201795578003,0.6857517957687378,0.20059634745121002,-1.3010950088500977,0.038622550666332245,1.6015859842300415,1.8718160390853882,-1.3619829416275024,-0.4602135419845581,2.3400609493255615,0.4362548291683197,-0.9315903186798096,2.8980231285095215,3.6520535945892334,0.3097233474254608,-0.31958529353141785,1.026357889175415,0.6446273922920227,-1.1240490674972534,1.5156710147857666,0.5176682472229004,-0.9212212562561035,1.487398624420166,-0.17953938245773315,-0.3004944920539856,1.094656229019165,1.6141947507858276,-1.8415273427963257,-0.1892281323671341,1.2083485126495361,0.7450254559516907,0.09817527234554291,0.8487124443054199,-0.12326014786958694,-1.5155960321426392,-0.5778414011001587,0.5049028992652893,0.1385289579629898,-2.3294289112091064,-3.6165027618408203,-0.1829880177974701,0.5566608309745789,-1.8062076568603516,1.3409405946731567,0.522742509841919,-0.20389258861541748,0.4047067165374756,-3.369126319885254,-1.762305498123169,-1.2300382852554321,1.4341034889221191,1.369037389755249,-2.662762403488159,-0.9221649169921875,1.4621973037719727,0.21744896471500397,-0.3073137700557709,-0.5019206404685974,0.9458252787590027,-0.1558743715286255,0.04454462230205536,-0.06916651874780655,0.09213811159133911,0.22696782648563385,0.15804138779640198,-1.3908162117004395,-1.256659984588623,0.4137137830257416,-0.6191584467887878,0.2807530462741852,-1.0972856283187866,0.9354336857795715,0.6986326575279236,0.47444280982017517,-0.14732705056667328,-1.6212942600250244,0.82454913854599,-0.3793959617614746,0.028493139892816544,-1.1912000179290771,-0.2582327425479889,0.6880645155906677,-0.6189286708831787,-0.811975359916687,-0.8373607397079468,0.9625458121299744,0.7816078662872314,-0.7520458698272705,0.5231097936630249,-0.08836084604263306,1.1767728328704834,-0.4361317455768585,-0.2432474046945572,0.19971896708011627,0.6229388117790222,0.7999011874198914,0.08729596436023712,0.12625397741794586,0.3361376225948334,0.16238918900489807,0.7503340840339661,0.3136688768863678,0.7176649570465088,0.47042328119277954,0.44775936007499695,-0.13861821591854095,0.3471643626689911,1.9549401998519897,1.045218586921692,-1.9141381978988647,-0.7910429835319519,1.7494021654129028,-1.9821165800094604,-2.5905239582061768,0.0048691811971366405,0.900235652923584,-0.6983337998390198,-0.34110531210899353,0.7282864451408386,0.6017282605171204,-0.7972209453582764,0.5833634734153748,-0.5586026310920715,0.38584256172180176,3.086097478866577,-0.24302130937576294,-1.6221588850021362,1.5364075899124146,0.022420283406972885,-0.24966853857040405,0.5481170415878296,1.694710612297058,0.2788141369819641,-0.5039284229278564,0.7392063736915588,1.7419909238815308,0.528232991695404,1.1261900663375854,-1.2027372121810913,-0.4510446786880493,2.3416361808776855,0.6428963541984558,-0.8181788325309753,0.9717612266540527,-0.7927016615867615,-0.008706637658178806,0.5758477449417114,0.22113151848316193,-0.8488534092903137,-0.39470914006233215,-0.0697440654039383,0.8432791233062744,0.6637994050979614,-0.5681684613227844,-0.7434614896774292,1.364905595779419,-1.1078540086746216,3.0766959190368652,-0.29238972067832947,0.6643136739730835,-0.5213112831115723,1.7441866397857666,1.5675339698791504,2.9527344703674316,-0.8000273704528809,0.515392005443573,0.18961752951145172,-0.9546882510185242,-1.160956621170044,-0.8977527618408203,0.30299633741378784,0.7547643780708313,-2.0365238189697266,-3.05344820022583,1.1176061630249023,0.5265089273452759,-1.2613648176193237,0.22021427750587463,0.7471705675125122,1.8049134016036987,0.2961879074573517,1.1654412746429443,0.039708178490400314,0.5862720012664795,0.5741255879402161,-3.262098550796509,-1.711176872253418,-0.5319086313247681,-1.5985686779022217,0.40956929326057434,-1.4225705862045288,0.1152949184179306,0.32573431730270386,-1.5119152069091797,-0.19266384840011597,0.30928540229797363,-0.6723132729530334,-1.2729690074920654,-0.6146853566169739,0.39458200335502625,0.18710196018218994,-0.7189233303070068,0.43856021761894226,-1.8789093494415283,2.2017428874969482,1.610952377319336,0.4875209629535675,0.2688821256160736,-2.8908557891845703,0.3049512207508087,1.9901034832000732,-2.547384738922119,-0.21308058500289917,0.9306433200836182,1.861175298690796,0.2872372269630432,-0.2758854031562805,1.4321473836898804,-0.543186366558075,-0.3599902391433716,0.15195687115192413,0.08451937884092331,0.09050517529249191,-0.5344783067703247,0.2666846215724945,-0.6066589951515198,-0.8183294534683228,0.9023780226707458,-0.4516264796257019,0.3363110423088074,0.41866421699523926,1.4002456665039062,-0.4051288068294525,-1.8810096979141235,-0.9896858930587769,1.5126835107803345,-0.03422042727470398,0.20795761048793793,0.6962295770645142,-0.9504865407943726,-0.005051946733146906,2.715087413787842,-0.07492575794458389,1.8805378675460815,0.4127655029296875,-1.2038366794586182,-0.21308863162994385,-0.5281878113746643,-3.196800947189331,0.9512031078338623,-1.288169264793396,-2.061840057373047,1.01832914352417,1.2445768117904663,-0.2031315565109253,-0.5667577981948853,1.9024819135665894,0.3785140812397003,-1.7072129249572754,-1.8613041639328003,1.79023015499115,-1.7159104347229004,-1.872995138168335,-0.6075660586357117,-1.5471136569976807,0.5365675091743469,0.667913019657135,-3.2472891807556152,-0.16388805210590363,0.3443874418735504,-1.135644793510437,0.11317308992147446,0.4039213955402374,1.63382089138031,-0.8805004358291626,-2.259509801864624,1.0050256252288818,-1.1232566833496094,-0.23251457512378693,-2.041321277618408,-0.7848523855209351,1.6551661491394043,-0.46507349610328674,-0.687787652015686,-1.9660871028900146,0.5226666331291199,-0.09524059295654297,-2.28230619430542,-1.3996473550796509,-1.1193971633911133,-0.5892626643180847,0.13161908090114594,0.15019528567790985,-1.4500716924667358,-0.2948829233646393,0.3901476562023163,-0.12205959111452103,0.33983051776885986,0.7508254051208496,0.15345168113708496,-0.24087834358215332,1.2804276943206787,-1.1117682456970215,-0.08184173703193665,0.6550408005714417,1.5594631433486938,-0.6127461194992065,0.8707284927368164]},"cellActivationBias":{"rows":20,"columns":1,"weights":[0.3510206937789917,-0.41065579652786255,0.1848895102739334,-0.14591659605503082,-0.6669793725013733,-0.07475797832012177,-0.14510498940944672,0.2621464133262634,-0.29303088784217834,0.5585272312164307,0.2582238018512726,0.03543902188539505,-0.15190169215202332,2.790635585784912,0.2856824994087219,0.6219906210899353,-1.64387845993042,-0.12052303552627563,-0.6809546947479248,0.2629651129245758]}},{"inputMatrix":{"rows":20,"columns":20,"weights":[1.320510745048523,-0.559248149394989,1.92460298538208,-1.6501604318618774,1.9408906698226929,3.1194698810577393,-1.4152519702911377,-0.48324814438819885,-1.495651125907898,-5.507862091064453,-0.03232259303331375,-0.24261009693145752,0.09932959824800491,-0.019677884876728058,-0.013552750460803509,0.13442036509513855,-3.2026593685150146,-1.1419607400894165,0.03826867416501045,-2.0761470794677734,-0.48705026507377625,-1.959459900856018,-0.7234486937522888,-3.318051815032959,1.0511794090270996,1.889391303062439,-5.870251655578613,-4.2149577140808105,-1.6080776453018188,0.22273492813110352,-3.971695899963379,0.7270865440368652,-0.3068923354148865,-3.6891536712646484,-4.638974666595459,-3.607290744781494,0.5401490926742554,1.5283540487289429,0.4366130828857422,0.2480950951576233,-0.06359106302261353,2.2508883476257324,-4.034642696380615,4.229122161865234,1.1118781566619873,-2.823662757873535,-2.727745294570923,1.6077425479888916,0.9270018339157104,-1.960619568824768,1.5353834629058838,-1.71440851688385,-1.3309342861175537,-0.6928791403770447,2.687105894088745,-2.1438698768615723,1.8426291942596436,1.204973816871643,0.4120669960975647,-1.6259446144104004,-0.7969461679458618,2.032444715499878,-0.11551178246736526,-1.2378684282302856,3.734534740447998,1.5301196575164795,1.5121642351150513,2.991450309753418,2.264408588409424,1.5262730121612549,-0.5688954591751099,0.7373066544532776,-0.3142566382884979,-0.3466639816761017,2.7528254985809326,2.0388307571411133,-3.2685768604278564,-2.4143612384796143,3.2067368030548096,-2.316814661026001,0.17244210839271545,-1.5711814165115356,-1.7438501119613647,0.7824633717536926,0.2320827692747116,0.4464111626148224,-3.265474557876587,0.7308609485626221,-0.25291958451271057,-1.7929166555404663,1.8586488962173462,1.040515661239624,-4.447602272033691,1.1698991060256958,-3.1705288887023926,-0.13332493603229523,0.6164774894714355,1.568013310432434,-1.3535903692245483,1.8732017278671265,0.1732008308172226,0.33035361766815186,-1.441469430923462,-2.0603129863739014,2.656704902648926,4.045845985412598,0.16772107779979706,1.6460182666778564,-0.7901366353034973,-1.5360889434814453,0.6065679788589478,-0.1939285695552826,0.08609742671251297,-0.8828568458557129,1.1711268424987793,-0.2807728946208954,-3.1091644763946533,0.3766195476055145,3.463550567626953,0.0024157369043678045,-1.9004069566726685,0.6352284550666809,-1.115822434425354,-2.7325048446655273,-0.31132009625434875,1.20327627658844,0.009235444478690624,0.7310789227485657,-0.5145477652549744,0.021429238840937614,1.6998217105865479,2.3138489723205566,-0.6749051213264465,-2.789163112640381,3.1064701080322266,0.43279561400413513,0.2983516454696655,-1.090758204460144,-1.3913036584854126,1.0600754022598267,2.670762538909912,1.648860216140747,-0.6740992665290833,1.3929719924926758,-0.6227791905403137,3.217951536178589,-3.5443027019500732,-2.7445170879364014,0.6393868327140808,-0.621074378490448,1.3955607414245605,3.1056969165802,-2.1359517574310303,-2.2520718574523926,0.2314966768026352,-2.3038830757141113,6.362649440765381,1.5558435916900635,-0.5095870494842529,1.1542768478393555,-1.5971659421920776,3.0061745643615723,0.4514525830745697,-1.8262014389038086,0.7231218814849854,0.7425694465637207,1.285814642906189,0.5973573923110962,2.219101905822754,3.0650556087493896,0.2129191905260086,1.7923877239227295,1.0566816329956055,-1.9772871732711792,3.5710716247558594,-2.037292242050171,4.194282054901123,0.2869114279747009,-0.22974328696727753,-2.0514795780181885,-2.9622392654418945,1.0222673416137695,1.7125024795532227,1.6019420623779297,1.8040028810501099,0.4705137312412262,2.656268835067749,0.09027081727981567,0.08104761689901352,3.001997709274292,0.2725118398666382,-1.3539906740188599,1.556256890296936,-0.5848228335380554,0.9058007001876831,3.740899085998535,-4.624143600463867,0.9683452844619751,-3.0916812419891357,-2.021707534790039,0.9597558379173279,1.3360456228256226,0.5952339172363281,-1.9108140468597412,-2.9350974559783936,-0.6743273138999939,3.0611894130706787,0.9103553295135498,-1.4267452955245972,0.48098233342170715,0.8932430148124695,0.8681595921516418,2.4333343505859375,-3.1597719192504883,3.4729251861572266,-2.3412411212921143,0.9464613795280457,-1.7771912813186646,-1.9771174192428589,0.8230019211769104,1.3776944875717163,1.592009425163269,1.546288013458252,-4.616321563720703,0.877926230430603,1.4910556077957153,0.5982024669647217,2.461627244949341,-0.7239862680435181,4.014500617980957,-1.5619081258773804,1.2231321334838867,3.3107447624206543,-2.872363567352295,-2.3163914680480957,-0.24279586970806122,-2.5000078678131104,-0.7475636005401611,-2.223834991455078,-0.34314605593681335,-1.892104983329773,1.0698734521865845,0.4814363121986389,3.77545428276062,-0.8325216770172119,0.034713856875896454,-0.9077227115631104,1.2407399415969849,0.7453548908233643,-2.8135128021240234,3.3905560970306396,1.1972155570983887,-3.5729129314422607,3.2887697219848633,-1.2341917753219604,-0.39940062165260315,0.791313648223877,0.7598408460617065,-0.875835120677948,2.6588730812072754,-1.200762391090393,2.833481788635254,2.9547007083892822,0.04074350744485855,0.5066546201705933,0.048674095422029495,-0.7872726917266846,-0.07837200909852982,0.324042946100235,0.634503185749054,-0.35917142033576965,-2.146239995956421,2.139190196990967,-0.7911692261695862,-0.4806157350540161,0.9700839519500732,-2.4905974864959717,0.6750372052192688,-0.5014857649803162,-1.2951728105545044,3.9325294494628906,0.06399912387132645,-0.3961554765701294,0.26732325553894043,0.38467252254486084,-2.454893112182617,-2.186652660369873,2.04626727104187,0.10458768159151077,1.5651330947875977,4.8809285163879395,3.066960573196411,-0.8839072585105896,1.3222665786743164,3.991037130355835,1.5011224746704102,-1.6984363794326782,-0.21580854058265686,-1.824989676475525,0.7915278673171997,-3.1499481201171875,-2.385267972946167,-0.28968149423599243,-5.422799587249756,-1.784041404724121,4.054425239562988,-0.24389226734638214,-0.7024773955345154,1.258195400238037,-1.834473729133606,-1.2813327312469482,0.011707072146236897,1.4465787410736084,-2.575162887573242,1.1734261512756348,5.435452461242676,-1.1725002527236938,-0.91292804479599,-0.03606832027435303,-1.0380514860153198,0.07563872635364532,-0.9739826321601868,5.722187042236328,-1.3018016815185547,3.4897584915161133,0.3163275122642517,2.225837469100952,0.717271625995636,-0.40282416343688965,-2.365565299987793,-1.3057628870010376,3.6747756004333496,0.26539346575737,1.1581933498382568,1.482293963432312,1.7524349689483643,1.29330575466156,-1.5333267450332642,-2.11395263671875,-2.5419692993164062,0.3684738278388977,-0.5638670325279236,5.998360633850098,-4.448235034942627,0.12589366734027863,0.5746011734008789,-1.7341502904891968,1.9885356426239014,-1.4031435251235962,-2.86842942237854,0.2639814019203186,4.843628883361816,0.26619449257850647,-0.11699672043323517,-0.6744512915611267,0.10739628970623016,-0.9090021848678589,1.963245153427124,-1.2507743835449219,0.816978394985199,-0.8224697709083557,-0.5896262526512146,0.7896082401275635,-3.1344797611236572,-3.47914719581604,0.15741510689258575,1.703294277191162,1.2769850492477417,2.3189542293548584,1.866416335105896,-2.4100260734558105,2.0357205867767334,1.694531798362732,-2.376803398132324,2.265951156616211,0.6909700036048889,1.9956154823303223,0.9234731197357178,0.28584128618240356,0.2805492877960205,-1.0790622234344482,1.072150468826294,2.527589797973633,-0.6404789090156555,2.9562413692474365,-0.40846192836761475,-0.19916902482509613,-0.6045725345611572,-0.4738035202026367,0.3434447646141052,3.066723585128784,0.07444645464420319,-2.027726888656616,0.23405000567436218,0.9641854166984558,0.19306741654872894,-2.2772326469421387,-1.2311066389083862,1.013988971710205,-3.3949356079101562]},"inputHidden":{"rows":20,"columns":20,"weights":[2.1000919342041016,-1.3707547187805176,0.7325287461280823,-1.3620525598526,1.3962725400924683,-0.3926040828227997,0.26411110162734985,-5.367857933044434,1.514233112335205,6.285942077636719,1.1965068578720093,3.38987135887146,0.5123973488807678,-1.0039829015731812,0.30539146065711975,4.612634181976318,-1.9839533567428589,-1.7305012941360474,-3.297959566116333,-2.850830554962158,-0.3023500442504883,0.007151761092245579,1.8366750478744507,1.1494345664978027,2.0857996940612793,-0.7019105553627014,4.85853910446167,-4.195284366607666,-1.8118882179260254,1.6030851602554321,0.8895101547241211,0.6912639737129211,-0.003954311367124319,-1.276998519897461,2.2542803287506104,5.285648822784424,-1.8779780864715576,-0.6242934465408325,-1.773734450340271,-1.102968454360962,1.5336105823516846,1.4189636707305908,3.877591371536255,0.9456478357315063,-0.7305414080619812,-2.0687503814697266,-1.2140644788742065,-5.5309014320373535,1.9841066598892212,-0.26639026403427124,2.078080415725708,-0.15919063985347748,-1.8498682975769043,-2.052982807159424,0.8297765254974365,0.6272990107536316,-0.07608897984027863,-0.3645644783973694,0.5242970585823059,0.9255427718162537,-2.394542932510376,-1.5798577070236206,0.09121595323085785,-0.13854706287384033,-0.21800987422466278,-1.4209822416305542,-2.820693254470825,0.02661743015050888,-0.022996503859758377,-1.8039536476135254,0.4312208294868469,-1.4642645120620728,1.9975303411483765,-1.9081268310546875,-0.36307403445243835,-0.7576045989990234,0.8770289421081543,0.05566452443599701,-0.6056914329528809,-0.32964372634887695,-1.5904569625854492,1.6005364656448364,1.621719241142273,3.7241804599761963,0.9550542831420898,-0.5841156840324402,0.42335495352745056,-1.0409867763519287,0.11700015515089035,0.3364408612251282,0.9743810892105103,-0.3082183301448822,-2.0160953998565674,-0.026428304612636566,-0.9688584208488464,-0.3215698301792145,3.6053826808929443,0.22497862577438354,-0.20258918404579163,-0.4054373800754547,0.304021418094635,-0.2723115086555481,3.3817739486694336,1.955622911453247,0.6840819716453552,-1.416477084159851,-0.19658184051513672,-2.9586737155914307,3.7497382164001465,1.1818219423294067,2.2719316482543945,3.1753644943237305,-0.09703996777534485,1.021038293838501,-2.4840638637542725,-1.4205197095870972,0.109785296022892,0.8444058895111084,0.06267392635345459,1.9489058256149292,-1.0542725324630737,-3.8996171951293945,-0.8767927885055542,-1.7000932693481445,-2.08939266204834,1.0920504331588745,-1.5432661771774292,-0.8620690107345581,4.0628437995910645,2.235581159591675,0.29309725761413574,-3.0869526863098145,-3.2200896739959717,-0.4765278697013855,-3.912461996078491,-2.7887392044067383,1.859380841255188,-0.935716986656189,0.5844911336898804,2.302398204803467,-0.365025132894516,0.7764056921005249,-1.881018042564392,1.6502583026885986,2.2902448177337646,-1.3211067914962769,-2.2415409088134766,-1.202497959136963,2.082171678543091,-0.8754732012748718,2.4056103229522705,-1.3820959329605103,0.5945490598678589,0.9044861197471619,-2.2376821041107178,-0.5286219716072083,-0.3916434645652771,1.0236518383026123,-0.06447547674179077,-1.9554020166397095,0.025869688019156456,-1.195029377937317,1.533626914024353,-1.889358639717102,0.16308224201202393,1.1545779705047607,-0.21062618494033813,1.370043158531189,1.35308039188385,0.528233528137207,-0.5243440866470337,2.686260461807251,0.4931392967700958,-1.49573814868927,-2.444821357727051,-2.7580344676971436,-0.9745372533798218,5.641061782836914,5.099591255187988,5.1093363761901855,4.199395179748535,0.7702221274375916,2.1897706985473633,-3.8300697803497314,-1.489037275314331,0.8646997213363647,-0.2711547315120697,-0.20411476492881775,-0.02180042862892151,1.776574730873108,-1.3160285949707031,-0.46677908301353455,0.8645113706588745,-2.677093267440796,0.3678949475288391,-3.864954948425293,3.2557785511016846,5.350581169128418,-1.4510492086410522,3.1323049068450928,3.3761632442474365,1.9778271913528442,2.8267805576324463,-0.9655323624610901,0.9670647382736206,1.4499768018722534,-1.3058637380599976,4.618068695068359,-2.2962207794189453,-0.17115147411823273,-1.400386095046997,0.806434154510498,3.0362508296966553,4.138488292694092,-0.4855624735355377,-2.3196327686309814,-1.4632469415664673,2.6047754287719727,-0.4181448519229889,1.4395434856414795,1.6449973583221436,0.24639682471752167,1.6761397123336792,-1.1530226469039917,0.9498516917228699,0.34985214471817017,1.8998113870620728,0.3087535500526428,-1.380939245223999,-0.773093044757843,0.9713308215141296,0.4924866259098053,0.819050669670105,-1.4045450687408447,-2.3097755908966064,1.4003127813339233,-0.20867988467216492,-2.0101165771484375,-0.7440766096115112,-1.9161076545715332,1.4176141023635864,0.22102560102939606,-0.5900774002075195,-2.514474630355835,-1.337923526763916,3.2569196224212646,1.7026079893112183,3.4708094596862793,3.464165449142456,2.9598355293273926,-2.5449020862579346,0.5948270559310913,-1.376895546913147,0.7478504180908203,-0.43682998418807983,-0.10289240628480911,-3.0043418407440186,2.78749680519104,2.6185858249664307,3.811983585357666,1.9838372468948364,1.1267675161361694,0.38975659012794495,-2.52553391456604,0.11390884220600128,-0.35935887694358826,1.8422644138336182,0.7611651420593262,2.293585777282715,0.881582498550415,-3.859619617462158,2.103450298309326,-0.3097921311855316,-1.9682942628860474,4.047262668609619,0.1253596991300583,1.8092169761657715,1.6811964511871338,-2.565871000289917,1.504197597503662,-0.9651625752449036,-4.247060298919678,0.3107145130634308,-1.5789484977722168,-2.106152057647705,0.734645426273346,-2.3876068592071533,0.6108824014663696,4.731103897094727,-0.8120729327201843,0.5718709230422974,-4.761228561401367,-2.5806620121002197,-2.9404096603393555,-0.7442077398300171,-3.0636727809906006,-1.6375724077224731,-0.6965242028236389,1.4201222658157349,1.9392778873443604,-3.306394577026367,-0.9282278418540955,0.3195558488368988,-2.6288299560546875,-0.39714086055755615,-0.9886605739593506,-3.1796391010284424,0.0007756963022984564,-3.154046058654785,-1.2898870706558228,1.2356829643249512,0.6968486309051514,-2.075760841369629,1.4417153596878052,-1.3292309045791626,2.1261260509490967,2.6704869270324707,-6.165936470031738,3.385591745376587,0.03785428777337074,-0.4024334251880646,-0.34691348671913147,0.6312975287437439,-3.2284598350524902,2.617689609527588,-0.3304237723350525,2.6448352336883545,-1.8587063550949097,-3.29649019241333,0.579258143901825,-4.368239879608154,3.11311674118042,0.9924814701080322,-5.460690498352051,1.6222835779190063,1.3581736087799072,-1.350551962852478,-3.1032934188842773,0.32146453857421875,0.6737708449363708,1.8739802837371826,0.27958953380584717,3.813472032546997,5.319129467010498,-0.44845110177993774,3.034447193145752,-0.6239506602287292,1.1379565000534058,0.1771904081106186,-2.044013738632202,-2.402221918106079,2.7925050258636475,0.013807730749249458,-1.4533097743988037,-0.288504958152771,-1.5384327173233032,1.6917999982833862,4.057722091674805,1.4403245449066162,1.7734121084213257,-2.167647123336792,0.6635685563087463,0.7314139604568481,-4.384770393371582,-2.3208580017089844,-1.303682804107666,1.323482632637024,1.0814350843429565,-4.4904913902282715,1.570314884185791,-1.379759669303894,-5.037205696105957,-0.1632135510444641,-2.866100788116455,1.5754491090774536,-1.1079241037368774,0.9416579604148865,-7.504170894622803,-1.3431366682052612,-2.958900213241577,1.1169456243515015,-2.626394271850586,2.5721778869628906,-2.307833194732666,-1.9301230907440186,3.723021984100342,-0.7448606491088867,3.1658458709716797,3.941838502883911,2.636251449584961,-2.167625665664673,2.6164844036102295,1.0687423944473267,-1.2684555053710938,0.9562557339668274,-3.1368021965026855,3.4429931640625,0.5312453508377075,-2.0586440563201904,4.343880653381348]},"inputBias":{"rows":20,"columns":1,"weights":[0.6771456003189087,1.0145084857940674,-1.858856439590454,2.4665210247039795,6.390319347381592,-2.2990853786468506,2.033332347869873,-0.7169603705406189,1.95541512966156,3.7526514530181885,4.631718158721924,5.368961811065674,5.024020671844482,-1.9238073825836182,3.17223858833313,-1.3836487531661987,2.295557737350464,2.8034915924072266,0.38549819588661194,4.531306266784668]},"forgetMatrix":{"rows":20,"columns":20,"weights":[-2.0284290313720703,-0.1772192120552063,-1.922491431236267,-1.9354348182678223,2.0316126346588135,4.572727203369141,0.2770010232925415,0.6679779291152954,-1.8430439233779907,-2.841543436050415,-0.10614915937185287,-1.17698335647583,0.3556029498577118,-0.8094212412834167,-2.7986931800842285,-0.529082715511322,-1.9913235902786255,-2.3224310874938965,0.8971612453460693,1.624350666999817,0.5163732171058655,0.36942344903945923,1.370262622833252,-0.127119243144989,-0.23617978394031525,0.25475013256073,-6.809000015258789,-3.2757863998413086,0.07948531210422516,-0.8768604397773743,-2.5429255962371826,0.3874918222427368,1.899456262588501,1.6411807537078857,-4.203112602233887,-3.000443935394287,-0.5498916506767273,-0.14633271098136902,-0.5815029740333557,0.7148742079734802,-1.2044258117675781,1.4206948280334473,-2.8798162937164307,1.7421468496322632,0.3453957736492157,-1.165107011795044,0.23644906282424927,0.14864309132099152,-0.13850021362304688,-5.073598384857178,-1.1468349695205688,-1.0997496843338013,0.31562352180480957,1.9038602113723755,-2.167931079864502,-0.41159990429878235,1.5881094932556152,3.9052505493164062,-1.0103868246078491,0.011137583293020725,-0.8748230338096619,2.6785805225372314,-0.04882660135626793,1.5970906019210815,2.285463809967041,-0.8419598937034607,-0.06888864189386368,4.969465255737305,2.02048397064209,1.918643832206726,-2.351632595062256,0.7934514880180359,-0.29841023683547974,1.6975843906402588,-2.0047378540039062,4.231973648071289,-3.0900416374206543,2.0821683406829834,1.2605013847351074,-2.1647684574127197,-2.7767603397369385,0.010884619317948818,-2.7361202239990234,1.4824941158294678,1.3246818780899048,-1.4839611053466797,-3.7172112464904785,-1.1903280019760132,1.0527006387710571,-1.9606294631958008,0.4612430930137634,1.0161398649215698,-4.522758483886719,3.602037191390991,-2.42037034034729,-3.4511401653289795,-1.8925131559371948,-0.6401452422142029,-1.022178053855896,-0.49085211753845215,0.8117989897727966,0.818489670753479,-1.1964459419250488,-2.515761375427246,0.5621488690376282,1.2954707145690918,-1.584143877029419,-2.0319883823394775,-0.17545171082019806,0.6647533178329468,0.9862332344055176,0.6034566164016724,-0.4631277620792389,-3.479477643966675,-1.1729182004928589,-1.6953372955322266,1.8698561191558838,-0.01541384682059288,0.8327807784080505,0.9915874600410461,-0.9685476422309875,-4.932362079620361,1.9411084651947021,2.7731213569641113,0.1259949654340744,2.7792787551879883,-2.104238510131836,-0.08761497586965561,-0.7916669845581055,-3.62414813041687,-2.1895179748535156,-3.8535478115081787,-0.24765604734420776,-1.5809056758880615,-1.172430157661438,1.5514341592788696,-0.7385022044181824,0.9876782298088074,0.03650834411382675,0.9799256324768066,0.26707619428634644,1.3467882871627808,-1.5574226379394531,-2.5608410835266113,0.798164427280426,0.8865527510643005,-3.344425916671753,-3.5110793113708496,-1.8616430759429932,-0.5095841884613037,-1.4121683835983276,-1.354723334312439,1.1754848957061768,-2.0878937244415283,-1.6680912971496582,-7.647724151611328,0.3756260573863983,2.1604416370391846,1.0990890264511108,-0.10169567167758942,2.7256383895874023,0.33812758326530457,1.3465008735656738,2.485424757003784,1.293376088142395,-4.618409156799316,-1.8008428812026978,1.6538140773773193,0.43358561396598816,-2.1601083278656006,-2.2378313541412354,1.3886713981628418,-4.696197032928467,0.910348117351532,-0.27994370460510254,1.3587778806686401,-0.3733082711696625,1.475648283958435,0.8154876232147217,0.13623446226119995,-4.296269416809082,-2.5881996154785156,4.512634754180908,1.8580063581466675,-2.0644867420196533,0.05313582345843315,1.9450390338897705,-0.9407403469085693,-0.3176921010017395,1.1385248899459839,-2.1722025871276855,-4.046812534332275,1.3895117044448853,-0.4102977514266968,0.0035692350938916206,2.0713319778442383,-0.17008693516254425,-0.8577839136123657,-2.3595738410949707,0.5894293785095215,1.0676965713500977,0.20987965166568756,-2.72674298286438,-0.8826856017112732,-1.3620761632919312,1.5077265501022339,0.37990596890449524,-1.7879663705825806,-1.513569951057434,-7.785682201385498,2.2228598594665527,-3.7882392406463623,-1.73262619972229,-4.753880977630615,-0.4640730619430542,-1.4282722473144531,0.08927685767412186,-2.9968457221984863,0.821474552154541,-0.11329946666955948,-0.6431193351745605,2.292956590652466,-1.6773109436035156,-3.009491443634033,-1.8422340154647827,0.6462417244911194,2.88195538520813,2.2352778911590576,-0.7437488436698914,2.176945924758911,-0.7204466462135315,0.43870893120765686,1.6428841352462769,-2.257282018661499,2.3117642402648926,-0.8477110862731934,3.5903804302215576,-3.1124775409698486,1.3041627407073975,1.6750328540802002,0.7217481732368469,0.9695760607719421,2.011664867401123,3.286125421524048,-0.9499593377113342,-1.617079734802246,0.5362469553947449,-0.28722333908081055,1.661784291267395,0.12475007027387619,-0.8506326675415039,-3.7585010528564453,2.1392104625701904,1.056771993637085,-2.5615196228027344,3.499263048171997,-2.1873364448547363,3.5137064456939697,1.1855717897415161,0.6614524722099304,-1.3210498094558716,0.024928392842411995,0.5564665198326111,-1.139668345451355,2.428494453430176,0.3296562135219574,1.3798164129257202,0.45507004857063293,4.126981735229492,-0.2746022939682007,-2.5195822715759277,1.777097225189209,-2.6921961307525635,-1.0447440147399902,0.0658809244632721,0.5445601940155029,-1.780385971069336,-2.651468515396118,2.549002170562744,-1.466183066368103,0.3643754720687866,-2.3217947483062744,3.7989397048950195,-0.06657485663890839,-1.3813796043395996,-3.319078207015991,2.0189950466156006,1.3654636144638062,0.9757340550422668,1.6461962461471558,0.5507087707519531,3.555525779724121,0.3364262878894806,0.6897750496864319,2.2011568546295166,-0.24310731887817383,-1.4873210191726685,-2.150183916091919,-2.393002510070801,-0.3747294545173645,-1.9791008234024048,1.7262890338897705,0.010721275582909584,-1.3649946451187134,-0.42393001914024353,-1.8917486667633057,2.9691379070281982,3.1983227729797363,-0.7334116101264954,-2.156512498855591,0.1507374346256256,1.080044150352478,1.7135076522827148,-0.3523479402065277,-2.332576036453247,1.8383426666259766,1.768302083015442,-1.0914227962493896,-0.4083266854286194,2.864950656890869,-0.026883630082011223,-0.5772727727890015,-1.1053142547607422,-3.8410696983337402,1.0768003463745117,0.18684501945972443,2.97275447845459,0.43328970670700073,-0.8649599552154541,-2.6935648918151855,-2.2919211387634277,0.57651686668396,1.2899783849716187,0.6114780902862549,-0.6617708206176758,2.0869691371917725,-0.4210938513278961,-3.2543697357177734,-0.7349414229393005,-2.4733641147613525,-0.2977715730667114,3.2500882148742676,0.24714790284633636,3.9142134189605713,0.47583329677581787,-0.38334447145462036,0.1302700638771057,0.8146937489509583,3.8762364387512207,-1.080956220626831,-0.8783546090126038,-1.4081697463989258,-0.9627834558486938,0.5528250336647034,0.24597100913524628,2.690767288208008,0.42201367020606995,-1.3921210765838623,0.8234246373176575,1.5441044569015503,-1.5578070878982544,2.2537970542907715,1.6126933097839355,-0.512316882610321,1.773081660270691,-1.878481388092041,3.3007822036743164,-3.436169385910034,-0.4319142997264862,-1.7189931869506836,-2.9567220211029053,-1.2168083190917969,-1.164505124092102,-0.6692478656768799,-2.572695732116699,-1.404914140701294,2.2917850017547607,-0.4203851521015167,-5.855971336364746,-0.4617373049259186,2.4945929050445557,-0.566486120223999,2.4007177352905273,2.2580151557922363,0.7612419128417969,-2.4193994998931885,-1.9042292833328247,0.13273906707763672,-0.4829898178577423,-1.4251598119735718,-0.47190508246421814,0.4970039427280426,-0.354917973279953,3.3291993141174316,1.1692191362380981,0.6606556177139282,-0.17785854637622833,-2.1861071586608887,0.6370434165000916,2.8982584476470947]},"forgetHidden":{"rows":20,"columns":20,"weights":[-0.12091857194900513,0.11270467191934586,0.8310626745223999,4.851906776428223,2.8205153942108154,-4.107322692871094,-0.6278349161148071,-0.8779171705245972,-2.7898428440093994,0.10388493537902832,-0.564116358757019,-0.3790742754936218,1.453490138053894,0.10783965140581131,-0.10736279934644699,1.4192371368408203,0.032806407660245895,-0.9609901309013367,1.2954214811325073,-1.3472145795822144,0.5134197473526001,-1.1902742385864258,-0.5604540109634399,-1.2315174341201782,2.0949018001556396,1.4013566970825195,-0.09517146646976471,-3.5757699012756348,0.8052181601524353,-4.417811870574951,2.3782005310058594,0.3482069969177246,-0.4522981345653534,-0.3825216293334961,1.5120799541473389,0.3347204625606537,1.8112300634384155,1.0310430526733398,-1.8335521221160889,-1.3998820781707764,-1.4386245012283325,-1.0550819635391235,0.5850244164466858,0.46348950266838074,-0.37558460235595703,-1.4947550296783447,-3.137443780899048,-3.8345143795013428,-0.2768256962299347,-1.1916718482971191,-2.682016134262085,-2.4543275833129883,-2.158921241760254,-2.294245481491089,0.716423749923706,-0.0772363469004631,-1.151889681816101,-2.4566569328308105,0.20487648248672485,-2.360541343688965,2.309994697570801,1.5786542892456055,1.648301362991333,0.18873266875743866,-1.0934914350509644,2.1956381797790527,0.7852745652198792,-0.02149261347949505,0.07409241050481796,-1.3183907270431519,-1.452478051185608,-0.5183767080307007,-1.8359918594360352,1.5931293964385986,-0.5986069440841675,-0.2729576528072357,-0.05111205577850342,-0.8183402419090271,0.49079781770706177,0.42299145460128784,-0.1619117259979248,-0.6761863827705383,-0.10640912503004074,-4.213456153869629,-0.12167588621377945,-0.7749610543251038,-2.3998773097991943,-1.2679247856140137,3.8165030479431152,-2.6598618030548096,1.7043622732162476,-0.8212014436721802,-3.1130714416503906,-1.5224918127059937,0.4214872717857361,-1.2937458753585815,1.9519662857055664,0.7884479761123657,-0.1232708990573883,-0.04899122565984726,1.0735846757888794,-1.4058738946914673,2.3723948001861572,1.0586779117584229,0.00995298009365797,-2.65281343460083,-0.031385891139507294,-1.1405363082885742,-0.3949471414089203,0.6462558507919312,1.805342197418213,-3.1961171627044678,-0.18799073994159698,-0.11880447715520859,-0.7000892162322998,1.0679924488067627,1.2820509672164917,-1.938425064086914,-0.41624873876571655,-1.6755303144454956,1.805025577545166,-0.057609084993600845,0.6625850796699524,-1.8587102890014648,0.31756922602653503,2.416189193725586,0.4961584210395813,-3.828585386276245,-0.06799256056547165,-1.26699697971344,-1.9790812730789185,0.22311602532863617,0.03448469564318657,-2.8429296016693115,2.60836124420166,-0.12436030060052872,-0.7309929132461548,0.7527140378952026,-1.1206332445144653,-0.8417791128158569,-0.7250638604164124,-1.7882275581359863,4.875394344329834,-0.7897679805755615,1.5376144647598267,-1.0346404314041138,1.2682174444198608,0.1801949143409729,0.24788375198841095,0.8749226927757263,0.7031170129776001,-3.590298891067505,0.41064563393592834,0.40305277705192566,1.6543712615966797,0.5262084603309631,-1.3242812156677246,-1.261669397354126,2.569383144378662,-3.09822416305542,1.2895567417144775,1.7981129884719849,-1.3303351402282715,1.1115732192993164,-0.9799501299858093,-0.298849880695343,-0.6383339762687683,-0.2613368332386017,-0.06009022518992424,2.152198314666748,0.7586829662322998,1.6242289543151855,1.4526861906051636,-2.084044933319092,0.30178752541542053,-2.967193603515625,-0.32179000973701477,-2.0458414554595947,-0.8201237320899963,0.11327635496854782,-0.15942195057868958,1.6209309101104736,1.1354420185089111,-1.5866724252700806,0.2896726727485657,0.05499926954507828,0.7856436967849731,0.24828603863716125,0.029576575383543968,2.9094395637512207,0.19748753309249878,-0.8877961039543152,-1.7388851642608643,0.24091824889183044,-1.7711466550827026,-2.49003529548645,2.04184889793396,1.5096282958984375,-0.6968157291412354,-1.2520560026168823,1.5165268182754517,0.18959560990333557,-0.06193090230226517,0.7187215685844421,-1.1479270458221436,0.6406040787696838,-1.9743181467056274,1.8590465784072876,-1.038135051727295,0.325153648853302,1.5226349830627441,-3.2073535919189453,-0.5347776412963867,-1.2453070878982544,-0.017420535907149315,0.8582397103309631,-0.8777742385864258,-0.06361594796180725,-0.5011318922042847,0.11523421108722687,-3.861518621444702,-2.271951198577881,0.4085008203983307,-0.7770651578903198,-0.9909518957138062,0.3204137682914734,1.6156282424926758,1.7311604022979736,-0.09251673519611359,-2.2232961654663086,-1.2791106700897217,-2.32712459564209,-2.388798475265503,-0.8934182524681091,0.4612739384174347,0.7620757222175598,1.7916768789291382,-1.3751201629638672,-4.436742305755615,-0.09500502794981003,1.70010507106781,-0.31500840187072754,-0.9711107015609741,