{"type":"LSTM","options":{"inputSize":27,"inputRange":27,"hiddenLayers":[20,20],"outputSize":27,"decayRate":0.999,"smoothEps":1e-8,"regc":0.000001,"clipval":5,"maxPredictionLength":100,"dataFormatter":{"indexTable":{"H":0,"o":1,"i":2,"e":3,"y":4,".":5,"!":6,"?":7,"a":8,"l":9," ":10,"g":11,"t":12,"h":13,"w":14,"r":15,"u":16,"d":17,"n":18,"M":19,"m":20,"j":21,"I":22,"f":23,"stop-input":24,"start-output":25,"unrecognized":26},"characterTable":{"0":"H","1":"o","2":"i","3":"e","4":"y","5":".","6":"!","7":"?","8":"a","9":"l","10":" ","11":"g","12":"t","13":"h","14":"w","15":"r","16":"u","17":"d","18":"n","19":"M","20":"m","21":"j","22":"I","23":"f","24":null,"25":null,"26":null},"values":[{"input":"Hoi","output":"Hey"},{"input":"Hoi.","output":"Hey."},{"input":"Hoi!","output":"Hey!"},{"input":"Hoi?","output":"Hey?"},{"input":"Hoi","output":"Hi"},{"input":"Hoi.","output":"Hi."},{"input":"Hoi!","output":"Hi!"},{"input":"Hoi?","output":"Hi?"},{"input":"Hallo","output":"Hello"},{"input":"Hallo.","output":"Hello."},{"input":"Hallo!","output":"Hello!"},{"input":"Hallo?","output":"Hello?"},{"input":"Hoe gaat het","output":"How are you"},{"input":"Hoe gaat het.","output":"How are you."},{"input":"Hoe gaat het!","output":"How are you!"},{"input":"Hoe gaat het?","output":"How are you?"},{"input":"Hoe gaat het","output":"How are you doing"},{"input":"Hoe gaat het.","output":"How are you doing."},{"input":"Hoe gaat het!","output":"How are you doing!"},{"input":"Hoe gaat het?","output":"How are you doing?"},{"input":"Met mij gaat het goed","output":"I am doing fine"},{"input":"Met mij gaat het goed.","output":"I am doing fine."},{"input":"Met mij gaat het goed!","output":"I am doing fine!"},{"input":"Met mij gaat het goed?","output":"I am doing fine?"}],"characters":["H","o","i","e","y",".","!","?","a","l"," ","g","t","h","w","r","u","d","n","M","m","j","I","f","stop-input","start-output","unrecognized"],"specialIndexes":[24,25,26]}},"trainOpts":{"iterations":15000,"errorThresh":0.005,"log":true,"logPeriod":250,"learningRate":0.01,"callbackPeriod":10,"timeout":"Infinity","layers":[10]},"input":{"rows":28,"columns":27,"weights":[-0.8934324979782104,-3.9009592533111572,0.4214850962162018,1.0581762790679932,0.7612605690956116,-0.8805602788925171,0.09019330888986588,-0.814700722694397,-3.0730772018432617,0.9190709590911865,1.1575102806091309,1.5300686359405518,0.9621383547782898,3.1618008613586426,1.8737964630126953,-3.42584228515625,-0.23226527869701385,1.6156706809997559,-0.42235514521598816,1.24039626121521,0.045179709792137146,-2.602269411087036,-1.165684700012207,-0.47127148509025574,0.43193891644477844,1.2370458841323853,-3.131193161010742,0.2040877640247345,-1.5679571628570557,2.1731116771698,-2.9089913368225098,-1.6835381984710693,3.9574661254882812,1.6360746622085571,0.6033042073249817,2.808403968811035,1.4009501934051514,-2.689533233642578,0.797799825668335,-1.742506980895996,2.098738431930542,-1.790745735168457,0.7615456581115723,1.6776341199874878,4.312633991241455,1.0988085269927979,-0.17230042815208435,1.4510927200317383,0.42433252930641174,-2.8709261417388916,1.508175015449524,3.6314659118652344,-1.1819506883621216,0.4884521961212158,-2.7730062007904053,-0.9116076827049255,1.8920190334320068,0.4418921172618866,0.3796815872192383,2.786187171936035,0.5537925362586975,2.2575018405914307,0.5258284211158752,3.4308176040649414,-1.9515986442565918,-1.246511459350586,-0.28008535504341125,-4.740468502044678,-1.7911251783370972,-1.4285048246383667,1.279413104057312,-0.41963881254196167,0.814452588558197,-0.8981978297233582,-2.414708137512207,-0.15343856811523438,-1.743327260017395,-1.6876847743988037,-0.1583363264799118,-0.49089592695236206,3.525574207305908,3.048814535140991,-1.0803654193878174,0.7608679533004761,-0.660570502281189,-4.10833215713501,0.09792909771203995,4.9286370277404785,4.2212233543396,2.954619884490967,0.3805652856826782,0.9732253551483154,4.068241596221924,-0.22010309994220734,2.7317254543304443,-6.868766784667969,0.14857949316501617,-0.8458207249641418,-1.8296481370925903,-1.5838792324066162,-0.8547214865684509,-3.1332414150238037,-0.3770838677883148,0.8737336993217468,-3.2066168785095215,0.39977937936782837,2.9290430545806885,1.8608757257461548,1.5991613864898682,-0.29580196738243103,-0.12714622914791107,-0.01179207768291235,1.61527681350708,-2.5364139080047607,-2.028581380844116,-0.36070406436920166,1.8373252153396606,-1.2380702495574951,1.4194191694259644,-0.42058590054512024,1.6037449836730957,0.4737791419029236,2.459946870803833,-4.797926425933838,1.141768455505371,-0.8384885787963867,-2.6697206497192383,2.2426321506500244,1.6815587282180786,-5.000779151916504,-0.1706172376871109,2.1821115016937256,1.217951774597168,2.1638247966766357,-0.20194615423679352,1.6182235479354858,3.273322820663452,8.033581733703613,-1.6167241334915161,-4.370744705200195,-7.776314735412598,1.2374300956726074,1.0808253288269043,-0.3534560799598694,-0.02223663590848446,4.1249823570251465,1.6425782442092896,1.2588467597961426,-3.5900838375091553,0.6944074034690857,-7.258703231811523,-2.2904956340789795,-6.652090549468994,-8.805874824523926,-5.698419094085693,-5.388270854949951,0.6401661038398743,1.0009816884994507,-0.48934632539749146,-6.222177028656006,3.911437511444092,-2.734971284866333,0.020220965147018433,-3.5399138927459717,2.6180639266967773,-4.69842004776001,0.48778679966926575,6.429232597351074,-4.988131523132324,-1.0743813514709473,-6.378580093383789,-2.9419443607330322,-5.385606288909912,2.2451555728912354,0.9778562188148499,-0.959827721118927,12.607962608337402,-0.5718371272087097,3.2430217266082764,11.786458015441895,-8.180752754211426,-2.7003304958343506,0.9618359804153442,-2.193727731704712,1.7640608549118042,2.936983346939087,4.093185901641846,0.16182628273963928,-6.35645866394043,-0.20573711395263672,-9.539253234863281,3.51499605178833,4.486435413360596,-3.1003975868225098,-7.679149150848389,-2.8810062408447266,7.220519542694092,-1.6485915184020996,-1.7876884937286377,-0.5076050758361816,-6.114785194396973,5.513573169708252,-7.042639255523682,3.185600757598877,0.20047616958618164,0.5332211852073669,-7.758220195770264,-3.974337577819824,-1.4634915590286255,-3.302992820739746,-4.346445083618164,-5.24916934967041,-2.512084484100342,-5.756620407104492,1.9130702018737793,-8.348341941833496,-3.621809720993042,3.005293846130371,3.8616580963134766,5.872673034667969,4.196380138397217,-9.218104362487793,-2.9186606407165527,-1.41926109790802,-4.7546067237854,-8.450023651123047,-0.34400174021720886,-1.7858885526657104,5.058858394622803,5.320108413696289,10.785728454589844,1.351136565208435,-8.070737838745117,4.5251145362854,-2.2082557678222656,-4.263732433319092,-0.18642500042915344,3.797365427017212,1.5763421058654785,-0.19383756816387177,-4.826108455657959,-3.595907211303711,1.7635220289230347,-1.2719413042068481,0.27591460943222046,-1.2796261310577393,8.302485466003418,-2.898714303970337,-0.29189637303352356,2.6217870712280273,2.188513994216919,-3.410316228866577,1.6968408823013306,1.3617405891418457,1.2964298725128174,2.6032607555389404,-2.8186309337615967,3.775393486022949,-7.260369777679443,-4.5584397315979,4.086201190948486,-0.6578406691551208,3.0015530586242676,-3.889683485031128,3.762624740600586,1.0655514001846313,-3.192805767059326,-3.0068719387054443,5.780880451202393,-3.6665031909942627,-6.95603609085083,-5.660871982574463,-0.15940658748149872,-1.6938095092773438,-5.15278959274292,7.731497764587402,5.725291728973389,6.24937105178833,-1.6701581478118896,1.8379237651824951,-1.108497977256775,-1.8671084642410278,-0.21567358076572418,-8.698467254638672,-1.0320744514465332,-3.3964028358459473,11.727161407470703,-2.1081793308258057,3.6922314167022705,-0.9148350954055786,-0.7908281683921814,-2.428027391433716,-2.2401158809661865,-3.9572341442108154,3.170802354812622,2.8312735557556152,-5.629418849945068,4.62764835357666,-2.553539514541626,-1.8068257570266724,-3.421938180923462,-2.4830727577209473,-2.812626361846924,4.125588417053223,0.8946853876113892,5.000711917877197,0.6088368892669678,2.510911464691162,-2.0044326782226562,-3.2887120246887207,1.242238163948059,-3.7746260166168213,3.9488909244537354,-0.7008897066116333,-1.8546602725982666,2.4032275676727295,-1.311971664428711,4.630613327026367,1.4257404804229736,-7.129283905029297,1.0004298686981201,4.082333564758301,-0.15983819961547852,5.513084888458252,2.419783353805542,-1.0296944379806519,-2.9764158725738525,2.1548011302948,4.603653907775879,0.19068509340286255,2.863492488861084,-1.3215277194976807,3.2048733234405518,4.050835132598877,4.647976875305176,-3.768400192260742,1.5421406030654907,3.2579877376556396,-4.6671013832092285,-5.773502349853516,3.123176336288452,3.1301848888397217,-2.8497467041015625,2.360560894012451,-0.4292542338371277,-2.3887672424316406,-3.4347455501556396,-4.0987935066223145,1.3945095539093018,5.956325531005859,5.485201835632324,0.3397938311100006,0.8662639856338501,2.8856406211853027,2.376643419265747,-4.880812168121338,-4.10621452331543,-1.8038220405578613,-0.5081203579902649,-2.4690186977386475,0.18115659058094025,-3.3079278469085693,-2.2040882110595703,2.001155138015747,-0.2801472544670105,-4.535586833953857,-1.5020819902420044,-0.04085033759474754,-1.9097548723220825,0.12346501648426056,-0.33799558877944946,0.5791633129119873,-0.7503395676612854,3.7047436237335205,-8.255144119262695,-6.378164768218994,0.12481150776147842,-4.435433864593506,3.7162461280822754,-0.19459977746009827,0.17978441715240479,-2.4258053302764893,-2.243736505508423,-2.362926959991455,-2.7167773246765137,-1.23135507106781,-7.757079124450684,-4.500223159790039,1.9710358381271362,2.7675228118896484,1.7342453002929688,2.455636501312256,3.46752667427063,-0.9755107760429382,-2.744342565536499,-3.6889805793762207,1.3916083574295044,2.7039291858673096,3.149033308029175,-1.2850613594055176,-3.799534797668457,-1.4679745435714722,0.5057088732719421,-0.08054713904857635,-8.631592750549316,-2.021817922592163,5.591658115386963,-3.568066120147705,-4.562382221221924,-1.7829313278198242,2.5044636726379395,-1.738351821899414,-1.905621886253357,-3.540341377258301,-4.697884559631348,-3.7105650901794434,0.9984297156333923,-6.230167388916016,-5.226159572601318,7.927206039428711,0.4871227443218231,3.1323764324188232,5.454540729522705,-1.6160905361175537,2.83697247505188,3.5080831050872803,2.737981081008911,6.238300323486328,3.3878300189971924,0.7175878286361694,-7.4638566970825195,-2.3790535926818848,3.8245689868927,3.5027613639831543,6.1415300369262695,-4.208866119384766,-0.34143510460853577,6.97848653793335,-2.3869760036468506,1.3956180810928345,2.2507071495056152,1.6614195108413696,-2.7731971740722656,0.16497033834457397,-0.06052659451961517,1.3408470153808594,-2.3979828357696533,0.1679469794034958,5.869786262512207,2.595860004425049,-0.16752777993679047,-2.66196870803833,1.5490825176239014,-4.758820533752441,-4.071005821228027,4.024431228637695,3.554152727127075,1.9806747436523438,3.251857042312622,1.8510870933532715,-2.819182872772217,7.006175518035889,0.20312771201133728,-4.678447723388672,1.6200063228607178,6.2002339363098145,-2.0675885677337646,2.714355707168579,3.3744289875030518,-0.6167962551116943,4.5235419273376465,1.628565788269043,-2.034335136413574,-3.7724697589874268,3.8141660690307617,-1.5468217134475708,-4.715295314788818,7.013673782348633,-3.6825168132781982,-8.298463821411133,7.259058952331543,-0.6856536865234375,-5.819664478302002,-3.8522703647613525,10.02579402923584,2.653609275817871,-2.7530710697174072,1.705065131187439,-1.5405445098876953,0.455282598733902,-0.9253655672073364,-3.7702248096466064,0.092528335750103,2.695753574371338,-0.009606597945094109,3.4663808345794678,2.2673115730285645,5.249758720397949,-2.0051708221435547,1.6268821954727173,0.6417520642280579,-6.861514568328857,2.5690455436706543,-2.357543468475342,6.159441947937012,1.8900439739227295,10.78243350982666,-0.4152086675167084,-0.04820406436920166,0.7596668004989624,2.668750524520874,3.196643829345703,1.7362933158874512,2.3949551582336426,-0.16126221418380737,2.1142287254333496,4.170829772949219,-6.462068557739258,4.788522243499756,-0.668571949005127,2.025571823120117,1.2793551683425903,-5.85410213470459,7.332263946533203,-1.8277000188827515,1.5849229097366333,-7.2596116065979,-2.2877023220062256,-1.5617793798446655,-1.5447651147842407,0.7770503759384155,0.22199775278568268,-0.820050060749054,0.5020251870155334,2.1232783794403076,3.3585190773010254,1.994895100593567,-5.578403949737549,-0.6025450229644775,3.079519271850586,5.419672966003418,6.46519660949707,-4.4164886474609375,2.9089272022247314,3.5887227058410645,-4.5784807205200195,1.6143208742141724,-7.77395486831665,-1.1820462942123413,4.153815746307373,3.4561777114868164,3.870319128036499,-3.6564106941223145,8.430610656738281,1.9949320554733276,-5.545502185821533,-5.602680206298828,-3.349897623062134,1.970884084701538,-1.5950249433517456,2.8149003982543945,1.357779860496521,4.465333938598633,-1.690558910369873,-0.5119024515151978,1.1883922815322876,0.37647509574890137,-2.9146058559417725,-3.5819156169891357,3.3603787422180176,-3.5146329402923584,0.21261627972126007,8.473601341247559,-2.843825101852417,0.03875598683953285,-2.0948660373687744,-0.47268494963645935,-2.217527151107788,-0.1978953778743744,-5.3620500564575195,0.9005044102668762,6.397587776184082,-3.2993366718292236,0.6435679793357849,3.4131438732147217,-1.190008521080017,-6.303983688354492,0.6282256841659546,-8.689922332763672,-1.4043291807174683,7.619356155395508,0.8400583863258362,-1.2275949716567993,-5.448981285095215,-4.326821804046631,-13.947688102722168,-3.0903677940368652,-3.6835203170776367,1.2332077026367188,-1.9911625385284424,7.997864723205566,7.626203536987305,9.130932807922363,-0.17866110801696777,-4.934947490692139,-5.2083940505981445,-2.733320713043213,-7.115160942077637,-3.4056079387664795,4.7937822341918945,-3.997445583343506,-6.077230930328369,3.1986758708953857,4.2691802978515625,-7.892574787139893,-2.964996576309204,-4.692625522613525,-6.898442268371582,2.9662110805511475,3.018451690673828,1.545120120048523,4.56941556930542,1.8481972217559814,3.490276575088501,-1.116684913635254,-0.23750919103622437,-5.982097148895264,-3.9746220111846924,4.387371063232422,-5.814375877380371,3.8652923107147217,0.6885892152786255,4.624605655670166,-6.429084777832031,2.8114826679229736,4.276523113250732,2.4301555156707764,-0.9263753294944763,-3.3223063945770264,1.4591612815856934,-2.3071982860565186,0.8220696449279785,1.607775330543518,8.989171028137207,2.6327357292175293,5.165603160858154,-2.488882541656494,1.2924282550811768,-7.012072563171387,-2.4162590503692627,-2.017996311187744,8.35478401184082,8.825604438781738,-6.713445663452148,-5.041501998901367,-5.85373592376709,-2.323235511779785,-6.089443683624268,0.33716705441474915,0.29971545934677124,7.35285758972168,7.124680995941162,0.7923746109008789,-10.270820617675781,-5.405284404754639,3.3592610359191895,-1.756590723991394,1.6558456420898438,14.389214515686035,-5.23768949508667,-4.651546955108643,-5.230793476104736,-6.242491245269775,4.769007682800293,5.259808540344238,-1.118472933769226,-1.2995222806930542,-5.9675116539001465,3.154991626739502,2.4783225059509277,-0.0032278967555612326,0.2586005628108978,-1.3491811752319336,3.640687942504883,3.8929574489593506,-1.7500125169754028,3.020986557006836,-1.1213123798370361,1.2726669311523438,0.33440694212913513,-1.1967864036560059,0.9286643266677856,2.1166059970855713,1.10589599609375,2.191755533218384,-2.649465322494507,-0.042565688490867615,-2.9732494354248047,1.5973132848739624,1.634520173072815,-0.03541560843586922,1.1258189678192139,0.7690489292144775,0.5883244872093201,1.821730613708496,-1.8987741470336914,-0.1691942811012268,2.0842370986938477,3.0194780826568604,0.3693445026874542,1.3119255304336548,-1.756052017211914,-2.071427345275879,-0.09932570159435272,-0.9298748970031738,-1.170034408569336,-1.127582311630249,-0.5195132493972778,1.7115769386291504,2.4175186157226562,-1.9406375885009766,0.43558621406555176,-3.5068466663360596,1.3133515119552612,-1.3329344987869263,0.6847046613693237,3.4071204662323,2.0881240367889404,4.976219654083252,0.04621550440788269,0.013665439561009407,-0.009086403995752335,-0.041507214307785034,-0.04695337265729904,0.026574786752462387,0.02986464649438858,-0.013205042108893394,-0.011971951462328434,-0.04511371627449989,0.006879375781863928,0.014516973868012428,0.005209054797887802,-0.0108387665823102,-0.045832742005586624,0.019957447424530983,-0.02387930266559124,-0.02783619612455368,0.03492797538638115,-0.05213281139731407,0.013275210745632648,-0.02108100615441799,-0.014028540812432766,-0.050931867212057114,-0.03892252594232559,0.04726075753569603,0.048946548253297806]},"hiddenLayers":[{"inputMatrix":{"rows":20,"columns":27,"weights":[-1.832033634185791,-2.7271368503570557,-1.9588801860809326,-0.6786180734634399,-0.3672516644001007,-0.09143252670764923,2.148212432861328,0.7150748372077942,0.3903929889202118,0.5795548558235168,-1.5315017700195312,0.17624208331108093,-0.7002599239349365,-0.8660558462142944,-3.3270885944366455,0.3295368254184723,1.5950888395309448,1.2381870746612549,-1.040708303451538,2.7485170364379883,-0.5060557126998901,-0.31157347559928894,-2.7825725078582764,-3.7955002784729004,0.677878737449646,1.454821228981018,-0.6818631887435913,-2.1372225284576416,-2.1617777347564697,1.5059103965759277,0.47335389256477356,2.3090968132019043,4.457934856414795,0.04120226204395294,-1.2323193550109863,1.7359813451766968,0.5775831937789917,-3.0257530212402344,-0.3379592299461365,1.7830305099487305,-0.3903922736644745,1.896894931793213,1.453444480895996,1.8970999717712402,1.4924591779708862,-1.069602370262146,-0.19458504021167755,-2.0987892150878906,-1.035353183746338,-3.3359336853027344,0.6787380576133728,-0.8236376643180847,1.3599296808242798,0.19946278631687164,6.3438849449157715,1.7699323892593384,1.501565933227539,-1.3403972387313843,-2.182831048965454,-0.04885394498705864,-0.27690353989601135,-2.1337385177612305,0.32562971115112305,-2.723618507385254,-0.09557162970304489,0.09084120392799377,0.19489039480686188,-1.4707647562026978,-0.5642308592796326,3.102130174636841,-3.4905548095703125,-1.324670672416687,0.9951766133308411,-3.0601396560668945,-1.563632845878601,2.326105833053589,2.6030702590942383,0.4424561560153961,-0.7641580104827881,0.2558642625808716,0.9588499665260315,-0.19730840623378754,-2.1321170330047607,1.9480737447738647,-0.35259488224983215,-0.15645013749599457,1.2449978590011597,0.2865588366985321,1.3968456983566284,-1.6737617254257202,-0.47283488512039185,-0.7541167736053467,-0.35872331261634827,-0.2806360125541687,-2.441715955734253,-0.6583901643753052,0.13803641498088837,2.005411386489868,-0.6539514064788818,-1.7674286365509033,-2.948878288269043,-2.7468762397766113,0.03455417975783348,0.018439389765262604,-1.88848876953125,-0.4071308374404907,-0.7778987288475037,-0.12489490211009979,0.5820081233978271,3.2739858627319336,-2.099536895751953,0.9979855418205261,2.2832093238830566,-1.4407724142074585,-0.5814704895019531,-3.2207367420196533,0.04070434719324112,0.13950680196285248,2.9704885482788086,1.659468173980713,-2.096811294555664,1.8649640083312988,0.4887055456638336,2.450289487838745,-1.4823328256607056,1.0602017641067505,1.5921134948730469,1.0295181274414062,1.8584004640579224,2.2131993770599365,0.41237664222717285,0.804233193397522,0.5594190359115601,-0.5327783823013306,0.7328022718429565,-0.41804975271224976,1.9636081457138062,-1.868270754814148,-2.429751396179199,-1.9751266241073608,0.04097271338105202,0.7150757312774658,-0.7779020071029663,-0.6030625700950623,-1.4505997896194458,2.764523983001709,-0.751277506351471,-0.1631973683834076,-0.04537307098507881,-0.8719295263290405,-1.0375473499298096,0.6047350764274597,-1.924336552619934,-1.5538803339004517,2.9624836444854736,3.9658761024475098,-0.4805472195148468,0.3816191852092743,-1.0375800132751465,-1.0213209390640259,1.1330983638763428,-0.9269742965698242,-0.6656365990638733,-0.6176487803459167,-0.798269510269165,-3.4463610649108887,0.21075938642024994,0.8855522274971008,1.2004587650299072,-0.01799793727695942,-1.8078994750976562,-0.39077985286712646,0.6761133670806885,1.5911352634429932,-2.475538730621338,-1.6815643310546875,1.489641547203064,-1.7841542959213257,0.6557201743125916,0.22275979816913605,-3.2824060916900635,0.72288978099823,-1.7912378311157227,-0.8912891149520874,0.9033815264701843,0.6366063952445984,2.0378758907318115,-1.2210198640823364,-0.2635778486728668,0.016827791929244995,-1.2961596250534058,-4.638968467712402,1.0116232633590698,1.61946702003479,-2.641507387161255,0.003046896308660507,-0.7660971283912659,1.055075764656067,-0.41144752502441406,1.4668084383010864,-1.507149577140808,0.08167380839586258,3.912044048309326,0.9019147157669067,2.3918938636779785,-0.7626100778579712,-2.3487436771392822,0.07023640722036362,1.3847061395645142,0.856830358505249,0.5300981402397156,-2.0436947345733643,1.0651859045028687,-1.3715283870697021,0.40849393606185913,-0.38080912828445435,-0.5739119052886963,0.16669577360153198,1.0830663442611694,-2.7937703132629395,0.855873167514801,2.812774658203125,0.6823298931121826,3.427840232849121,-1.4856737852096558,0.8085511922836304,-1.854311227798462,-1.7295364141464233,-1.4352704286575317,-0.9828470349311829,0.3651730716228485,2.6262643337249756,1.9401545524597168,2.544189929962158,0.4673752784729004,-3.84694504737854,1.9498882293701172,2.25706148147583,0.6782886385917664,2.4080512523651123,1.7640736103057861,-3.278347969055176,1.7919909954071045,1.5551047325134277,3.1714375019073486,0.7365559339523315,0.9887927770614624,-3.1931581497192383,-2.050666332244873,-0.013455222360789776,-0.11637282371520996,-1.4259207248687744,0.15986084938049316,0.10922122746706009,3.431964874267578,0.06323087960481644,-0.20964281260967255,-0.403210312128067,1.2958173751831055,-1.9349949359893799,-1.9436373710632324,0.667308509349823,-1.7723426818847656,-0.4476146399974823,1.690321445465088,1.507836937904358,-1.4352093935012817,-2.4649851322174072,0.7790274620056152,-1.2001019716262817,1.649396538734436,0.16960638761520386,-1.0942342281341553,-2.6513748168945312,1.0790150165557861,0.9448386430740356,1.522104024887085,1.0135221481323242,3.079965353012085,-2.098254680633545,-0.3429020643234253,-2.409695625305176,0.6818377375602722,-1.2853868007659912,-1.9694652557373047,0.0830342173576355,1.2507977485656738,1.4846537113189697,-2.4864490032196045,0.25234270095825195,0.40321797132492065,-1.9354411363601685,0.4836483597755432,1.7466310262680054,1.8168954849243164,-0.18156273663043976,3.2009871006011963,-1.6266177892684937,0.6691464781761169,-0.989549994468689,-1.087404727935791,1.3861109018325806,2.617661237716675,0.7657467126846313,-0.007637921720743179,0.7699061036109924,-0.17013408243656158,-1.365358829498291,-1.8240034580230713,-3.231161594390869,-1.4874253273010254,-1.505340576171875,0.46281537413597107,1.9283908605575562,2.347852945327759,0.34775009751319885,1.0618877410888672,-0.14133304357528687,0.24302029609680176,-1.6597009897232056,1.7801017761230469,2.4409120082855225,-0.40757644176483154,0.9206629991531372,2.921229600906372,-0.13819986581802368,0.699457049369812,1.680596947669983,-3.280303478240967,-3.60221529006958,1.4546040296554565,-1.2501864433288574,-0.5456392765045166,0.4287719428539276,2.84757399559021,1.563591718673706,2.728956937789917,2.315371036529541,-2.043715476989746,1.061705231666565,-0.7570883631706238,0.5519495010375977,0.6077600121498108,-0.35143065452575684,0.6081717610359192,0.8738558888435364,-0.6273743510246277,-2.5541601181030273,-3.339510679244995,1.0202986001968384,-0.4428725838661194,-2.052063465118408,-0.1242319867014885,-0.6478082537651062,1.6754566431045532,0.42385396361351013,-0.40451958775520325,-0.2305620312690735,-1.5341172218322754,-2.8633713722229004,0.9805325865745544,0.4615018665790558,2.265392780303955,-0.5114284753799438,1.9036977291107178,1.697591781616211,-2.667691707611084,-0.45859295129776,0.11762604862451553,1.5484150648117065,-0.19152113795280457,-0.2233227789402008,0.9716739654541016,0.9153207540512085,-0.19397258758544922,-1.740347981452942,-0.6500537991523743,-1.3261948823928833,0.15790404379367828,0.11035916954278946,-0.960195004940033,-1.0023869276046753,-1.2803500890731812,2.1477999687194824,2.580026388168335,0.33806419372558594,3.7490038871765137,0.7411404252052307,-1.1201605796813965,0.9378750920295715,-0.8819800019264221,1.2295178174972534,-1.2450556755065918,1.428459882736206,0.8157564997673035,0.04481787607073784,0.3217134475708008,1.1856353282928467,-1.7024106979370117,0.2894783616065979,-1.8365131616592407,-0.4132723808288574,1.6575665473937988,-0.18105989694595337,-0.21181310713291168,-0.9785200953483582,-1.1482603549957275,0.26128053665161133,-0.9842537045478821,0.029182739555835724,2.897963762283325,0.7518377304077148,-0.1706675887107849,0.5545072555541992,0.06284191459417343,-6.470712661743164,1.4295626878738403,0.2998223304748535,-1.3062983751296997,1.2218867540359497,1.9093295335769653,-0.3296928405761719,0.03853459283709526,0.7708688378334045,0.558634877204895,-2.8095052242279053,-1.6725761890411377,-0.28129029273986816,-0.01929270662367344,1.3187384605407715,-0.17720888555049896,-1.024843692779541,-1.5613226890563965,1.6411117315292358,-0.9657636284828186,-0.33753976225852966,-0.3644154965877533,2.6832447052001953,-0.6773611307144165,-0.10959447175264359,-2.5364341735839844,2.28562331199646,-0.8912191987037659,3.1684212684631348,-0.5520472526550293,1.1792426109313965,0.8468772172927856,-1.3330649137496948,0.5238397717475891,2.556912422180176,2.2282683849334717,0.032815586775541306,1.951093316078186,0.278710275888443,-0.3197944164276123,-0.0016145637491717935,-1.0965789556503296,-0.4625241756439209,-1.0259995460510254,-0.9968269467353821,-1.9415607452392578,-1.164720058441162,1.725551962852478,-2.028640031814575,1.273688793182373,-0.47877222299575806,2.851557970046997,-0.445772260427475,2.266273021697998,2.105102300643921,-1.4297995567321777,-0.14718061685562134,-3.8398208618164062,-1.699829339981079,1.2493717670440674,-0.6636139154434204,-3.4557857513427734,2.9939358234405518,0.6570861339569092,2.0826566219329834,0.20832014083862305,-0.23255613446235657,-2.7934839725494385,-1.0141713619232178,-2.192519426345825,-1.246563196182251,2.544794797897339,-0.228407084941864,-0.6066116094589233,-4.198677062988281,-0.856766402721405,2.288454055786133,-0.0900329053401947,-0.12702946364879608,0.0070742047391831875,-3.1818981170654297,-0.23934833705425262,0.7293069958686829,-1.1105289459228516,-0.3260151445865631,-1.8899542093276978,2.512521743774414,0.39121952652931213,1.6643093824386597,-1.1033824682235718,0.16969554126262665,-0.21493487060070038,2.5444231033325195,1.1303987503051758,1.0085780620574951,0.00015836057718843222,-0.6246259808540344,0.9030359387397766,-2.8144888877868652,-1.3050353527069092,-2.781686544418335,-1.618873119354248,-1.3523073196411133,0.3478409945964813,0.4679635167121887,-0.6815018653869629,-0.020634176209568977,-1.104788899421692,-3.690418004989624,0.9858944416046143,-0.8272693157196045,1.2113611698150635,2.3643431663513184,1.0782681703567505,0.5022188425064087,-0.039425771683454514,-0.5806317329406738,2.696683168411255,2.419351577758789,-4.144880771636963,-2.143554925918579,-0.5697776079177856,1.1050609350204468,1.636364459991455,-3.273919105529785]},"inputHidden":{"rows":20,"columns":20,"weights":[0.4037987291812897,0.5668287873268127,0.3068321645259857,-0.5051375031471252,-0.6866813898086548,1.5086276531219482,3.0670230388641357,-1.6005202531814575,1.1288344860076904,0.0553528368473053,0.7691517472267151,-2.5176279544830322,0.9636426568031311,-1.5381083488464355,-0.06362847983837128,-0.05518031120300293,1.537929892539978,1.0449825525283813,-1.3716570138931274,1.029853343963623,2.2431681156158447,0.3330332040786743,0.9009158611297607,1.9409079551696777,0.0810476541519165,-2.142946243286133,-0.3857637345790863,-1.5139997005462646,-3.3370819091796875,0.5063081979751587,3.1097285747528076,-1.5427650213241577,-1.2914016246795654,-1.5470740795135498,-1.315240502357483,2.309778928756714,-0.3449839651584625,-2.097531795501709,-0.5675548315048218,2.1282899379730225,3.374868631362915,-0.9637634754180908,0.5013923048973083,-0.46589767932891846,0.14971178770065308,-0.5061424970626831,-0.26046156883239746,1.8483439683914185,1.331766128540039,0.09665293991565704,-0.7439577579498291,0.9869421720504761,-2.5327038764953613,2.6547489166259766,1.3556835651397705,0.9344422221183777,0.16117551922798157,1.6491525173187256,-0.9991343021392822,-0.2997724413871765,-2.463064193725586,0.9936590194702148,2.972797155380249,-2.4221599102020264,-2.078446626663208,-0.5161802768707275,-0.1229940876364708,-1.4112046957015991,-1.5778506994247437,-2.125061273574829,0.5363918542861938,-0.9185438752174377,-1.408498764038086,-1.2735141515731812,-0.42669156193733215,1.1470389366149902,0.7522332072257996,2.1998000144958496,1.5562106370925903,0.8342629075050354,3.042863607406616,0.9721398949623108,-1.5573859214782715,-1.2861533164978027,-0.06157267093658447,1.2332767248153687,0.41005271673202515,1.568602442741394,3.2290070056915283,0.525911271572113,-5.110658168792725,0.6442081928253174,-0.06580877304077148,-0.9184924960136414,-1.1161892414093018,-0.9815300703048706,-1.2697795629501343,0.5783780217170715,-1.9874773025512695,1.9213182926177979,-0.24437303841114044,1.6295866966247559,-0.8286148905754089,-0.617681086063385,-1.4204962253570557,0.19132503867149353,0.5056242346763611,-1.3449188470840454,1.126733660697937,1.0803437232971191,0.9938709139823914,-1.7766703367233276,-1.9814610481262207,-2.5560429096221924,1.2771844863891602,3.8177649974823,0.958541989326477,-0.48918598890304565,-0.3426990211009979,-0.02011326141655445,-1.9907194375991821,-2.7366113662719727,1.7814258337020874,4.188806533813477,4.373412609100342,1.8426049947738647,-5.9006571769714355,0.02055913582444191,-5.72429084777832,1.6407935619354248,-0.18593262135982513,-0.9539699554443359,3.8857004642486572,4.888649940490723,-2.1875569820404053,4.78413200378418,0.021548597142100334,-4.421250343322754,2.2454187870025635,6.000898838043213,-2.8176093101501465,-2.1021652221679688,0.12713268399238586,1.3507193326950073,3.1627326011657715,-0.6646997928619385,-3.6994476318359375,0.8483337163925171,-4.092724323272705,-0.5085833072662354,1.6475955247879028,1.364707350730896,0.42827796936035156,0.6309610605239868,-1.2181951999664307,0.8791537880897522,0.32249289751052856,-1.9683496952056885,4.362186431884766,3.3861007690429688,-1.931180477142334,-1.3991727828979492,0.32368019223213196,1.3381267786026,3.0727007389068604,2.8038487434387207,-1.9631173610687256,-0.5206378698348999,-1.7849127054214478,0.5270030498504639,2.476590394973755,0.9369460344314575,3.6849868297576904,2.3071649074554443,-1.2550901174545288,0.8568155169487,-1.6876626014709473,1.3326655626296997,0.6936430335044861,-3.042962074279785,-0.32553377747535706,0.38992446660995483,1.6814045906066895,3.8018112182617188,2.771254062652588,-2.1235055923461914,3.060856342315674,-1.587234616279602,0.482072651386261,0.034278176724910736,-0.5050488710403442,-0.6035466194152832,0.38160738348960876,1.6300349235534668,1.7502549886703491,0.7213025689125061,0.7996484637260437,-2.0681521892547607,-0.8759591579437256,0.480545312166214,3.1225318908691406,-3.3198843002319336,2.0479419231414795,-0.3777841627597809,1.3815906047821045,0.3830831050872803,-2.761441707611084,2.2207725048065186,2.512036085128784,-1.0126056671142578,-2.884401798248291,-0.471835196018219,1.5425121784210205,-0.0010780123993754387,-0.5944015979766846,0.6447064280509949,-0.48444536328315735,0.5838158130645752,-0.8313268423080444,-0.49950000643730164,-2.4990270137786865,1.0529406070709229,-4.133800506591797,-4.95503044128418,2.5985822677612305,1.578996181488037,-3.4202816486358643,-0.7431593537330627,1.8908333778381348,-0.27520477771759033,-3.162097454071045,0.6019867658615112,2.836677074432373,3.3129212856292725,2.740145683288574,1.2312074899673462,-1.0428106784820557,1.081039309501648,-2.0730748176574707,-2.0688648223876953,-2.47231388092041,1.1438767910003662,-0.18927113711833954,-1.6705988645553589,1.4969865083694458,1.234150767326355,0.18407206237316132,-1.2450207471847534,-3.4964711666107178,3.175891160964966,-0.4774893522262573,-0.664377748966217,1.9785890579223633,2.1801085472106934,1.4974141120910645,0.2079673856496811,-0.9518992900848389,0.07246118038892746,0.443331778049469,2.1059939861297607,-3.9505608081817627,0.3118401765823364,-1.5309956073760986,-0.9491797089576721,1.8881195783615112,2.544254779815674,-1.1496591567993164,-0.6508656740188599,-0.5176007747650146,-0.9994556307792664,0.051462747156620026,1.5732406377792358,1.898525357246399,2.7120039463043213,1.2497235536575317,-0.5981462597846985,0.26455238461494446,0.5703904628753662,2.5785627365112305,-1.085461974143982,1.1897445917129517,1.0101386308670044,-1.4618169069290161,-2.2251031398773193,1.1167495250701904,-1.2919299602508545,2.1901023387908936,2.044574499130249,0.5344253182411194,-0.7720813155174255,1.211060881614685,1.4349066019058228,2.198674201965332,1.7140251398086548,0.7554906606674194,-2.4491798877716064,-0.955748438835144,-0.14826858043670654,-0.10394657403230667,-0.5366358160972595,-1.5242862701416016,1.1681525707244873,-0.6584545373916626,0.6283430457115173,3.299767017364502,1.2159343957901,-0.7182839512825012,-1.4650583267211914,-5.072580337524414,-1.3472269773483276,-0.41255104541778564,1.7146016359329224,-1.8081493377685547,-1.429186463356018,0.243703231215477,-0.6948258876800537,2.2047319412231445,-1.981311559677124,4.5103230476379395,2.725698947906494,0.03806969150900841,-1.913485050201416,1.176694631576538,-1.1910609006881714,0.6285498142242432,1.0384222269058228,-0.9007439017295837,-0.16881325840950012,0.31014466285705566,-0.28436535596847534,0.05161484703421593,1.7276004552841187,2.231274366378784,-0.5322601795196533,0.8638580441474915,-0.059388063848018646,-0.2971712648868561,0.1199144795536995,1.077202320098877,0.07309406995773315,-0.35890501737594604,2.6201889514923096,-0.1253301501274109,1.6312508583068848,1.5424283742904663,1.024229645729065,-2.379969596862793,0.25904422998428345,-0.93792724609375,-0.11268801987171173,2.0977418422698975,-1.2869013547897339,0.3796272277832031,3.7014925479888916,1.4463107585906982,2.1844143867492676,0.39201077818870544,-1.643176794052124,2.502455472946167,-0.7127230167388916,1.1285086870193481,0.12955495715141296,0.9367755651473999,-0.4553054869174957,-0.12449277937412262,-0.8856762051582336,-0.7928333282470703,-0.7958465814590454,-1.68075430393219,1.4958909749984741,-3.2989895343780518,-0.8945776224136353,0.42228373885154724,-2.2821030616760254,1.5164884328842163,1.9147734642028809,2.4017183780670166,-1.5836818218231201,2.702153205871582,1.20444655418396,0.32670366764068604,0.3739793598651886,0.8536946177482605,-0.16433919966220856,1.182679295539856,-0.8223291635513306,-1.1018139123916626,-1.3745012283325195,0.026232490316033363,0.5394408702850342,1.0367679595947266,-3.553388833999634,-1.4632878303527832,-1.4024889469146729,-0.30291759967803955,1.80962336063385,-0.5941687822341919,-1.8595041036605835,1.048521637916565,1.2081974744796753]},"inputBias":{"rows":20,"columns":1,"weights":[1.0022222995758057,0.13854077458381653,0.579250156879425,0.14666752517223358,-1.0472286939620972,-0.2409653663635254,-1.0047529935836792,-2.1451594829559326,-0.8120587468147278,-0.3734183609485626,-1.5654802322387695,-0.24178379774093628,-0.09891468286514282,0.2527184784412384,-1.0379047393798828,-0.4031529426574707,3.2765228748321533,-0.11838279664516449,-0.6126099824905396,-0.49186545610427856]},"forgetMatrix":{"rows":20,"columns":27,"weights":[-1.5930052995681763,-0.22781550884246826,0.6511502861976624,0.2856096923351288,-3.151285171508789,-0.849111795425415,-1.7600940465927124,0.5736608505249023,-4.010785102844238,-2.592090368270874,0.5895103216171265,-2.2531070709228516,1.711164116859436,-1.3912118673324585,1.2557251453399658,-0.15200553834438324,-1.0741883516311646,-0.8251139521598816,-0.5267336964607239,-1.0057817697525024,0.9430713653564453,-1.406272292137146,-0.3909614384174347,-0.07055941969156265,-0.8944721221923828,-1.0943174362182617,-3.387685775756836,-2.3418385982513428,-1.728477954864502,2.1866347789764404,1.2796151638031006,0.49975892901420593,-0.1321943700313568,0.519547700881958,2.7315328121185303,-1.984397530555725,1.4989720582962036,-0.044116824865341187,-2.3434503078460693,1.7493419647216797,-2.3847970962524414,1.319555640220642,-0.2527138888835907,0.4021562337875366,-1.0088834762573242,0.5843742489814758,-2.1873464584350586,0.26179757714271545,-0.8652740716934204,-0.7960254549980164,-0.9672658443450928,-1.3692548274993896,0.5239936709403992,-0.18553276360034943,-0.6713679432868958,-3.099973201751709,-1.8202927112579346,0.07258795201778412,-2.673736095428467,-0.9214305281639099,3.952681303024292,3.054945945739746,1.3778432607650757,2.0702826976776123,0.13094063103199005,0.4912644922733307,-0.5401480197906494,-1.2257347106933594,-2.0370373725891113,0.25146326422691345,-0.15776625275611877,-0.1319061517715454,1.4501452445983887,0.2514578104019165,-1.6103298664093018,0.5152194499969482,-0.5975131392478943,-0.011780004017055035,1.2879167795181274,2.05893874168396,0.8273716568946838,3.4441285133361816,0.20174169540405273,-0.0418115071952343,-0.7947111129760742,0.31820428371429443,1.19595468044281,-1.6589120626449585,-2.14921236038208,2.1670453548431396,-0.5597560405731201,-2.2215068340301514,1.78216552734375,-2.244647741317749,-0.8203908801078796,-0.20779111981391907,-0.4373060166835785,1.7082631587982178,0.2902519702911377,-0.6312395930290222,2.0494847297668457,-1.5686527490615845,0.9696933627128601,0.5184453725814819,1.4893314838409424,1.4116541147232056,0.02936592698097229,2.289294481277466,0.8750658631324768,0.0018600458279252052,-1.3216357231140137,-0.40481361746788025,-1.9202940464019775,-1.8872462511062622,1.1216317415237427,1.1676527261734009,-0.7769088745117188,-0.4512709379196167,2.3829076290130615,-0.36228445172309875,1.1822798252105713,-0.8855856657028198,-0.043528858572244644,1.050186038017273,-1.7006021738052368,-0.4046749174594879,-0.32502955198287964,0.8910163044929504,1.3975415229797363,-1.1014738082885742,1.3715683221817017,-2.2053353786468506,-0.021008983254432678,-0.29002466797828674,-1.214820146560669,0.8412961363792419,0.3403381407260895,0.7029240727424622,-0.3470446467399597,1.1434016227722168,0.6242035627365112,-1.5571491718292236,-0.9165066480636597,2.338789939880371,1.1516996622085571,-0.5949634909629822,-0.23434597253799438,1.9947744607925415,0.7534139752388,0.7916309237480164,0.8425318002700806,0.6020752191543579,1.182772159576416,-1.8095133304595947,1.0440583229064941,0.7190517783164978,-2.8997621536254883,-0.7094258666038513,1.8568975925445557,0.2562297284603119,1.6346399784088135,0.5106185078620911,0.7582181096076965,-0.1255311816930771,-1.6995265483856201,-1.1034948825836182,0.21168747544288635,2.479617118835449,-1.5495151281356812,-1.2025822401046753,0.8531937599182129,0.6084177494049072,-2.0689992904663086,0.9307311773300171,0.8572288155555725,0.5807266235351562,0.3802392780780792,1.4555611610412598,1.008410096168518,2.229863405227661,0.043618619441986084,1.6846014261245728,-0.07988349348306656,-1.0484358072280884,-0.9610860347747803,0.09454750269651413,0.5297228693962097,0.2201516181230545,-0.7363800406455994,1.8895336389541626,-2.4868359565734863,1.5785926580429077,0.5358654260635376,0.39328286051750183,-0.1425759643316269,0.714490532875061,-0.06623182445764542,0.6187000870704651,1.6921589374542236,-1.2495733499526978,-1.2713756561279297,-0.4126613736152649,2.8375792503356934,-0.9792696833610535,1.2948014736175537,1.5099223852157593,0.7928234338760376,0.35154086351394653,-1.5206069946289062,-4.603727340698242,-0.25149598717689514,-0.6516819000244141,0.07399959862232208,2.325420379638672,-0.5837538242340088,1.7775390148162842,1.1791324615478516,-1.7914801836013794,-0.1580152064561844,-2.1126668453216553,-0.00894615612924099,-0.6984571814537048,0.5416768193244934,1.3796534538269043,1.0350102186203003,-1.9867455959320068,1.4898484945297241,-1.3357988595962524,0.69993656873703,-1.3771878480911255,0.025192882865667343,-0.3316764533519745,-1.4529260396957397,-0.9945551753044128,-0.7160811424255371,-0.7881327271461487,-1.5042269229888916,-0.8818084001541138,-0.647815465927124,-2.8318123817443848,-0.6462527513504028,2.5953915119171143,-0.48254624009132385,-0.1864333301782608,-1.1017881631851196,-0.6594328880310059,-0.6202431321144104,1.2744841575622559,-1.6081829071044922,1.0595420598983765,-2.061997652053833,-4.025768756866455,1.2192047834396362,3.967958688735962,-1.0099174976348877,0.9617659449577332,1.2023237943649292,0.6914744973182678,-2.405804395675659,-0.5862146019935608,-1.8463101387023926,-1.4690544605255127,0.8776146769523621,-0.28327590227127075,-1.6886836290359497,1.18907630443573,-1.7062102556228638,0.10111650824546814,-1.8508490324020386,-0.043562982231378555,1.894045114517212,-2.458826780319214,3.2824654579162598,1.724573016166687,1.1561837196350098,-1.8655959367752075,-1.541076898574829,-0.12754873931407928,0.39541956782341003,0.6333910822868347,-1.4912488460540771,-0.09392458200454712,3.657309055328369,0.6206320524215698,3.339932918548584,1.4862111806869507,-1.2833657264709473,0.9532527327537537,0.5369730591773987,-1.038222312927246,0.29254230856895447,-0.6596131324768066,-0.2487226128578186,1.9583126306533813,-1.3854621648788452,0.6968968510627747,-3.6735029220581055,0.4574335813522339,-0.21987831592559814,1.1084047555923462,1.3367371559143066,-1.3250808715820312,-1.4657307863235474,-4.126358509063721,-0.27091410756111145,-1.6821670532226562,-0.2763182520866394,-0.2937556505203247,0.21694321930408478,0.8547022342681885,0.9589024782180786,1.7965563535690308,-0.40538960695266724,-0.5563753843307495,0.5574135184288025,0.3536752462387085,0.24721793830394745,1.4211732149124146,-1.0517054796218872,-0.06136494129896164,-0.2632612884044647,-2.2841696739196777,0.572120726108551,-3.396695613861084,0.03746935725212097,-0.4704594016075134,-0.9958682060241699,0.9511165618896484,-2.1147525310516357,-0.8019614219665527,-2.0167737007141113,0.5541477799415588,-0.48813897371292114,-2.5046558380126953,0.9245468378067017,-1.016615867614746,1.0836420059204102,-0.13650093972682953,1.089550495147705,-0.9863067865371704,-1.6140661239624023,-0.22692754864692688,-1.4794684648513794,0.22432716190814972,-0.41011476516723633,-0.8236744999885559,2.2960636615753174,-0.7362115383148193,-0.7187519669532776,0.20782971382141113,-1.7149462699890137,0.3339501917362213,0.5102253556251526,-1.6787256002426147,0.20413653552532196,-2.3970396518707275,-0.5828676819801331,2.2682952880859375,-0.7871748208999634,0.4432547092437744,1.5882543325424194,-0.598091721534729,1.9110585451126099,-0.8503533005714417,1.5224391222000122,-2.01155161857605,-0.5601426362991333,0.28123214840888977,0.11482400447130203,1.20769464969635,1.0993753671646118,-0.706598162651062,2.075807809829712,-0.29257896542549133,-3.14570689201355,0.05722075700759888,-0.34054580330848694,0.4018462300300598,-0.4535060226917267,0.0016489942790940404,-1.8259973526000977,-3.555690050125122,-2.574348211288452,0.6022935509681702,-0.9189710021018982,0.44620898365974426,-0.3994795083999634,-2.0299389362335205,-1.8456958532333374,0.5323705077171326,-0.5980729460716248,0.07150645554065704,0.01574740931391716,1.5946013927459717,0.5317403674125671,-0.5551445484161377,-0.30639106035232544,1.516536831855774,-0.33017250895500183,-0.405463844537735,1.2673630714416504,-1.1630516052246094,1.8229806423187256,-0.5858831405639648,-1.6856852769851685,0.7362761497497559,2.5498809814453125,0.26250213384628296,1.9596543312072754,0.8855354189872742,-0.11371456831693649,0.2536493241786957,-2.2863874435424805,-0.5504491329193115,0.09185165166854858,1.640479326248169,1.5224326848983765,-1.039168357849121,0.7868388295173645,-0.5265758037567139,-3.656073570251465,0.5297473669052124,1.3055169582366943,-0.865902304649353,1.0854265689849854,-0.968105137348175,2.859513998031616,-0.8546010851860046,-0.2200227528810501,0.8785066604614258,3.789729595184326,0.7984291911125183,3.2895615100860596,0.8616065382957458,-1.380995273590088,-0.00934809073805809,0.03083653748035431,-0.04748938977718353,-0.5746935606002808,-1.827364206314087,1.88710618019104,-1.0819664001464844,2.881190061569214,4.286870956420898,-1.2492759227752686,3.49413800239563,-0.9601470232009888,-0.4004080593585968,-0.6397630572319031,1.4052602052688599,-1.0297411680221558,2.0634677410125732,0.6541426181793213,1.300155520439148,-1.4367201328277588,1.6020729541778564,1.1899499893188477,2.3746073246002197,0.9248256087303162,0.8302136659622192,-1.6584436893463135,-0.6185297966003418,1.028947353363037,-2.3385913372039795,-2.7640461921691895,1.9919801950454712,0.6508783102035522,-0.9559321999549866,0.4686305820941925,3.4778921604156494,-1.415692925453186,0.2251228243112564,-0.4215434491634369,-0.7098634839057922,-3.7895984649658203,0.19438596069812775,-1.9572092294692993,0.920859158039093,-0.2316921353340149,0.550015389919281,-0.23805111646652222,0.8435709476470947,-2.088242530822754,-1.2362947463989258,1.8857327699661255,-1.8164052963256836,1.4816148281097412,0.6423289775848389,0.11694639921188354,-0.3621840178966522,1.4448028802871704,0.24970632791519165,2.3101768493652344,0.8350046873092651,3.24471378326416,0.630339503288269,-2.16562819480896,0.3090486228466034,-2.7777132987976074,1.0045273303985596,-0.9156191349029541,1.436626672744751,1.1037633419036865,0.9327855706214905,-1.387595772743225,-1.4627089500427246,-1.2919591665267944,-0.06167099252343178,-0.11895284801721573,-0.963814914226532,1.9305402040481567,-0.464724063873291,2.8711438179016113,-0.3754587769508362,-1.3364057540893555,2.306548595428467,-0.7186063528060913,-0.4753884971141815,1.1590209007263184,-0.5377445220947266,2.169429063796997,-0.7469909191131592,-0.5254277586936951,-1.9331623315811157,-1.168122410774231,-0.8014984130859375,-2.1405556201934814,0.12545505166053772,3.30452299118042,1.0692138671875,-0.20718128979206085,-1.0418599843978882,-2.3107616901397705,-0.7764357924461365,-0.727384090423584,-0.9816425442695618,1.76069176197052,1.0509228706359863,-0.4199554920196533,0.6066410541534424]},"forgetHidden":{"rows":20,"columns":20,"weights":[-0.9958633184432983,3.761356830596924,-0.24897892773151398,-0.3837467432022095,2.260882616043091,0.2727067172527313,2.896204948425293,-0.13100023567676544,-1.1993532180786133,0.14702588319778442,-1.2296396493911743,-1.7578251361846924,4.636936664581299,-0.236933633685112,0.9661762714385986,-0.03618082031607628,2.29878306388855,1.8370426893234253,0.3243872821331024,0.6188589334487915,1.8827651739120483,-0.7943387031555176,1.9940699338912964,-1.4263920783996582,-0.7527793645858765,-1.8648841381072998,-0.42730939388275146,2.6978015899658203,-0.31364572048187256,-1.0797268152236938,-0.42332011461257935,2.9603779315948486,2.286952018737793,-1.3203344345092773,0.7068790197372437,-2.3313987255096436,-1.087878942489624,0.38423624634742737,-1.6870778799057007,0.01908961310982704,-2.3949902057647705,-0.45611217617988586,-0.58036869764328,-0.8680228590965271,1.669824242591858,-0.67270827293396,-0.5595929622650146,0.1733950972557068,0.1141209825873375,-0.569453775882721,-0.4755803942680359,0.7890658974647522,0.2649781405925751,3.4490833282470703,-0.6506736278533936,0.8910080194473267,0.5198702216148376,-0.2577477693557739,2.337156057357788,-0.27495241165161133,2.0084469318389893,0.6999760270118713,0.6601836085319519,0.16186529397964478,0.1942693442106247,-0.3281782269477844,-0.321480929851532,0.2784893214702606,0.894939124584198,-0.1141800656914711,-2.05881929397583,1.1575911045074463,0.9210824370384216,-0.18011458218097687,0.45945268869400024,-1.1373287439346313,0.21595492959022522,-0.06240591034293175,2.6370651721954346,-2.9402215480804443,-2.1645398139953613,1.0087690353393555,0.46319377422332764,-1.0075757503509521,-0.04473119229078293,-0.34912076592445374,-1.026570200920105,-0.6046211123466492,-1.6864866018295288,-0.20064221322536469,-1.3669573068618774,2.720519781112671,1.6945987939834595,0.023134998977184296,0.7411417365074158,-0.18536372482776642,1.5070698261260986,-0.8625419735908508,-1.1096088886260986,0.8410956859588623,-0.5252818465232849,0.12624210119247437,-0.17994312942028046,-0.933412492275238,0.377458781003952,-0.32445475459098816,-0.6600040197372437,-0.00472733099013567,-0.6322287321090698,0.38736310601234436,-0.4472416043281555,-0.4063342213630676,0.7015764117240906,0.49996325373649597,0.232155904173851,1.1474665403366089,0.042864877730607986,-0.9400396943092346,0.6102848052978516,0.5335149168968201,-0.5806211233139038,0.1673886775970459,0.5812936425209045,-0.4626035690307617,1.536318063735962,0.7034578919410706,0.2782745361328125,1.7848695516586304,-0.5667334198951721,0.12651844322681427,-0.9536191821098328,-0.807306170463562,-0.026527265086770058,0.2087693214416504,-0.7079712152481079,-1.0922168493270874,-0.32517924904823303,-1.4066206216812134,0.44271671772003174,-0.25578784942626953,0.4470829963684082,1.2269060611724854,-0.3856477439403534,1.933287501335144,-1.0950731039047241,-0.8606720566749573,0.40844717621803284,0.35175570845603943,-0.8000636696815491,0.03750665858387947,0.9204684495925903,1.6969201564788818,-2.3092141151428223,-2.5092082023620605,-1.7394286394119263,-0.36753833293914795,-2.6075615882873535,1.6408823728561401,0.7752098441123962,0.8972926139831543,-1.68166184425354,2.511443614959717,-1.9371347427368164,-0.45683324337005615,-2.453791618347168,0.01898064650595188,1.4713364839553833,0.9669525027275085,-0.08008604496717453,-3.572018623352051,-1.4511936902999878,-0.3180922269821167,-2.236891269683838,-1.2332944869995117,1.6618252992630005,-2.123159408569336,1.771133542060852,-0.26562434434890747,0.34564846754074097,-0.540916919708252,-2.882848024368286,-0.8250977396965027,1.734399676322937,1.7396641969680786,1.4475072622299194,0.3050215542316437,-0.2269115149974823,-0.6001963019371033,-1.0573046207427979,2.0211122035980225,-0.047793980687856674,-0.8218432664871216,-0.6156041622161865,0.5614750981330872,-0.8643048405647278,-0.07625734806060791,-1.8289505243301392,-1.359941005706787,1.6414244174957275,-0.12831561267375946,0.23968663811683655,0.14781631529331207,0.6180311441421509,-1.1160691976547241,-0.9133231043815613,0.29749733209609985,0.047862883657217026,0.8450449705123901,4.374653339385986,2.5910019874572754,0.8492520451545715,1.3685131072998047,-2.634748697280884,-0.8287038207054138,-0.35169318318367004,1.4032127857208252,-0.1205020397901535,2.0120933055877686,-1.1145509481430054,-2.3931400775909424,-0.5517380833625793,-4.539916515350342,3.3781216144561768,2.6894419193267822,-2.020958423614502,-1.511470079421997,-0.4001881182193756,-2.680321216583252,0.8585272431373596,0.4730909466743469,1.2501728534698486,-0.5194464921951294,-1.0140904188156128,0.3664495348930359,-1.538780689239502,-0.28732502460479736,-0.6154704093933105,5.22678804397583,2.170703172683716,0.9541344046592712,-2.22369647026062,0.3388988673686981,-0.11173617839813232,0.5188339948654175,-1.7291245460510254,-1.0954890251159668,0.6467751860618591,-0.8328230381011963,1.200473427772522,0.2720494866371155,0.6003051996231079,0.4284251928329468,0.42232799530029297,0.58284991979599,-0.12120702862739563,0.047726914286613464,0.482852578163147,0.7023838758468628,-2.2189838886260986,0.23641708493232727,-1.9632234573364258,1.4737709760665894,-1.1180740594863892,0.8172821402549744,0.16058705747127533,0.16272825002670288,0.06368411332368851,-1.2199995517730713,-0.7559244632720947,0.5650610327720642,0.3877521753311157,0.1513245850801468,-0.43092119693756104,-1.2087682485580444,0.5068554878234863,-1.1157835721969604,0.786055326461792,-0.8684740662574768,-0.015429492108523846,0.01727009378373623,0.047884371131658554,1.6340652704238892,0.8438416719436646,-2.3484482765197754,-0.9588147401809692,-0.5227997899055481,-0.011582981795072556,1.1446106433868408,2.6619575023651123,-0.41068604588508606,-2.843834638595581,0.983797013759613,-0.07798290252685547,-2.2312586307525635,-0.479745477437973,-2.045339345932007,-0.37014099955558777,1.3782448768615723,-0.7157906889915466,-0.5818045139312744,-1.5980159044265747,0.022708702832460403,-0.43532639741897583,-1.9010955095291138,-0.3176015615463257,1.9045498371124268,0.6389500498771667,-0.09913314133882523,-1.9654914140701294,0.08663417398929596,-0.5318997502326965,1.8530235290527344,0.5493442416191101,0.4695998728275299,-0.18154382705688477,0.15964239835739136,-1.7319631576538086,-1.0989890098571777,0.8610449433326721,-0.12262172251939774,2.973877191543579,-3.076047420501709,3.82570481300354,0.3135245740413666,0.22491049766540527,0.2661292850971222,2.7776849269866943,-0.5052196979522705,1.1054160594940186,0.6398961544036865,1.3705781698226929,-2.884936809539795,0.9657027125358582,0.25892189145088196,-1.6494214534759521,2.0657124519348145,2.0952560901641846,1.9298806190490723,-1.8159924745559692,-0.4583990275859833,-1.2175183296203613,-1.1215777397155762,-0.01653437502682209,-0.8739898204803467,-0.9736663699150085,-0.3919854164123535,5.932049751281738,-0.23656514286994934,-2.18587589263916,-1.2412152290344238,1.7828458547592163,-0.7932742834091187,-0.9210368394851685,-1.3948687314987183,0.09873753786087036,0.03274004906415939,0.7220402956008911,0.35587626695632935,-0.1966555267572403,2.396214008331299,0.3037932813167572,0.1694333553314209,1.3508660793304443,1.1866167783737183,1.2255302667617798,0.6961599588394165,-1.1459742784500122,0.9133087992668152,-1.2539972066879272,1.0784379243850708,-0.7633674740791321,0.5782128572463989,0.2377205193042755,0.527080237865448,-1.679521083831787,0.5263994336128235,-1.790371298789978,-0.23329544067382812,-0.8736007213592529,0.06019481644034386,0.5321511626243591,1.7697927951812744,-2.0157692432403564,-2.249913215637207,-1.24299955368042,-0.5127277374267578,-1.870428204536438,0.2528459429740906,0.6363039612770081,0.15154752135276794,-0.8501778244972229,0.15648779273033142,-0.19074873626232147,-0.07397866994142532,0.14812451601028442,-2.1708621978759766,0.11433762311935425,1.8222218751907349,1.4763860702514648,-1.166509985923767]},"forgetBias":{"rows":20,"columns":1,"weights":[0,0,0,0,0,0,0,0,0,0,0,0,0,0,0,0,0,0,0,0]},"outputMatrix":{"rows":20,"columns":27,"weights":[-0.3449449837207794,0.26178035140037537,-2.1395182609558105,4.1061506271362305,-1.1179605722427368,-0.11802605539560318,1.813962459564209,0.7746614813804626,-0.13804824650287628,0.16244769096374512,0.6161331534385681,-0.09138338267803192,0.3289661407470703,-1.5719709396362305,-2.2061965465545654,-1.7907404899597168,0.01877201348543167,-1.2797600030899048,0.07018615305423737,0.28382283449172974,-5.767483234405518,1.963613510131836,-0.09597578644752502,-1.4955871105194092,-1.0786293745040894,0.1145612820982933,0.7300547361373901,1.5535303354263306,-0.6704218983650208,1.2160872220993042,-1.1048011779785156,1.554253339767456,1.314587116241455,1.0743799209594727,-2.9762604236602783,2.4320337772369385,2.5900890827178955,-1.8593847751617432,0.27283474802970886,-0.47072964906692505,1.678776502609253,-2.5235202312469482,1.266749382019043,0.43784695863723755,0.3834388852119446,0.21300829946994781,-0.4601796865463257,-3.323782444000244,3.0035266876220703,-1.6355208158493042,-0.0530221201479435,-0.601109504699707,0.45426297187805176,1.5532368421554565,1.9300098419189453,1.4012855291366577,-4.451711654663086,-2.072239875793457,-1.6938515901565552,-1.170485496520996,1.969495415687561,-2.6382269859313965,2.8683454990386963,0.664608359336853,0.9958223104476929,3.4693777561187744,0.6676174402236938,1.2320373058319092,-0.350850373506546,0.9096038937568665,-1.539385437965393,0.849632203578949,0.022600216791033745,3.720587730407715,-1.2344647645950317,2.4018325805664062,-2.369480848312378,-1.138515591621399,1.5515708923339844,1.9191920757293701,0.4873504638671875,-3.871670961380005,-1.5300990343093872,-1.1584100723266602,2.4466724395751953,3.5082008838653564,-0.537537157535553,-2.5263748168945312,-0.2733140289783478,0.9669015407562256,-2.441730499267578,-1.5480477809906006,-3.1648941040039062,-1.3650805950164795,-3.5845603942871094,3.3838963508605957,2.3207075595855713,3.024955987930298,-0.2976815104484558,-1.719921350479126,-0.48609110713005066,-2.1944544315338135,-0.3553495407104492,-1.3063716888427734,0.5879895687103271,1.5848368406295776,-1.2292757034301758,0.4473693370819092,-2.8367574214935303,-3.6938624382019043,1.1638038158416748,-0.10790649056434631,-0.5093619227409363,1.017789602279663,1.1885019540786743,1.6339575052261353,-0.05672713369131088,-1.9721121788024902,-2.048384189605713,-1.883918285369873,-0.3133535087108612,-3.0299508571624756,1.3671493530273438,0.5052912831306458,-0.02727474272251129,2.343719720840454,-1.0873123407363892,-2.5368361473083496,-0.7181155681610107,0.16936276853084564,1.6940337419509888,0.29551249742507935,-0.2818257212638855,-3.4120445251464844,-0.966171383857727,-3.98805570602417,2.9045393466949463,-0.4780164957046509,-0.5992663502693176,-0.2791620194911957,3.0398542881011963,-2.6004042625427246,1.659411907196045,-0.00641851918771863,-2.2400314807891846,-2.9967846870422363,-1.793489933013916,1.0524654388427734,-1.542482852935791,-0.2144898921251297,1.909518837928772,0.2738884389400482,1.096352219581604,0.18731793761253357,-1.4555021524429321,3.469907522201538,0.5636941194534302,1.819840431213379,-0.03400597348809242,-0.8894495964050293,-2.9626359939575195,0.0217351783066988,0.6064971089363098,1.0627024173736572,-0.4582742154598236,0.5582324862480164,-0.2551533281803131,1.1451070308685303,-2.7466094493865967,-1.366912603378296,-3.4319167137145996,-1.3948198556900024,0.7863766551017761,-1.7092249393463135,0.24881544709205627,-2.039130210876465,1.6312382221221924,2.694688320159912,0.028415266424417496,0.7664808034896851,-0.046071093529462814,-0.9923978447914124,0.6913421750068665,0.6617005467414856,3.1367504596710205,1.7938063144683838,-1.1076083183288574,-3.850083589553833,-1.4667551517486572,2.671513319015503,2.6752817630767822,-0.8659094572067261,1.9440594911575317,-2.203888177871704,-2.2509241104125977,2.761505603790283,-1.057062029838562,-0.2876282036304474,-1.8096871376037598,4.110674858093262,0.46549728512763977,1.585206389427185,1.6009140014648438,-1.351267695426941,0.2547506093978882,-2.1979265213012695,-0.1761314570903778,1.2152067422866821,-0.2623031437397003,2.6261017322540283,1.3932521343231201,-0.5904646515846252,-1.8480972051620483,-3.2517666816711426,-0.11317720264196396,1.4769415855407715,1.1323086023330688,-0.8772918581962585,0.10019287467002869,-6.578976631164551,-1.7165701389312744,-1.0523242950439453,1.2399694919586182,2.6432905197143555,-0.06320061534643173,-2.9000892639160156,-0.5414109230041504,0.8478295803070068,-1.492349624633789,-0.3215450644493103,0.6354492902755737,1.9219974279403687,1.7766834497451782,0.07551392167806625,-1.763213872909546,1.8235862255096436,2.3152544498443604,-1.1778385639190674,0.8946818709373474,-0.11332904547452927,5.491387367248535,0.6283976435661316,-1.4683067798614502,1.003129482269287,-0.8514254093170166,0.7596794366836548,0.5879985690116882,0.3075105845928192,-0.4319515526294708,0.8071996569633484,0.0474674329161644,1.532999038696289,0.5157669186592102,2.8125274181365967,1.7059451341629028,-0.9366648197174072,0.3919403553009033,-0.3569651246070862,-3.6770782470703125,-1.4117368459701538,0.45133984088897705,0.2829158902168274,0.7985920310020447,-0.736471951007843,-0.7147639989852905,1.3008670806884766,1.7129273414611816,1.5515650510787964,1.8567054271697998,3.0654425621032715,1.6691163778305054,-1.064748764038086,-0.5188131928443909,0.4699358344078064,0.02098795399069786,-3.6238574981689453,3.1210367679595947,-0.765310525894165,-0.7189260125160217,-3.2122740745544434,2.4147753715515137,0.37979674339294434,0.7147207260131836,1.2225240468978882,-0.5858852863311768,-2.0009944438934326,-2.3629205226898193,-1.5361661911010742,-2.5955183506011963,0.9053231477737427,-1.3015669584274292,0.19506153464317322,-0.8926025629043579,-2.273961067199707,-0.2786806523799896,2.584228515625,1.1595762968063354,0.023992542177438736,0.5556389689445496,-2.8767940998077393,-1.2603546380996704,-0.6744793057441711,-0.6579973101615906,-0.42928192019462585,-1.7702807188034058,0.39138364791870117,-0.297698974609375,-0.17539581656455994,2.9822096824645996,-3.9704465866088867,1.2400398254394531,-1.026149034500122,3.5205349922180176,-1.0431196689605713,-0.9832658767700195,2.9210429191589355,2.640023946762085,1.7047799825668335,3.068751335144043,-1.8076715469360352,0.061722531914711,1.261217474937439,-2.549180269241333,-0.07178017497062683,-1.826965570449829,-2.023756504058838,-0.9279243350028992,2.2525644302368164,-1.0786690711975098,-0.5726176500320435,-0.9618275165557861,-0.006268423981964588,0.03242427483201027,2.2461676597595215,2.399688959121704,-2.972637414932251,3.685347557067871,-1.8712693452835083,-0.6407248377799988,-0.47164782881736755,1.4962587356567383,-1.6038427352905273,1.6946274042129517,1.9787012338638306,2.3916525840759277,-1.6350640058517456,-3.274874687194824,-0.7294619083404541,-0.545234203338623,0.06424453109502792,-0.8683290481567383,-1.7912318706512451,2.794842481613159,0.5607378482818604,1.499790906906128,0.6039589643478394,0.5816501975059509,-0.3067633807659149,-0.9331668615341187,-4.139469623565674,-0.6120080351829529,0.5435709953308105,1.582234263420105,-0.779274582862854,0.5957186818122864,4.3216776847839355,0.38880568742752075,-2.430102586746216,2.2600903511047363,1.2640740871429443,-1.0393550395965576,1.8067493438720703,1.661704659461975,0.11963509768247604,0.12026817351579666,-0.31722208857536316,-0.3413645625114441,-0.9165416359901428,1.7510744333267212,0.0775502473115921,-5.733420372009277,1.117196798324585,-1.2806191444396973,-0.9146513342857361,-1.9832364320755005,-0.4732654094696045,-0.2642095685005188,-1.8737432956695557,0.517971396446228,3.7164249420166016,-0.44241055846214294,0.9713835716247559,-0.32884347438812256,0.7365576028823853,-1.3098206520080566,-0.38273856043815613,-0.7370373606681824,3.7971365451812744,-2.515310287475586,0.9929864406585693,5.203525543212891,-1.0025323629379272,-2.4628055095672607,-0.8243724703788757,-0.6853642463684082,-2.5283894538879395,-0.3624613583087921,2.652117967605591,0.05153610184788704,2.969758987426758,1.9171642065048218,1.7600523233413696,2.3619844913482666,0.6715776920318604,2.0547053813934326,-1.9788522720336914,-0.21095578372478485,-2.314166784286499,-1.705168604850769,1.0421491861343384,3.035656213760376,3.192023754119873,2.2172060012817383,1.1771094799041748,-1.8984628915786743,-2.015737533569336,1.4849401712417603,-0.11404862254858017,3.09401273727417,0.5899213552474976,-1.2976856231689453,0.538590669631958,0.979759693145752,-1.2468217611312866,-1.0740407705307007,-4.0696210861206055,-1.3148027658462524,0.5716459155082703,-0.5654176473617554,-2.603013753890991,2.008742570877075,-3.982635974884033,-0.8271563053131104,3.340379476547241,-1.240637183189392,2.669564723968506,0.03458506613969803,-2.8637442588806152,0.39916107058525085,1.3602815866470337,-0.9862357378005981,3.369597911834717,2.323568105697632,-0.7974686026573181,-0.3399689197540283,0.8416467905044556,0.8202442526817322,1.0276777744293213,0.10095641762018204,-1.3366137742996216,-2.7407612800598145,2.9601664543151855,0.7409210205078125,1.8059014081954956,-0.2027856856584549,-1.4458673000335693,0.3344794809818268,-2.133233070373535,-0.636070728302002,-0.6711217761039734,-1.8278223276138306,0.6847183704376221,-2.239623546600342,2.9015984535217285,-1.8465348482131958,0.692300021648407,-0.24942348897457123,-1.28715980052948,-2.6442995071411133,-1.4054404497146606,-3.637982130050659,-2.6244094371795654,-0.621938169002533,-0.4579242467880249,0.7207623720169067,-3.9451589584350586,0.8589574694633484,-1.0808653831481934,-3.279433250427246,3.195863723754883,-0.2852202355861664,-0.6134940981864929,0.14004091918468475,-1.0346450805664062,2.751338005065918,0.953500509262085,5.187498092651367,1.307400107383728,-0.2114337980747223,2.2613446712493896,-0.18284378945827484,-2.4022934436798096,-1.9717363119125366,1.065386176109314,0.22247809171676636,1.097935438156128,2.105839490890503,1.2585710287094116,0.49146854877471924,-0.4845484793186188,-1.2108674049377441,0.43061479926109314,1.0635597705841064,-2.7010557651519775,-2.4897360801696777,-2.6196136474609375,-0.7631528973579407,4.580073833465576,-1.4766426086425781,-0.771824300289154,-0.964682400226593,-3.2275896072387695,2.8754186630249023,0.9118821024894714,0.9963791370391846,-0.8514259457588196,-2.0178427696228027,2.1552276611328125,-1.452052116394043,1.216115117073059,-2.651319742202759,0.6861777305603027,0.9924872517585754,0.9763197898864746,-4.060499668121338,-0.08172669261693954,-0.2674926519393921,2.1302249431610107,-0.48135679960250854,0.8800368309020996]},"outputHidden":{"rows":20,"columns":20,"weights":[0.8724127411842346,-2.7467119693756104,-10.439839363098145,-5.6631879806518555,-3.173092842102051,-2.5408360958099365,-2.814514636993408,-2.648155450820923,2.148465156555176,-1.6197714805603027,2.460136890411377,1.6848227977752686,-2.8917672634124756,-2.8310251235961914,3.2751784324645996,-3.8418548107147217,3.648123264312744,4.567778587341309,-3.9927823543548584,-3.9179513454437256,0.13817235827445984,2.6876375675201416,-2.0023858547210693,-2.89338755607605,0.97625732421875,0.9702473878860474,-2.6052916049957275,0.9031652808189392,-1.267244815826416,-0.36816954612731934,0.05074716731905937,1.80032479763031,0.26700538396835327,0.09138818830251694,0.8408172130584717,-0.6618204116821289,1.6539411544799805,0.5575991272926331,1.3534624576568604,-0.9068833589553833,-1.25723135471344,1.2405880689620972,2.9339497089385986,-2.3094377517700195,0.2590545415878296,-3.6265549659729004,1.0247529745101929,-1.1849819421768188,1.7564183473587036,1.205676555633545,-0.4287665784358978,-1.0499063730239868,0.6838771104812622,-1.4933152198791504,-1.4701037406921387,-0.10049793869256973,-2.4531219005584717,-0.8531405925750732,1.562647819519043,0.93792325258255,2.7321550846099854,6.513877868652344,-4.130148410797119,1.7228666543960571,-1.4010241031646729,-2.784592390060425,1.6965783834457397,1.2682453393936157,0.5262942910194397,-1.6272845268249512,-4.600480079650879,-0.8995575308799744,1.223486065864563,0.3718993067741394,1.209262490272522,0.002212504157796502,0.693604052066803,-1.101622462272644,-0.03317011892795563,-3.679713487625122,0.08962970972061157,0.9363120794296265,-0.26202183961868286,0.5836704969406128,0.057486336678266525,-0.6786761283874512,1.0329759120941162,-0.5306994318962097,0.2827015519142151,0.2649584710597992,-2.0545260906219482,1.9560104608535767,-0.6915735006332397,-2.029815673828125,-0.02668778784573078,-1.3245275020599365,-0.32428765296936035,0.2794170379638672,-1.0531554222106934,0.9884302616119385,2.8284287452697754,1.153136134147644,-0.08660499006509781,0.799422025680542,2.326746940612793,1.9542638063430786,-2.5680041313171387,0.8441982269287109,-1.7701135873794556,1.6931785345077515,1.0017677545547485,0.9726606011390686,-5.976059436798096,1.0479758977890015,0.3432123064994812,-0.6032281517982483,0.4418182969093323,1.3075016736984253,0.4331936836242676,-0.09488426893949509,-1.38734769821167,-1.5974104404449463,-0.313586950302124,1.8644391298294067,0.6625332832336426,0.9679504632949829,1.3365415334701538,0.9714101552963257,-4.398349761962891,5.005776882171631,0.8637431263923645,1.0319596529006958,1.5956307649612427,2.7414803504943848,0.04404182732105255,1.6972291469573975,1.3234297037124634,-4.169344425201416,-1.8206950426101685,4.519744873046875,-2.4056801795959473,1.9915915727615356,-1.7541332244873047,-2.7141218185424805,0.3787166476249695,-1.4086235761642456,-0.33579927682876587,-0.21257351338863373,-1.9162617921829224,0.17814768850803375,-1.7739893198013306,0.7294327020645142,-1.7433722019195557,-0.17869573831558228,1.26145601272583,0.4900968372821808,-1.0370475053787231,-0.031529754400253296,0.9027596116065979,-1.3733129501342773,-1.6370594501495361,2.6819210052490234,-0.6497911810874939,0.5927414298057556,0.3760809302330017,-0.8050605058670044,-0.23926839232444763,-2.498485803604126,-0.5037987232208252,-1.4963607788085938,-3.4299919605255127,-1.5992333889007568,-0.09415829926729202,-0.9170757532119751,1.5886472463607788,-2.5472652912139893,3.2743337154388428,1.776951789855957,-1.2577974796295166,0.862602949142456,-1.4585591554641724,1.9114865064620972,-0.7946895360946655,4.881628036499023,2.7656495571136475,1.1995230913162231,2.559065818786621,-3.6231350898742676,-3.1216325759887695,2.186859607696533,4.563742637634277,-2.3692679405212402,4.548760890960693,3.4199585914611816,3.232950448989868,-0.5894004106521606,3.601154327392578,-6.9456610679626465,3.213327169418335,2.9740383625030518,-1.3370344638824463,1.111093282699585,-0.01942097768187523,1.5315775871276855,4.069866180419922,2.4280917644500732,0.28442758321762085,-1.7450370788574219,-1.2552714347839355,0.6145497560501099,3.1899538040161133,-3.8082661628723145,-0.7745851874351501,3.371725559234619,3.69052791595459,1.0183547735214233,1.5656628608703613,-1.9702157974243164,1.9994443655014038,2.5228090286254883,-2.156294822692871,-1.8615542650222778,2.8907620906829834,-0.06454361230134964,5.6054463386535645,3.483633041381836,-3.847550630569458,1.455404281616211,0.41214725375175476,-0.8268856406211853,1.23599112033844,0.30444392561912537,6.170769691467285,4.739132404327393,-1.1154857873916626,-5.815962314605713,0.21227730810642242,-2.848184108734131,2.488429307937622,-1.1029759645462036,-1.120561122894287,-2.15993332862854,1.1494669914245605,2.2114152908325195,-2.418529987335205,-1.3628361225128174,-3.0581061840057373,0.4873800277709961,-0.4917505085468292,1.9438300132751465,-0.10108424723148346,-2.0010437965393066,-2.2277395725250244,2.1729462146759033,-0.7624230980873108,1.9112752676010132,-0.5302287340164185,1.6583856344223022,-2.910139799118042,-0.6342996954917908,0.131675124168396,-0.988527774810791,2.9309275150299072,3.2853469848632812,1.0871988534927368,3.412902593612671,-0.10056539624929428,0.7122507691383362,-3.414022207260132,1.5731936693191528,1.615190029144287,4.827169418334961,0.76304030418396,-3.2937068939208984,-0.7258073687553406,2.714339256286621,-4.206332206726074,-4.028402805328369,-0.3645246922969818,3.601914882659912,-0.5042893886566162,1.1231985092163086,-0.20264938473701477,0.39102476835250854,-0.5725241899490356,-0.6013304591178894,2.5229806900024414,0.8402701020240784,-1.9392513036727905,-2.0274658203125,0.95982825756073,1.000707745552063,-0.539504885673523,0.10453999787569046,0.3542167544364929,-1.2342712879180908,0.2324376404285431,0.4089416265487671,-0.012253143824636936,0.34246087074279785,-1.180888056755066,0.9579529762268066,1.6582707166671753,-1.3902671337127686,-1.459885835647583,-4.168872833251953,1.0453318357467651,-1.532820463180542,-0.6723662614822388,0.7328217625617981,-1.8316268920898438,0.9055217504501343,-1.3232998847961426,-0.24305574595928192,0.04144218936562538,-1.5541001558303833,-0.7981082201004028,1.1612718105316162,0.793842077255249,1.2479465007781982,0.1971665322780609,3.507166624069214,-0.9159900546073914,1.1218184232711792,3.535271167755127,2.5761044025421143,4.747176170349121,-1.2261455059051514,2.743391513824463,0.992138683795929,0.2512243092060089,0.31969645619392395,0.2842705249786377,0.5619260668754578,1.663596749305725,-2.464280366897583,2.748427391052246,1.9558323621749878,2.5271270275115967,-2.2081525325775146,-0.6188207268714905,1.016434907913208,2.0142264366149902,-1.8138402700424194,-1.8333897590637207,1.3600164651870728,-1.5394363403320312,-1.4905880689620972,-1.1083366870880127,-3.0386884212493896,0.060875192284584045,-0.7798191905021667,-3.5485358238220215,-2.4995553493499756,0.49295809864997864,-0.28361764550209045,0.32570669054985046,1.3118494749069214,-0.5983137488365173,1.2688250541687012,0.7869528532028198,0.04218906909227371,-2.138655662536621,-0.4574986398220062,-0.40091386437416077,-0.7945770025253296,-0.5674923062324524,0.23714956641197205,1.668297529220581,-0.3205176889896393,-1.4866622686386108,2.8011937141418457,0.41595587134361267,-0.8637300133705139,-1.2386428117752075,-0.4560771584510803,-2.014003276824951,2.3060357570648193,0.3920086920261383,-0.7144478559494019,0.4229103922843933,1.4763054847717285,1.8815237283706665,2.0278236865997314,0.9734965562820435,-0.09355387091636658,-0.2774046063423157,-2.882708787918091,1.324013352394104,0.769772469997406,2.0175058841705322,-2.524785041809082,2.4171013832092285,0.32753297686576843,2.5873076915740967,-0.35847723484039307,-1.2712459564208984,-2.528439521789551,3.3406801223754883,-3.8738179206848145]},"outputBias":{"rows":20,"columns":1,"weights":[-2.533921718597412,-0.8282684683799744,0.24347412586212158,-0.5551335215568542,-0.897992730140686,-1.060570478439331,-1.0135612487792969,-2.9472389221191406,-1.5457344055175781,-0.39699602127075195,-1.1615891456604004,-0.2753685712814331,0.280341774225235,-0.7435278296470642,-0.38762667775154114,-0.25837641954421997,2.6163148880004883,-0.6225712895393372,-0.22537067532539368,0.327612966299057]},"cellActivationMatrix":{"rows":20,"columns":27,"weights":[-1.4229220151901245,1.1508394479751587,0.31539368629455566,-0.4488905370235443,-0.5768137574195862,2.257399082183838,0.6617398858070374,1.5550252199172974,-0.22390887141227722,0.9086049795150757,-1.4002586603164673,0.4550662040710449,-0.6206997036933899,-2.026146650314331,3.5356154441833496,-1.1531751155853271,0.57080078125,1.4875706434249878,-0.7404009103775024,0.26871007680892944,0.5180692076683044,1.5915238857269287,-1.4153107404708862,1.2644047737121582,1.4535703659057617,0.18792136013507843,-0.07269835472106934,-1.0223758220672607,-0.5226492285728455,2.375189781188965,-0.5788813233375549,1.2580811977386475,3.055523633956909,0.7334902286529541,0.11851130425930023,0.22796714305877686,-0.935301661491394,-2.105827808380127,1.1729079484939575,0.47126322984695435,-1.9279720783233643,-0.0715443566441536,1.773500680923462,-0.22474011778831482,1.991984248161316,0.5900529623031616,0.4647994041442871,-0.21067959070205688,1.2784453630447388,0.7413716316223145,-0.15024304389953613,-0.005298617295920849,-0.5283513069152832,-0.3349120318889618,0.8408481478691101,0.3582710027694702,2.000657796859741,-1.164817452430725,-0.9585296511650085,1.1610121726989746,0.08347059041261673,1.9657299518585205,-0.3796689510345459,-0.6236295700073242,-2.3854222297668457,-1.7697744369506836,-0.09012356400489807,-2.8678815364837646,0.6230252385139465,1.2341511249542236,-0.8433437347412109,0.18725386261940002,0.7403331398963928,-2.3658523559570312,-0.7041257619857788,0.1357283592224121,-1.539680004119873,2.2100417613983154,0.7446468472480774,-0.5079355239868164,0.9271866083145142,0.6456491947174072,0.48220932483673096,-0.5555578470230103,-0.5004346966743469,0.30648550391197205,0.3508272171020508,0.5297973155975342,-0.09241481125354767,1.3844921588897705,1.328290343284607,-0.8132365942001343,0.032884396612644196,-1.4365172386169434,-0.30585557222366333,-1.0083931684494019,0.3320092260837555,0.704073429107666,-0.11215338855981827,0.7584424018859863,1.7815221548080444,-1.2014063596725464,1.5391803979873657,-0.5887661576271057,-1.2727813720703125,0.9491700530052185,1.170544147491455,1.4184907674789429,0.18085917830467224,0.5968104004859924,-0.3509306013584137,-0.5249143838882446,1.6516457796096802,1.4877737760543823,-0.16790050268173218,-0.08944731950759888,0.6824625730514526,1.648595929145813,-0.37639859318733215,0.4586784541606903,-0.6320853233337402,1.474944829940796,0.0927954763174057,0.20745907723903656,1.3517614603042603,0.9075849056243896,0.28708669543266296,1.919378399848938,1.2605751752853394,-0.8953951597213745,-0.6086524724960327,0.01067590806633234,0.3291137218475342,-0.7347961664199829,0.5774179697036743,-0.08943916112184525,-0.0005475707002915442,-0.6996034979820251,-0.2748897075653076,1.1795676946640015,-1.0809063911437988,-0.5959323048591614,-1.7876843214035034,0.6513432860374451,1.160241961479187,-1.1904196739196777,-0.08611293137073517,-1.1772677898406982,0.876738965511322,0.48991844058036804,-0.8126030564308167,1.700331211090088,-2.7574312686920166,1.9434772729873657,1.8583345413208008,-0.3956696391105652,-0.5796914100646973,-3.0404245853424072,0.12165101617574692,1.901787519454956,-0.8631937503814697,-0.10337559878826141,-0.8121405839920044,-1.4063862562179565,0.2295815348625183,-0.35893550515174866,0.699385404586792,-0.222661554813385,0.08398696035146713,0.2202797830104828,-0.7584640383720398,-0.07732537388801575,0.12625837326049805,-1.6811401844024658,1.1541069746017456,0.08911080658435822,1.222273588180542,-2.060723066329956,1.3066341876983643,-0.985690176486969,-0.6553988456726074,-0.4078717827796936,0.8058395385742188,-0.24680888652801514,-0.7397511005401611,-1.270382046699524,0.23509930074214935,1.303917646408081,-1.2063734531402588,-0.43418803811073303,1.0438666343688965,0.2713189721107483,-1.8465484380722046,0.4127938449382782,-0.0808960497379303,-1.6076022386550903,0.8377712965011597,-1.0038217306137085,-1.106006383895874,-1.0876896381378174,-0.6289963722229004,-0.5179099440574646,-1.5079755783081055,2.4074270725250244,1.2205183506011963,-0.9571208357810974,-0.3519679307937622,-0.5585074424743652,-0.34866222739219666,0.9708112478256226,-0.6634792685508728,1.528945803642273,1.8406498432159424,1.0076011419296265,0.07697075605392456,-0.3521004319190979,-0.5734125375747681,0.2098357230424881,1.54873788356781,-0.6708346605300903,-0.18128323554992676,1.1766148805618286,-0.7076653242111206,1.8571195602416992,-1.558631181716919,-0.6180320978164673,-1.213346004486084,-0.32219168543815613,-0.399122416973114,-0.8755058646202087,1.4236594438552856,0.5414860248565674,-0.14664335548877716,0.9457491636276245,-1.254403829574585,-1.3945667743682861,-0.20398716628551483,-0.5194313526153564,0.40933817625045776,2.3481433391571045,0.8596707582473755,-0.8780336976051331,-0.15883353352546692,-1.1578551530838013,-0.2674192488193512,-1.0231571197509766,-0.42310428619384766,0.614586353302002,1.9735000133514404,0.2266099452972412,-0.3199930489063263,0.14334116876125336,-0.5777837038040161,-0.8568910360336304,0.08494669944047928,-0.1394057273864746,1.0052233934402466,0.8796225786209106,1.9506723880767822,-0.18961912393569946,2.0966880321502686,-0.18520183861255646,0.6053758263587952,0.18806369602680206,-1.0685412883758545,-2.327199935913086,1.0690996646881104,1.4717437028884888,-0.39980271458625793,-0.3725873529911041,2.8652846813201904,0.37249693274497986,0.22447551786899567,1.6702371835708618,-1.2477926015853882,0.9992820620536804,0.6757758259773254,-2.023601531982422,1.6801632642745972,0.5423843860626221,-0.13557615876197815,0.5060625076293945,0.489746630191803,1.300934910774231,-1.3419917821884155,-0.5668333768844604,-1.988635540008545,2.294463872909546,1.5588266849517822,1.047922134399414,-1.111372470855713,2.183495044708252,-0.10351984947919846,-0.42784082889556885,0.4643179774284363,1.9180277585983276,0.6571350693702698,-1.6681885719299316,-0.8125024437904358,1.0429328680038452,0.8274207711219788,-1.724807620048523,-0.7282220125198364,0.5826001763343811,2.1833748817443848,0.46100690960884094,0.12419037520885468,1.0247536897659302,-0.8169705867767334,0.9816762804985046,-1.153021216392517,-0.746002197265625,0.2969907224178314,0.24738048017024994,0.04274838790297508,-0.6704103350639343,-0.8499861359596252,1.4814977645874023,-0.259663850069046,1.8692619800567627,0.13651910424232483,-1.5216773748397827,0.7076509594917297,-0.920287013053894,-0.4312736690044403,0.6332720518112183,-0.6022744178771973,-1.4130001068115234,2.332146644592285,1.8253042697906494,-0.13409623503684998,1.5435237884521484,0.7071691155433655,2.3953874111175537,-0.29960137605667114,0.862774670124054,-2.184412956237793,0.1817866563796997,-0.1591424196958542,1.3990867137908936,1.2824981212615967,-0.6032535433769226,0.4738697111606598,0.4821055233478546,1.074877142906189,-0.776597261428833,-0.9146420955657959,-0.6706843972206116,2.525294542312622,-0.7930607199668884,1.7020472288131714,-0.38542529940605164,3.1439085006713867,0.5583708882331848,-0.5520329475402832,3.37506103515625,2.2420692443847656,-0.11339074373245239,-0.31791749596595764,0.27953189611434937,0.11255776882171631,0.6093945503234863,-0.3550606071949005,-1.7254955768585205,0.6684223413467407,0.8924270272254944,0.28688380122184753,0.11407046020030975,1.5547008514404297,0.3238835036754608,0.054230351001024246,-0.0760258287191391,-0.05764685571193695,0.936481237411499,-0.19731447100639343,-0.005647342652082443,-0.23162947595119476,1.9642497301101685,2.5107462406158447,1.1962916851043701,-1.3382244110107422,0.14500483870506287,-0.6024218797683716,1.1950922012329102,-0.7357401847839355,-1.8523881435394287,1.4397157430648804,-1.4005966186523438,-0.37761759757995605,2.5198421478271484,-0.6569191813468933,0.8991039991378784,-1.7012836933135986,-1.0257443189620972,1.1119589805603027,0.34503990411758423,-0.171257883310318,2.221184492111206,-0.7955348491668701,0.6301932334899902,1.072588324546814,0.06947682052850723,-0.6658995747566223,1.1790961027145386,0.610905110836029,0.19879278540611267,0.773152232170105,-1.4990599155426025,1.6250439882278442,0.7896320223808289,-0.20073096454143524,0.17295728623867035,-1.9700416326522827,0.33087220788002014,1.5511209964752197,0.8553556799888611,-0.6791488528251648,1.1184591054916382,1.8217471837997437,0.25153201818466187,-0.7071249485015869,-1.5006399154663086,-1.107801079750061,0.1707373559474945,0.3455638885498047,-0.7814242839813232,0.8505557775497437,-0.34856659173965454,0.4356711804866791,-1.0848572254180908,0.14834105968475342,-0.3529822528362274,-2.262601375579834,-0.18652090430259705,-2.1416399478912354,-1.5405901670455933,-1.4316956996917725,0.34217017889022827,0.0323769636452198,-3.194315195083618,-1.6669505834579468,0.3928385376930237,-0.5730559229850769,1.4416545629501343,-1.559798240661621,1.9357904195785522,1.6016277074813843,-1.0271759033203125,-1.0462851524353027,0.46513631939888,1.5020383596420288,2.3968796730041504,0.4613586962223053,2.0612869262695312,-0.7776679396629333,0.8929661512374878,1.0205976963043213,-0.6338245868682861,-1.5698392391204834,-1.2234305143356323,-1.4260056018829346,0.6601235866546631,1.5534650087356567,-0.49217551946640015,-0.10958628356456757,-0.4058889150619507,0.2058250606060028,-2.6734237670898438,-1.6043845415115356,0.751636803150177,-1.6646214723587036,0.6019166111946106,-1.0815428495407104,2.3361525535583496,0.11149623990058899,-1.657217025756836,0.03313571959733963,-1.0187007188796997,-0.4787008762359619,0.014801171608269215,-0.9559985399246216,0.6208401918411255,0.49628782272338867,-0.1394885629415512,-0.7521045207977295,-2.219822645187378,1.026185393333435,0.7285303473472595,-0.5458917021751404,-0.5165132284164429,0.03203970193862915,1.7734193801879883,0.15011005103588104,-0.3233886659145355,3.377415418624878,-2.2467117309570312,-0.4182223975658417,1.0735490322113037,-1.07908296585083,0.03694576397538185,-2.2693867683410645,0.575149416923523,-0.06130783259868622,1.0694382190704346,0.5620146989822388,0.9751004576683044,-0.6915999054908752,0.3083380460739136,-0.45900243520736694,-0.031093910336494446,0.2813657522201538,0.8903147578239441,2.301551342010498,1.5079728364944458,0.004915852565318346,1.435815453529358,1.5575841665267944,1.9088016748428345,-2.65651535987854,0.8828604817390442,0.23913930356502533,0.4991523027420044,0.5053305625915527,1.2574732303619385,-1.2650237083435059,0.9397967457771301,0.7334929704666138,-1.1710516214370728,-1.1759653091430664,-0.628472089767456,-1.322059988975525,-0.995054304599762,-0.33778077363967896,0.14262357354164124,-1.0520724058151245,-0.3022189438343048,-1.8541291952133179,-0.5726380348205566,2.145911693572998,1.2142977714538574]},"cellActivationHidden":{"rows":20,"columns":20,"weights":[0.21792714297771454,-0.04187179356813431,1.2019375562667847,-0.9856269955635071,1.0671228170394897,0.3360888361930847,1.6859403848648071,0.2953547537326813,0.7326474785804749,1.4142251014709473,-0.3269537389278412,0.5724965333938599,0.9949107766151428,1.143674373626709,0.6537275314331055,-1.5130976438522339,-1.85362708568573,0.2925894856452942,4.807811737060547,2.520463466644287,1.848192811012268,-0.3947538733482361,1.2916560173034668,0.7929344773292542,-1.3721696138381958,0.625495195388794,-0.2410842329263687,-2.7282814979553223,-1.8756922483444214,2.8158841133117676,0.3343000113964081,-2.934725761413574,-0.12326740473508835,3.0763347148895264,1.7675923109054565,0.7511370778083801,-0.686845064163208,1.1217856407165527,3.883227825164795,2.30316424369812,0.3434107303619385,-2.0360653400421143,-0.6587009429931641,1.3538235425949097,1.3615679740905762,1.1644572019577026,-0.5242483019828796,1.3730169534683228,-1.0179249048233032,-0.030625639483332634,1.3248815536499023,2.1942667961120605,-0.4117315113544464,-0.04702812060713768,1.1442725658416748,-0.3193439245223999,0.6072944402694702,-1.3631832599639893,1.6793818473815918,-0.07129473239183426,-0.1868053823709488,0.4208177924156189,-1.0192275047302246,-0.5277926921844482,2.1142170429229736,0.9010517597198486,-0.190042644739151,0.6826056838035583,-0.5913419127464294,0.8434350490570068,1.0780895948410034,0.53242427110672,-0.20073874294757843,1.9018776416778564,-0.9686679840087891,0.08523183315992355,-0.7478595972061157,-1.0500538349151611,1.3451038599014282,-0.07499039173126221,0.29268160462379456,0.02819231152534485,0.10551079362630844,-0.14578811824321747,-0.18025054037570953,-0.1382315307855606,0.15483613312244415,0.5509213209152222,0.0657181665301323,0.5224118828773499,0.4353850185871124,0.4534238278865814,-0.9286942481994629,-0.16667720675468445,-0.3443114459514618,0.6255372762680054,-1.347425103187561,-0.9813735485076904,-0.2189445048570633,0.8873472213745117,1.5107882022857666,-0.66800457239151,2.455277681350708,-0.3291037380695343,-1.156521201133728,-1.462087869644165,0.255196213722229,-1.002657175064087,1.1012687683105469,0.8349864482879639,1.2763426303863525,-2.017115354537964,-0.48559069633483887,-0.8342877626419067,-1.6958198547363281,0.5845640897750854,-3.2060861587524414,-0.43115559220314026,-0.8121200203895569,-0.7568762302398682,-1.9782164096832275,0.7944123148918152,-0.6086877584457397,-1.0783005952835083,0.053828366100788116,-0.3984980881214142,-0.628656268119812,-1.3480859994888306,-0.4759775996208191,-0.20850008726119995,0.8129310607910156,-2.8620152473449707,-1.2284475564956665,-0.24735431373119354,1.0087394714355469,0.19956161081790924,0.9328017830848694,-0.6216159462928772,0.5551878809928894,-1.064656138420105,0.5303314328193665,-0.5735960602760315,-0.6799411177635193,-0.5609377026557922,0.13246899843215942,-0.9301983118057251,0.532447874546051,0.1115913912653923,-0.010309888981282711,1.270412564277649,-0.8177801966667175,-0.5978690981864929,-1.0573307275772095,0.530417263507843,0.635498046875,-0.055736035108566284,0.22595664858818054,-0.6129352450370789,1.7192655801773071,-0.18583056330680847,-0.35461583733558655,0.5668029189109802,0.1369311809539795,-1.760929822921753,-0.8585143089294434,-1.406624436378479,1.1773508787155151,0.53412926197052,0.3703252971172333,-1.3342411518096924,-0.626454770565033,-0.2684953510761261,-1.497012734413147,-1.5173442363739014,0.9571539163589478,-1.0877323150634766,1.7289369106292725,1.5486921072006226,1.0985095500946045,-1.3973586559295654,0.5343590378761292,-0.5822417736053467,-0.15781554579734802,2.0476629734039307,0.38695186376571655,2.336897611618042,0.5116950869560242,-0.2952069342136383,-0.2807037830352783,-0.8982288837432861,0.7202362418174744,1.0028566122055054,1.060965657234192,-1.4817252159118652,0.9241864681243896,0.07844264060258865,1.9313793182373047,0.25457409024238586,1.1698966026306152,0.6417094469070435,0.7332435846328735,-0.4605964720249176,-1.927393913269043,-0.3683507740497589,0.851911723613739,0.8200397491455078,1.4272794723510742,1.1750121116638184,-0.3773845136165619,-1.1946675777435303,0.40401583909988403,1.9152071475982666,1.2495206594467163,-2.1201698780059814,-2.7529611587524414,0.8006249666213989,-1.4475722312927246,-0.5846384167671204,-2.8561813831329346,1.0489863157272339,-0.2547946870326996,-0.9292153120040894,0.7976911664009094,-0.4504583775997162,-1.3854185342788696,-0.596043050289154,0.46334561705589294,-1.4869784116744995,-1.101515531539917,0.0934743732213974,0.21435126662254333,-1.7339831590652466,-0.33625900745391846,0.3458477854728699,0.7865806818008423,0.6104901432991028,-0.00722491042688489,-0.41226568818092346,1.4230214357376099,0.7783236503601074,1.3795303106307983,0.1788291186094284,0.05576126277446747,1.0973621606826782,0.37594839930534363,-1.032226800918579,-0.8768631815910339,0.026401041075587273,0.4069400131702423,0.2967965602874756,1.2544915676116943,-0.7802759408950806,0.15306609869003296,0.5905359387397766,1.350887656211853,0.028142176568508148,0.3562203347682953,-0.6741318106651306,-0.28314346075057983,0.49859094619750977,0.20313115417957306,0.22491678595542908,1.9045966863632202,0.33066651225090027,1.6888209581375122,-0.38937580585479736,2.267775774002075,0.7033663392066956,1.4368423223495483,-1.8128573894500732,-1.1208558082580566,0.009345474652945995,-1.2791332006454468,-1.165622591972351,-0.2751464545726776,-0.17218278348445892,-0.2695096731185913,3.6033456325531006,1.6012933254241943,-2.3071975708007812,-0.07449671626091003,-0.7084093689918518,0.7639235258102417,0.0831785574555397,-0.8133546113967896,-0.48009032011032104,-0.0895964726805687,-1.8250563144683838,1.1400196552276611,-1.5498656034469604,0.35231873393058777,-0.8845507502555847,-1.113472580909729,0.9259581565856934,-0.8492621779441833,-0.3666066527366638,-0.2155744731426239,0.9826581478118896,0.5564541816711426,-1.701902985572815,-0.21925559639930725,1.0246872901916504,-1.3387389183044434,1.2940170764923096,0.6136417984962463,-0.016240360215306282,-0.40229856967926025,2.5624375343322754,0.6905929446220398,-0.66471928358078,-0.1765846163034439,1.5113801956176758,0.2250974178314209,-0.5242408514022827,-1.2954400777816772,-1.3563023805618286,-2.5149168968200684,-1.546614170074463,-0.4232510030269623,-0.3652471601963043,-1.1993917226791382,-0.6487333178520203,0.10207054018974304,-0.19417807459831238,0.7282952666282654,-0.681541919708252,0.449349969625473,-0.5392576456069946,-0.6010530591011047,1.2462794780731201,0.051713865250349045,-1.4355663061141968,0.08153732120990753,0.5378185510635376,0.04510090500116348,0.2762335538864136,-0.23483727872371674,0.06455036252737045,0.07474378496408463,0.011021426878869534,-0.44023749232292175,-0.918664276599884,-1.1112819910049438,-0.2619730234146118,-1.0998599529266357,0.8138405680656433,1.2883762121200562,-0.5382258892059326,0.7371659278869629,-0.2145531177520752,0.1975523680448532,1.0656183958053589,-0.3530992567539215,0.6312825083732605,-0.1616898775100708,0.31574371457099915,0.4475606083869934,0.3479086458683014,-0.06982304155826569,-1.1922181844711304,0.3770279586315155,-0.9742831587791443,0.1415703445672989,-2.0533502101898193,-1.7910808324813843,-1.025640845298767,-0.14544804394245148,-0.18478240072727203,1.4263510704040527,0.7315065860748291,-0.1219981461763382,-1.3105566501617432,0.22679801285266876,-0.13786327838897705,-0.35886022448539734,-0.742563009262085,0.32286202907562256,1.1306877136230469,-0.4804243743419647,-1.0959166288375854,-0.9587639570236206,0.2783501446247101,0.4200094938278198,0.009432205930352211,0.1907079666852951,1.6733973026275635,0.6399610042572021,1.3324302434921265,0.248456671833992,-0.6036413908004761,0.27656716108322144,0.622112512588501,-0.16524484753608704,0.11880344897508621,-0.5591007471084595,0.5156343579292297,-1.87364661693573,-0.708734393119812,-0.37125104665756226,-0.9497582316398621]},"cellActivationBias":{"rows":20,"columns":1,"weights":[0.8773229122161865,-0.20212531089782715,-0.27223655581474304,0.5895530581474304,0.3178676664829254,-1.1982473134994507,0.19927610456943512,-0.7418177127838135,0.48823028802871704,-0.47611498832702637,0.44147419929504395,-0.2971998453140259,-0.42332008481025696,-0.017328940331935883,0.8038930296897888,0.26630985736846924,-1.620483636856079,-0.11260640621185303,0.015767723321914673,-0.24632850289344788]}},{"inputMatrix":{"rows":20,"columns":20,"weights":[3.515928030014038,1.6716891527175903,-5.002071380615234,-0.5956274271011353,-0.30734074115753174,-9.861053466796875,2.336693048477173,-0.7930793166160583,9.649497032165527,3.9829602241516113,-2.8170230388641357,2.480046510696411,1.4769859313964844,1.3966456651687622,14.183810234069824,2.7072019577026367,1.4393023252487183,0.6931909322738647,4.39716911315918,-0.1791786551475525,-0.741538941860199,-5.199000358581543,-1.0029709339141846,-3.7771284580230713,-3.003784656524658,1.5813826322555542,-0.6956215500831604,-0.7077919244766235,0.813872218132019,-9.40479564666748,2.311169385910034,-0.14073039591312408,-2.5220348834991455,2.0390570163726807,-1.322035312652588,-4.760125160217285,1.0865429639816284,3.5931859016418457,4.714888095855713,5.6917033195495605,2.3025474548339844,0.6929773688316345,1.609705924987793,-0.23378819227218628,-1.1336978673934937,3.5850563049316406,1.6562087535858154,0.3627503514289856,-0.10951653122901917,-2.1604530811309814,-2.253398895263672,3.147022008895874,2.0562474727630615,1.0560839176177979,0.016296634450554848,1.863435983657837,-5.998183727264404,-0.8277955055236816,-0.47017160058021545,4.859248161315918,-7.568049907684326,-0.057943783700466156,-4.929938316345215,-2.8815040588378906,4.353657245635986,-0.05702461674809456,-1.7219653129577637,-0.9133259654045105,1.7674497365951538,-1.94930100440979,-4.3012895584106445,-3.0692381858825684,3.7145347595214844,4.113424301147461,0.440682053565979,-1.705082893371582,-3.298207998275757,-5.340629577636719,-1.3885650634765625,0.1605803519487381,0.6255519390106201,-1.0533735752105713,0.6932498216629028,-5.596126556396484,-3.4116783142089844,2.2273638248443604,2.933415651321411,-0.511771023273468,-6.024181842803955,5.190798759460449,3.6339426040649414,1.1403270959854126,0.08058346807956696,-3.7866578102111816,2.1827263832092285,-0.5806748270988464,-2.70119047164917,2.2331960201263428,1.8069154024124146,4.402528285980225,-2.204190492630005,-6.012590408325195,-0.5176449418067932,-1.5939205884933472,-4.376885890960693,9.038925170898438,3.0328619480133057,-5.7860918045043945,1.293922781944275,0.8817889094352722,2.0032246112823486,-1.695725440979004,2.6706533432006836,-0.20837320387363434,2.412893056869507,-0.600250780582428,-2.130221366882324,-0.5741920471191406,3.9124019145965576,5.609651565551758,-3.616696834564209,-1.7719427347183228,4.521411418914795,-1.7981131076812744,-2.635047197341919,1.0805630683898926,-1.932087779045105,1.0791212320327759,2.344163179397583,1.8313071727752686,0.8940061926841736,-2.0543205738067627,0.7175224423408508,-1.1990482807159424,-6.2134785652160645,-0.9443097114562988,4.326385974884033,-2.375481367111206,-3.0419516563415527,1.3881639242172241,-0.15240399539470673,-4.153625965118408,-4.322684288024902,-2.2293431758880615,8.930377006530762,3.0477135181427,-8.500469207763672,-3.7200052738189697,0.2693447768688202,-1.9034758806228638,-0.8281184434890747,3.84059476852417,6.240204811096191,9.201483726501465,2.0471723079681396,2.3658673763275146,-2.039888381958008,-0.9573479890823364,1.2928237915039062,0.04975670203566551,-3.1534512042999268,0.25721001625061035,4.538323879241943,6.818434715270996,-0.4213903546333313,3.987969398498535,-0.7832155823707581,-3.5672144889831543,-3.6115665435791016,3.4798853397369385,6.1966657638549805,-0.2533423900604248,-3.1815574169158936,1.4834418296813965,2.8011586666107178,4.198002815246582,4.818212985992432,-1.304335594177246,4.699600696563721,1.0769503116607666,1.9341466426849365,3.369089365005493,-1.7988865375518799,-0.7613773941993713,0.6165967583656311,-6.598543643951416,-0.1709710657596588,4.872886657714844,4.106276512145996,-1.6193723678588867,-1.4079124927520752,6.311862468719482,-1.795122742652893,-6.645838260650635,2.8065810203552246,0.6452462077140808,-1.1806429624557495,5.213591575622559,2.5513439178466797,8.811813354492188,-5.227107524871826,-1.1212855577468872,1.2883872985839844,1.6106386184692383,0.5277214646339417,7.705860614776611,-1.8590397834777832,-5.607302665710449,-5.07813024520874,5.692054271697998,4.900796890258789,-6.00140905380249,1.2876111268997192,5.856977462768555,-1.6554648876190186,0.8720288872718811,-0.5643150210380554,0.32929813861846924,1.836047649383545,1.2001065015792847,-3.6163313388824463,-2.432974338531494,-3.6406924724578857,-2.3694682121276855,8.943486213684082,-4.912607669830322,0.16366568207740784,-0.20315012335777283,-2.228670597076416,4.158031463623047,-3.709930896759033,3.287172794342041,3.697382926940918,-0.7467307448387146,-1.2979271411895752,3.4656898975372314,-1.083189606666565,0.8385605216026306,-0.3647449314594269,2.280177593231201,3.356642007827759,1.6543331146240234,-2.7871906757354736,-4.880737781524658,1.3424932956695557,2.135618209838867,-5.100283622741699,-0.22120875120162964,-5.418316841125488,0.2313721626996994,-2.3461337089538574,-0.978040874004364,-1.2071356773376465,-2.1041603088378906,3.2788197994232178,0.9094663858413696,-0.40203404426574707,5.869364261627197,-4.04119873046875,-6.4518866539001465,-8.438375473022461,5.4183807373046875,-2.1465673446655273,3.4603023529052734,2.1028919219970703,8.856769561767578,-7.482260704040527,-2.7876219749450684,0.32966259121894836,-2.0695691108703613,-5.497170448303223,-5.885337829589844,4.065858364105225,4.792163372039795,2.969054937362671,1.5766364336013794,2.0785329341888428,-1.2565412521362305,3.6310319900512695,10.804306030273438,-0.2707888185977936,5.349514961242676,2.095210075378418,0.37659987807273865,-0.4541786015033722,-4.742447853088379,3.1726438999176025,0.4520953595638275,-0.9175539612770081,0.978458046913147,-4.180877685546875,6.252340316772461,-1.9954971075057983,-2.6545886993408203,-0.13675470650196075,-3.8906407356262207,-4.295135021209717,2.615734577178955,1.8060733079910278,-9.920040130615234,4.156093597412109,2.2352371215820312,1.132791519165039,-2.4328930377960205,-6.239507675170898,-12.569883346557617,-2.898984909057617,-1.1854875087738037,0.9776865243911743,-2.2571887969970703,-4.488491535186768,-1.5430587530136108,-5.18691873550415,-9.511497497558594,5.55413818359375,8.610634803771973,2.654538154602051,9.069929122924805,-2.875330924987793,3.6620662212371826,-1.3652331829071045,0.017957137897610664,4.081095218658447,2.906388282775879,-0.15174683928489685,2.5596673488616943,5.414700031280518,-0.26709070801734924,-0.7696594595909119,-0.8170834183692932,2.210584878921509,-4.385426998138428,0.08944902569055557,-0.2868458330631256,0.6973477602005005,-7.587274551391602,-2.190692663192749,-0.20063816010951996,4.3929266929626465,2.3564023971557617,0.15503118932247162,-2.545854330062866,-0.5431133508682251,9.474188804626465,3.591809034347534,1.929234266281128,3.573422908782959,-1.1563695669174194,-2.68269419670105,-5.059224605560303,2.1623077392578125,-1.1039758920669556,-3.7278099060058594,-5.451657295227051,-2.089595079421997,5.214016437530518,5.177601337432861,-0.6022871732711792,4.804198265075684,3.4747047424316406,1.8884954452514648,-2.734332323074341,-8.558728218078613,0.16260702908039093,0.3439185619354248,9.891512870788574,6.307798385620117,-3.0749356746673584,1.302276849746704,0.10904010385274887,-0.8986688852310181,2.844264030456543,1.8956947326660156,3.1683268547058105,1.8810288906097412,-5.602165699005127,3.094000816345215,0.7052119970321655,5.344430446624756,3.299776554107666,0.14286772906780243,-2.3077030181884766,0.44133517146110535,-0.4940201938152313,-5.104741096496582,4.4769463539123535,2.273261785507202,-4.069426536560059,1.4187877178192139,-1.182244896888733,0.5738386511802673,-0.5613390207290649,0.7485041618347168,-6.6938347816467285,-2.839916467666626,-0.5150985717773438,-0.4651521146297455,2.3239197731018066,-4.73757266998291,0.9890512824058533]},"inputHidden":{"rows":20,"columns":20,"weights":[5.454894542694092,-0.21508078277111053,6.4460625648498535,-3.6025550365448,-0.5387280583381653,1.3331387042999268,-1.7490010261535645,-1.4378881454467773,4.635121822357178,-4.212131977081299,6.5749640464782715,7.566978454589844,5.04351806640625,-0.8884527683258057,1.6249198913574219,-2.381430149078369,-1.2654777765274048,-0.3027745187282562,-0.03635943681001663,0.678397536277771,4.705678462982178,-2.0215234756469727,4.192196369171143,4.863345623016357,-1.7333108186721802,1.459488868713379,6.609983444213867,0.35758543014526367,