{"type":"LSTM","options":{"inputSize":22,"inputRange":22,"hiddenLayers":[20,20],"outputSize":22,"decayRate":0.999,"smoothEps":1e-8,"regc":0.000001,"clipval":5,"maxPredictionLength":100,"dataFormatter":{"indexTable":{"H":0,"o":1,"i":2,"e":3,"y":4,".":5,"!":6,"?":7,"a":8,"l":9," ":10,"g":11,"t":12,"h":13,"w":14,"r":15,"u":16,"d":17,"n":18,"stop-input":19,"start-output":20,"unrecognized":21},"characterTable":{"0":"H","1":"o","2":"i","3":"e","4":"y","5":".","6":"!","7":"?","8":"a","9":"l","10":" ","11":"g","12":"t","13":"h","14":"w","15":"r","16":"u","17":"d","18":"n","19":null,"20":null,"21":null},"values":[{"input":"Hoi","output":"Hey"},{"input":"Hoi.","output":"Hey."},{"input":"Hoi!","output":"Hey!"},{"input":"Hoi?","output":"Hey?"},{"input":"Hoi","output":"Hi"},{"input":"Hoi.","output":"Hi."},{"input":"Hoi!","output":"Hi!"},{"input":"Hoi?","output":"Hi?"},{"input":"Hallo","output":"Hello"},{"input":"Hallo.","output":"Hello."},{"input":"Hallo!","output":"Hello!"},{"input":"Hallo?","output":"Hello?"},{"input":"Hoe gaat het","output":"How are you"},{"input":"Hoe gaat het.","output":"How are you."},{"input":"Hoe gaat het!","output":"How are you!"},{"input":"Hoe gaat het?","output":"How are you?"},{"input":"Hoe gaat het","output":"How are you doing"},{"input":"Hoe gaat het.","output":"How are you doing."},{"input":"Hoe gaat het!","output":"How are you doing!"},{"input":"Hoe gaat het?","output":"How are you doing?"}],"characters":["H","o","i","e","y",".","!","?","a","l"," ","g","t","h","w","r","u","d","n","stop-input","start-output","unrecognized"],"specialIndexes":[19,20,21]}},"trainOpts":{"iterations":15000,"errorThresh":0.005,"log":true,"logPeriod":250,"learningRate":0.01,"callbackPeriod":10,"timeout":"Infinity","layers":[10]},"input":{"rows":23,"columns":22,"weights":[1.584543228149414,-3.4736359119415283,-1.0180299282073975,-1.9131579399108887,-1.6105023622512817,1.1600401401519775,1.0375865697860718,-1.1160426139831543,-0.6861001253128052,-2.814617872238159,2.1996355056762695,-0.9766124486923218,-2.3116445541381836,-0.7376247048377991,2.606132984161377,-0.5589129328727722,3.8847944736480713,0.9535186290740967,3.0810277462005615,-2.942927360534668,-2.4401028156280518,0.05711338669061661,-0.3100161552429199,3.0081653594970703,-0.36370548605918884,-0.7230733036994934,-0.8687047362327576,0.9822463989257812,-2.8703219890594482,-0.3518989086151123,1.2890688180923462,2.5732028484344482,-1.4474276304244995,3.596336603164673,-0.46655693650245667,2.0350875854492188,-2.526212453842163,-1.7916988134384155,1.7453575134277344,-2.282860279083252,1.4625067710876465,-1.8302576541900635,3.9507393836975098,-3.976491689682007,0.6736566424369812,-4.137345314025879,-0.3853892385959625,-1.4592686891555786,1.4375083446502686,-1.0279850959777832,1.5215308666229248,-0.19111743569374084,-0.7191833853721619,-1.1342006921768188,-3.324434280395508,-0.7371065020561218,-2.045879602432251,-2.7889301776885986,3.3499743938446045,-0.636242151260376,0.15846659243106842,3.5740625858306885,-0.5924476981163025,0.5088499784469604,-1.3787028789520264,2.5974833965301514,-0.8333025574684143,2.5220229625701904,2.0832583904266357,3.641836404800415,1.3825979232788086,1.8754987716674805,-1.9178059101104736,1.3462762832641602,-0.7926815748214722,-0.4885867238044739,-1.4298112392425537,-0.47749069333076477,2.1809089183807373,-0.8888967037200928,-0.16100533306598663,-1.6339789628982544,-4.721453666687012,-1.9303088188171387,-3.7536089420318604,5.353410243988037,5.171762466430664,4.3776044845581055,1.220095157623291,0.30895325541496277,-2.2350029945373535,-1.457482099533081,-2.8999035358428955,0.016048850491642952,0.6592565774917603,-1.567168951034546,-3.7893407344818115,4.504540920257568,4.436328411102295,-4.632418632507324,1.1727837324142456,-0.8156569600105286,-1.5543887615203857,0.5261206030845642,2.0235214233398438,-1.547161340713501,2.1044857501983643,-2.387279987335205,-0.45158064365386963,-3.0687785148620605,2.8251280784606934,-2.7109341621398926,1.1876649856567383,-4.362792015075684,-1.6126459836959839,0.8783559203147888,2.04835844039917,-4.624434471130371,-4.291352272033691,-0.11335234344005585,-1.9776006937026978,-5.000213623046875,-0.8149977326393127,0.12147355079650879,0.3852250576019287,-0.5941540002822876,2.573418378829956,2.6307053565979004,-0.40633904933929443,-2.7768707275390625,-2.1783089637756348,0.784532368183136,9.279417037963867,9.162849426269531,3.387937068939209,-1.4745502471923828,-11.454606056213379,-4.523927211761475,7.270505428314209,-3.6988115310668945,-4.392588138580322,2.972815752029419,2.789534091949463,1.3941487073898315,-0.12061874568462372,-0.9674807786941528,-10.044479370117188,-1.7806318998336792,-1.9865293502807617,1.5943917036056519,3.2418668270111084,3.867732286453247,4.240318298339844,0.9710561633110046,-2.0713894367218018,-4.5752363204956055,-2.0345091819763184,0.2544488310813904,3.633840322494507,4.361690044403076,-0.41275256872177124,-2.5411806106567383,-0.41319406032562256,-5.224735260009766,-4.173586368560791,-0.8910507559776306,-7.012160301208496,5.43483304977417,10.338178634643555,-3.8707337379455566,0.9595664739608765,-0.15972089767456055,-0.6087749600410461,-7.382221221923828,-3.2357945442199707,-3.659679412841797,4.4163289070129395,-4.754396915435791,-1.272720217704773,-5.614040374755859,-0.6293184161186218,-0.16412049531936646,-4.230531692504883,-2.0366828441619873,0.7400848865509033,-1.924249529838562,-10.36707878112793,2.0335891246795654,-3.539325475692749,5.599981307983398,6.239331245422363,-1.0367015600204468,-2.0499696731567383,6.17962121963501,1.663082242012024,-2.2386910915374756,-6.1822099685668945,-7.9780592918396,-1.2795177698135376,0.42212602496147156,2.8448495864868164,0.4858227074146271,-2.0949156284332275,6.015102863311768,-0.4063524901866913,1.103646159172058,1.8917180299758911,1.6044480800628662,0.3524317443370819,0.033904388546943665,-1.093449592590332,-2.1101315021514893,-2.1679680347442627,3.010049819946289,-2.229297637939453,-0.38185954093933105,-2.3013739585876465,3.356890916824341,1.4959274530410767,1.4569355249404907,8.970010757446289,-12.572265625,-1.8901619911193848,-1.7077161073684692,-3.5238394737243652,2.1468284130096436,-0.7509198784828186,-4.825187683105469,-5.693634510040283,-1.011216402053833,-2.0962376594543457,-1.2483972311019897,-2.7523045539855957,4.241697311401367,4.2765793800354,0.4050900936126709,0.2232416570186615,2.977374792098999,3.01798677444458,-2.56125545501709,-5.689833641052246,-1.015143871307373,-1.310266137123108,-1.1229066848754883,-1.369888186454773,1.3640791177749634,0.26146283745765686,2.3353774547576904,-1.1364258527755737,2.235395908355713,-0.22161570191383362,-0.668941080570221,-4.372812747955322,0.5379902124404907,-1.5497251749038696,-4.799235820770264,0.33580124378204346,-0.7074691653251648,-3.297302484512329,5.648733139038086,5.561690330505371,6.275807857513428,-1.863538146018982,3.9125423431396484,-4.344079494476318,2.3068315982818604,2.72786283493042,4.063138484954834,-0.914800763130188,-2.186371088027954,-2.388148546218872,0.2076786905527115,3.195659637451172,8.868206024169922,-2.5900278091430664,0.07011666148900986,-1.248990774154663,-0.20836441218852997,-1.050072193145752,-0.8023396134376526,-4.378744602203369,3.757234573364258,4.3475823402404785,1.8021032810211182,5.446319580078125,5.362929344177246,1.5084284543991089,-0.05120754614472389,-6.111696243286133,6.660609245300293,1.3933043479919434,5.683192729949951,-3.2111315727233887,3.957123041152954,1.6750010251998901,3.8742787837982178,3.1511001586914062,-0.5389964580535889,6.466110706329346,1.9880129098892212,2.217106342315674,0.9585845470428467,0.5843150615692139,-3.8321967124938965,-7.1833271980285645,-2.379474639892578,-2.128408908843994,-0.35659059882164,0.9575232863426208,3.3982326984405518,-0.14246219396591187,-2.2351925373077393,0.12727044522762299,2.9204604625701904,-3.1889827251434326,-0.397453248500824,3.7667558193206787,-1.3291441202163696,3.7737505435943604,4.955220699310303,-4.5972137451171875,0.20732513070106506,-2.181495428085327,4.91392707824707,5.4480743408203125,-4.389054775238037,-3.6270837783813477,-4.629820346832275,3.1740336418151855,-9.559704780578613,-2.475249767303467,-0.008871059864759445,2.2782788276672363,0.17810192704200745,-6.343257904052734,-1.8776003122329712,2.5734732151031494,-1.0094239711761475,0.6722387075424194,-2.9067845344543457,-1.6941601037979126,-1.8653076887130737,0.20479772984981537,-2.9080288410186768,-3.60194993019104,0.009699905291199684,-7.8095598220825195,3.148242712020874,-3.5315377712249756,5.233753204345703,2.5504586696624756,8.200464248657227,2.620659589767456,-3.123213052749634,2.884202241897583,0.17513102293014526,-4.082083702087402,-2.7218213081359863,3.492295503616333,0.9078819155693054,-4.111784934997559,-0.15501007437705994,0.9004635214805603,-0.014293404296040535,2.1261932849884033,-1.6743923425674438,-1.737545132637024,-3.8216729164123535,-3.8938732147216797,4.360987186431885,-3.058483123779297,2.757516384124756,0.13516567647457123,4.8368024826049805,-2.1302552223205566,0.46537071466445923,-2.159917116165161,-0.6849057078361511,2.1324663162231445,4.896703720092773,2.0187716484069824,-0.5732918977737427,2.4774041175842285,1.9730027914047241,0.5270972847938538,2.7626004219055176,-4.71820068359375,-1.3097440004348755,-2.339937210083008,1.6398636102676392,1.9883227348327637,-4.267053604125977,2.0712411403656006,-2.4807839393615723,-1.5447248220443726,-2.886054754257202,2.9502482414245605,-0.9770575761795044,1.5219976902008057,-4.696040153503418,4.322746753692627,-2.8239614963531494,-1.6197760105133057,-6.2936177253723145,-5.839925289154053,-3.058699607849121,-4.017117500305176,-5.756283283233643,-1.853337049484253,9.544516563415527,4.18084716796875,0.6636602282524109,-1.9698299169540405,2.3360962867736816,-8.839258193969727,1.8671560287475586,-1.6165696382522583,2.967669725418091,-0.9083322286605835,-6.95184326171875,-1.8329962491989136,-3.4539029598236084,-4.647716522216797,10.7989501953125,-2.0215704441070557,-13.119778633117676,-1.3321706056594849,-1.3573555946350098,-2.2310616970062256,2.4155466556549072,-6.480787754058838,5.1574931144714355,-4.344771385192871,5.21967077255249,-0.8659867644309998,2.130573034286499,0.5645865201950073,0.04313090816140175,-7.9531121253967285,0.44663023948669434,-3.8202452659606934,4.947354316711426,3.4259817600250244,-0.5384760499000549,-1.2174060344696045,-0.7319993376731873,2.2186951637268066,-1.175594687461853,-2.8296031951904297,-0.4906730651855469,2.4362800121307373,-2.2733993530273438,-1.2043229341506958,-0.4335257112979889,-3.3090591430664062,-2.764164447784424,-0.41442427039146423,1.3812891244888306,-1.0914064645767212,-2.0013206005096436,2.261702060699463,0.04429255798459053,0.8390026688575745,-0.43977296352386475,-2.50352144241333,-0.26229238510131836,1.91885244846344,2.2293832302093506,-2.3080856800079346,-0.920197069644928,1.9198099374771118,-2.208076000213623,-0.6231964230537415,0.7391902208328247,-5.024334907531738,-0.4098937213420868,4.36743688583374,1.5235528945922852,-0.6854696273803711,-0.5980464220046997,2.08845591545105,0.366914838552475,-0.7802098393440247,0.818074107170105,0.044483426958322525,-0.05741027742624283,-0.04850883036851883,-0.05258932337164879,0.0002232442784588784,-0.033080488443374634,0.047383613884449005,-0.04042170196771622,-0.0424528568983078,0.05506163835525513,0.03531252592802048,0.009539077989757061,0.029414979740977287,0.019239628687500954,0.010671313852071762,-0.028781218454241753,0.045188505202531815,0.05283331871032715,-0.032779570668935776,0.04035762697458267,0.05702125281095505,-0.03790032118558884]},"hiddenLayers":[{"inputMatrix":{"rows":20,"columns":22,"weights":[-1.264803171157837,1.0787802934646606,0.6426960825920105,-0.5828065276145935,-1.790934443473816,0.33013877272605896,-0.42786338925361633,0.8566749691963196,1.4110764265060425,1.373400092124939,2.9774253368377686,1.2909839153289795,2.524198055267334,-1.561274528503418,-2.4224085807800293,2.128727674484253,0.1980924755334854,-1.8915295600891113,2.5055036544799805,-1.0842968225479126,1.022528886795044,-1.0516003370285034,0.3101655840873718,1.0212846994400024,-0.8986381888389587,1.265027403831482,2.4017765522003174,0.30896979570388794,1.110016107559204,1.0166339874267578,1.7877073287963867,-1.8911079168319702,1.0860227346420288,-0.7100497484207153,-2.92484974861145,1.4413466453552246,2.0489490032196045,-2.59665584564209,2.0244100093841553,-2.741539478302002,1.2689869403839111,-2.8153843879699707,0.4526626765727997,-3.5652754306793213,0.7094379663467407,1.2416472434997559,-0.8036693930625916,-0.5974013209342957,1.3224546909332275,0.7788296341896057,-1.6142733097076416,0.2587164044380188,2.654728412628174,0.0231850016862154,-1.2297013998031616,3.002113103866577,-1.433980107307434,1.775707721710205,0.9135086536407471,2.3888962268829346,-1.0413731336593628,-2.1523680686950684,-2.891839027404785,-1.0686472654342651,0.9591443538665771,-1.1161218881607056,1.6006462574005127,1.87860107421875,-1.2672122716903687,0.8470814824104309,-1.361922264099121,0.6973375678062439,-0.8866894841194153,0.9468740820884705,3.4863219261169434,3.8990204334259033,2.4007556438446045,1.751521348953247,3.3534891605377197,-3.224717617034912,-0.8034307956695557,1.2707698345184326,0.6501734852790833,-2.974963426589966,0.8144084811210632,0.8842343688011169,1.11223304271698,-0.8709709048271179,-3.9255216121673584,0.7588762044906616,2.335007905960083,-1.0320740938186646,-1.8370041847229004,2.5731382369995117,-1.5727343559265137,0.6356841921806335,1.6942740678787231,-1.905808687210083,0.6934267282485962,4.1634297370910645,-2.795980930328369,-1.4174411296844482,0.3494689464569092,-1.765291452407837,1.3420226573944092,-1.8266922235488892,0.8576065897941589,-1.4502495527267456,-0.7007161378860474,-2.4689981937408447,1.0215520858764648,-0.7238573431968689,0.9544410705566406,-2.622762441635132,-1.3318735361099243,-0.14689458906650543,-1.2978026866912842,-1.3047841787338257,-2.488788604736328,-1.1350573301315308,-0.5744889974594116,-1.4392331838607788,-0.8776206374168396,3.478226661682129,-3.3508832454681396,1.9293162822723389,2.333153486251831,0.03623272851109505,-0.6558164358139038,-1.0294008255004883,-0.5160046219825745,-2.98174786567688,-1.1468931436538696,-0.9053261876106262,-1.4094041585922241,3.4922752380371094,3.229283094406128,3.177649736404419,1.141520619392395,2.641374349594116,0.45498573780059814,-3.8829357624053955,2.745361328125,2.7624456882476807,-0.5829238891601562,-1.1414029598236084,2.116647958755493,-0.5607779622077942,0.664264976978302,-2.248013496398926,-0.5012450218200684,0.3106105327606201,-0.40490415692329407,1.251795768737793,4.059628963470459,-1.2234798669815063,-0.5434889793395996,-1.3618481159210205,-1.2405054569244385,-2.5359559059143066,2.64349365234375,-2.453399181365967,-0.464256227016449,-2.696582555770874,-0.004368580412119627,-1.269945740699768,1.655838966369629,0.6762654185295105,0.19675616919994354,-2.450535774230957,-0.46056175231933594,0.5901758074760437,-1.8466272354125977,-0.6695951223373413,-2.041332960128784,-0.11321283131837845,1.9439541101455688,-1.6459307670593262,-7.48462438583374,1.2408143281936646,0.8149420619010925,-1.6820344924926758,1.7942689657211304,0.5908675193786621,-0.32381969690322876,1.6301740407943726,0.9935919046401978,-2.9322052001953125,-0.40951085090637207,-0.18427208065986633,3.550917863845825,2.3873276710510254,-0.7551869750022888,-0.7616666555404663,3.2474443912506104,-0.23033510148525238,-1.67153000831604,-0.9137503504753113,-0.8343394994735718,3.1059863567352295,1.3938541412353516,2.648145914077759,0.11525964736938477,-0.04945182800292969,0.5881583094596863,1.2019524574279785,-1.5611746311187744,0.8211995363235474,1.3105360269546509,-0.8752838969230652,1.4711673259735107,-1.201462745666504,0.25187283754348755,-1.3219711780548096,-3.4389188289642334,0.660853922367096,-0.9848364591598511,2.413236141204834,1.7825638055801392,2.0705671310424805,-3.587334156036377,3.008981943130493,-1.5221654176712036,3.1007444858551025,-1.0031042098999023,-4.751366138458252,-1.6000847816467285,-0.09805893898010254,-1.3542139530181885,-0.9241521954536438,1.7598546743392944,6.646414279937744,2.8904054164886475,-0.7359321713447571,-0.24496868252754211,-3.6399834156036377,-0.722761332988739,1.3038368225097656,0.9512707591056824,0.5803245306015015,-0.00747852073982358,0.7652367353439331,-0.6777732372283936,1.9107182025909424,-1.0812159776687622,0.12363405525684357,-2.5182383060455322,5.974971294403076,-0.015097285620868206,3.58595871925354,2.6742210388183594,-0.4864248037338257,2.3125174045562744,0.2947014570236206,-0.584976851940155,-1.0956318378448486,1.59951913356781,0.6788831949234009,0.13552887737751007,-3.417006254196167,-0.8741247653961182,-0.39453810453414917,1.428591251373291,-0.5155407786369324,-0.8322650194168091,1.6221404075622559,3.7599363327026367,0.05819408595561981,-0.6231823563575745,2.0743658542633057,0.4607657194137573,1.179596185684204,-1.8481065034866333,-1.2912169694900513,-3.093035936355591,-0.005155568476766348,1.9342204332351685,-1.0834617614746094,-1.8395930528640747,-2.050738573074341,-1.2786470651626587,2.2486984729766846,-3.2531661987304688,3.088773012161255,0.18092654645442963,4.432765960693359,2.155804395675659,-3.075862407684326,-0.07784027606248856,2.0444753170013428,0.9367027878761292,-0.3989749252796173,1.2809901237487793,-0.4411490559577942,0.6719321012496948,-2.162877321243286,-0.3181891143321991,-2.161353588104248,2.122450113296509,1.4883732795715332,5.333872318267822,1.3317923545837402,0.6209690570831299,1.898801326751709,-5.011415958404541,-1.931774616241455,0.11270701140165329,1.2239813804626465,-0.1460694819688797,0.4354824423789978,0.7474231123924255,1.36974036693573,0.15185168385505676,-1.1391410827636719,1.848290205001831,1.4150571823120117,-0.4733523726463318,-0.5329926609992981,-0.1540137231349945,1.1604095697402954,0.6225064992904663,-1.3630074262619019,-0.29169961810112,-1.9719094038009644,-2.3022165298461914,1.4496506452560425,-0.36986562609672546,3.105637788772583,0.7069143056869507,2.299037456512451,-0.08949640393257141,2.7854340076446533,-1.3054369688034058,1.7403074502944946,-0.8434439301490784,2.6707801818847656,0.06589865684509277,3.798099994659424,1.7327271699905396,3.214681386947632,-1.7454798221588135,2.7251205444335938,3.070465087890625,-1.2376126050949097,-1.9649932384490967,1.8600958585739136,-0.7582793235778809,-2.615084409713745,-0.6315451860427856,2.9066781997680664,0.5615155100822449,1.2890756130218506,-0.5567510724067688,-0.12596453726291656,0.5197739601135254,-0.6162257194519043,-0.646894097328186,-0.09562812745571136,-0.07963822782039642,1.140238642692566,-0.22044549882411957,-1.8276702165603638,-1.2470717430114746,1.4979162216186523,0.5466205477714539,-4.311452865600586,0.4854920506477356,1.5160999298095703,-2.0534873008728027,0.5669532418251038,-0.315466970205307,5.1552414894104,0.44194260239601135,1.5397852659225464,0.5871152281761169,-0.05834614858031273,1.6025086641311646,0.22340911626815796,2.0599424839019775,-0.7159620523452759,4.209346771240234,-2.7482800483703613,-3.289125919342041,-3.1661529541015625,-1.178403377532959,-1.7994240522384644,1.3554799556732178,0.7973406910896301,1.4412574768066406,-1.2318280935287476,-0.3906300961971283,3.0404152870178223,-0.9318525791168213,0.15596400201320648,1.0390413999557495,1.7061644792556763,3.0960185527801514,-0.5011463165283203,-1.8590561151504517,-0.8480653166770935,0.7447975277900696,-3.037700653076172,0.7625895738601685,1.2291316986083984,0.5475073456764221,1.3125364780426025,3.5933046340942383,0.9056227207183838,1.0592464208602905,-0.8046351075172424,-2.119265556335449,0.36456525325775146,1.1906071901321411,-1.1918025016784668,4.087125778198242,1.1915297508239746,-0.01930420659482479,-3.007577657699585,7.955159664154053,-0.5281243324279785,-0.0486937090754509,1.516000509262085,0.992418110370636,-1.1482311487197876,1.6744922399520874,-0.016587993130087852,-3.851809024810791,1.2209478616714478,-0.12248136103153229,-2.781233549118042,2.095320463180542,1.4904457330703735,2.254211902618408,-4.761992454528809,1.0013864040374756,-1.7985633611679077,0.930678129196167,-0.40499553084373474,-1.896173357963562,-1.331764578819275]},"inputHidden":{"rows":20,"columns":20,"weights":[-1.1487244367599487,-0.17503540217876434,-1.3069241046905518,0.8313289880752563,-0.6272587776184082,-0.4651378095149994,-0.17121553421020508,0.27608636021614075,-2.775465965270996,-1.3557519912719727,-3.1125364303588867,1.0355224609375,1.8062361478805542,0.17378704249858856,1.1964420080184937,-1.8801335096359253,0.359489768743515,-0.492116242647171,-0.6333245635032654,-4.273993492126465,-3.078275442123413,-1.2983661890029907,-0.03297996148467064,-0.06611154228448868,-2.4808835983276367,2.530540704727173,2.262352705001831,-1.6966513395309448,-2.5863564014434814,1.5714051723480225,1.546263337135315,2.2395882606506348,-4.499359607696533,1.6029415130615234,3.9960429668426514,-2.0745222568511963,-0.25694653391838074,4.102748394012451,2.28961443901062,-1.0489550828933716,0.6561060547828674,0.0948016420006752,0.1203312948346138,-0.6302070617675781,-2.2426648139953613,0.2530689835548401,0.1459471434354782,-1.00566828250885,0.5435289740562439,0.6745402216911316,0.5689618587493896,-2.171780586242676,4.084479808807373,1.7666493654251099,0.779441773891449,-1.6681005954742432,0.08345822244882584,0.4524502158164978,0.22993697226047516,0.5405892133712769,1.3267884254455566,-0.5521537065505981,2.017416000366211,-0.526261568069458,-2.5534510612487793,-0.3084626793861389,1.3089830875396729,2.31669545173645,1.7431330680847168,1.4722563028335571,0.18344198167324066,-1.4043771028518677,0.878463864326477,0.3567580580711365,1.0878580808639526,1.145308256149292,1.5497249364852905,-1.116896390914917,-2.4679579734802246,1.0949063301086426,-0.6315832138061523,-2.409559965133667,0.06411434710025787,-2.3656651973724365,0.6519691944122314,1.203485369682312,0.08668756484985352,0.5710154175758362,-1.0700836181640625,-0.7519034743309021,1.3485277891159058,1.6056334972381592,-1.3655009269714355,0.22585062682628632,1.976496934890747,1.7427934408187866,0.33588728308677673,-1.4191478490829468,1.6290347576141357,1.017370343208313,-1.5662680864334106,-1.5057756900787354,0.8327677249908447,1.8224471807479858,2.9289796352386475,-0.4774705469608307,1.549762487411499,-0.9600122570991516,-0.7581371665000916,0.6022200584411621,0.7751882076263428,-0.567070484161377,3.397571563720703,-0.33061483502388,-0.5795198082923889,-2.2336361408233643,1.1537251472473145,0.6203125715255737,0.37180647253990173,2.628283739089966,-1.6505247354507446,1.305402398109436,0.11987906694412231,0.3370550274848938,0.8711827397346497,-0.08962190896272659,1.0616710186004639,6.892812728881836,-1.122471809387207,0.521687924861908,0.6046321392059326,1.441798448562622,-4.705908298492432,-0.9531596899032593,2.0424818992614746,-0.44470253586769104,1.7622573375701904,2.5531630516052246,-0.5747553706169128,-1.2419376373291016,0.7050326466560364,0.8568843603134155,1.8119280338287354,-4.733245372772217,-2.0527853965759277,0.590905487537384,-1.694891095161438,-3.1046640872955322,0.9350335597991943,-0.6189550161361694,-1.1054635047912598,-2.9369776248931885,-0.08862908184528351,-0.2075520008802414,-1.4797003269195557,1.9172005653381348,0.9880644679069519,0.07547362893819809,0.0043922774493694305,1.0603773593902588,0.7210822105407715,2.2916197776794434,0.29505422711372375,0.5615277290344238,-1.9673489332199097,2.5856101512908936,-0.5128011703491211,-1.0728042125701904,-0.1433357149362564,2.7283878326416016,-1.4503039121627808,-2.945051670074463,0.7555714845657349,2.3480565547943115,1.7500338554382324,-2.57376766204834,-0.8037596344947815,2.922084331512451,0.14307597279548645,0.31525281071662903,1.4963239431381226,0.5859885811805725,-0.020178264006972313,3.477792739868164,-2.44696044921875,1.973336100578308,-0.9714696407318115,2.4706127643585205,0.4751182198524475,1.2268685102462769,-1.4730819463729858,1.5494647026062012,-0.5762306451797485,-0.8916868567466736,1.0802252292633057,-2.1277239322662354,-3.916408061981201,2.671841621398926,4.072686195373535,1.2578680515289307,2.6465582847595215,-5.160431385040283,0.3998405635356903,-0.5762689113616943,0.36877551674842834,-2.042712450027466,1.9609183073043823,-7.15347146987915,-3.543652296066284,4.578840732574463,-3.8941264152526855,1.1289441585540771,4.862966060638428,1.2876583337783813,-10.175494194030762,-0.3801816403865814,-1.1970545053482056,1.9785969257354736,0.9780333638191223,0.2667929232120514,-1.0927784442901611,2.51689076423645,2.3696987628936768,1.0482525825500488,3.204726219177246,1.1047866344451904,0.12632222473621368,3.0990962982177734,-2.6097593307495117,-1.1055816411972046,-1.4887259006500244,-2.2132279872894287,-2.845409631729126,-1.1756516695022583,0.05105465278029442,1.1453158855438232,-1.6964040994644165,-0.9024760127067566,-1.1911609172821045,-3.2382237911224365,0.184759259223938,0.6497926115989685,4.43613862991333,-1.3622016906738281,-2.2534866333007812,0.22505679726600647,-2.8695974349975586,-2.870394468307495,0.4938048720359802,0.4947671592235565,-1.5310027599334717,-2.1395251750946045,0.24267247319221497,-1.0463682413101196,-1.255668044090271,-0.7546758055686951,1.5518912076950073,-0.6558844447135925,-2.000319719314575,0.46472203731536865,-0.764794647693634,-0.7015694975852966,-1.3115547895431519,0.16974809765815735,-0.7534756064414978,-1.8005902767181396,-1.9330304861068726,3.508737564086914,-1.24802565574646,1.7258107662200928,0.10402853786945343,2.085580825805664,-6.2052903175354,-1.7938041687011719,4.9198384284973145,-1.0588486194610596,-0.9491785764694214,0.47627314925193787,-2.845489978790283,-4.796637535095215,1.0904549360275269,-2.6913721561431885,0.9155817627906799,1.035278558731079,1.3959970474243164,1.0294147729873657,-0.576887845993042,-0.3109196722507477,-0.27412149310112,0.1814827024936676,-0.5036130547523499,0.9177085757255554,-2.4015958309173584,-1.388667106628418,0.1331169605255127,-1.8329722881317139,1.049010992050171,-1.0274155139923096,-1.1004066467285156,0.9092283844947815,0.965429961681366,0.3031129240989685,-0.08796389400959015,1.0998648405075073,-2.2108190059661865,0.07167091220617294,-2.3907196521759033,0.2337203472852707,3.680365562438965,-0.5371389985084534,-0.20523962378501892,-1.0900157690048218,1.653842806816101,1.5312018394470215,1.6616333723068237,-0.2619090676307678,-1.1245967149734497,0.8931381106376648,3.3438563346862793,2.181412935256958,-0.009280940517783165,0.8640559315681458,-1.7309036254882812,-0.42016473412513733,0.4143807291984558,0.9905558824539185,-0.5798026323318481,0.32401543855667114,-0.15137316286563873,-0.6368976831436157,-0.29209572076797485,-0.7008803486824036,0.31007322669029236,0.5331546664237976,0.32588115334510803,-0.26512572169303894,-0.12926442921161652,-0.5678815245628357,-0.7757145166397095,-1.096008062362671,1.35346519947052,-2.9501242637634277,-0.7629126310348511,2.244312047958374,-3.178072214126587,1.6468334197998047,-1.2714226245880127,0.7419618368148804,0.8082748651504517,-1.6834616661071777,3.2134435176849365,-1.2905783653259277,-2.3196308612823486,0.08126373589038849,0.12938597798347473,1.5926833152770996,1.2459821701049805,-0.3910151720046997,4.200563430786133,-0.33886149525642395,-2.2913496494293213,0.49532943964004517,-2.607327699661255,-0.545427680015564,1.0615347623825073,-2.2665059566497803,2.5814032554626465,-1.7255052328109741,-1.1524120569229126,1.3712407350540161,-3.4631967544555664,-2.3969264030456543,1.6373203992843628,-2.6596693992614746,-1.0358939170837402,-1.5899893045425415,1.6053897142410278,-0.34282490611076355,0.06303843855857849,0.6680740714073181,-1.331676721572876,2.347254753112793,0.9701167345046997,-1.2181380987167358,0.5830695033073425,-0.6994720697402954,0.598691463470459,2.8855795860290527,2.2677364349365234,-0.6317516565322876,-0.36730924248695374,0.47388899326324463,-2.036097526550293,-1.9659982919692993,-0.5714511275291443,0.5990779399871826,-0.9910041093826294,1.139249324798584,0.9620737433433533,-1.729565978050232]},"inputBias":{"rows":20,"columns":1,"weights":[0.2911556363105774,0.803318440914154,-0.5375764966011047,0.7792909145355225,0.5400117635726929,0.5617333054542542,3.069878578186035,0.06672527641057968,0.5052000880241394,-1.1376361846923828,-1.8235255479812622,0.5943835973739624,0.04198116809129715,0.5894631147384644,-2.217744827270508,1.9124324321746826,0.4098956882953644,1.9828170537948608,-0.09680065512657166,1.7221248149871826]},"forgetMatrix":{"rows":20,"columns":22,"weights":[-0.09167155623435974,1.2647409439086914,-0.7219372987747192,1.026094913482666,-0.9689013957977295,1.1602966785430908,0.7513936758041382,1.1907130479812622,0.5910388827323914,2.3893227577209473,2.1627378463745117,0.4237547218799591,0.7970751523971558,-1.427814245223999,-0.9290105104446411,-1.1516759395599365,1.2792963981628418,-1.5681416988372803,0.6075035929679871,-1.3080625534057617,0.22703899443149567,-0.16425678133964539,-1.586119532585144,-0.3622944951057434,0.06463049352169037,0.217549130320549,1.1374061107635498,1.857573390007019,-2.406022071838379,1.3651196956634521,1.0914826393127441,-0.3709200620651245,-0.34340423345565796,1.2660422325134277,-2.6507797241210938,-0.04347383603453636,0.5924673676490784,1.6279047727584839,-0.3596404790878296,0.0553068108856678,0.6642463803291321,1.3032031059265137,-0.31043532490730286,-0.6586838364601135,-0.5080901384353638,0.673843502998352,0.600715160369873,2.9015252590179443,-1.9338951110839844,0.9947852492332458,-1.7888041734695435,1.7896820306777954,3.894232749938965,1.4616326093673706,-0.6692056655883789,2.7891907691955566,0.5317776799201965,-0.5307543873786926,-0.6392542123794556,0.22693218290805817,0.5073388814926147,-1.3823606967926025,0.48304682970046997,0.28777173161506653,1.7814611196517944,-0.23582635819911957,-2.1157424449920654,-1.2075064182281494,1.7257097959518433,0.32523658871650696,-0.019014228135347366,-0.4041493237018585,-0.9676188826560974,2.1710312366485596,1.1490817070007324,1.3174009323120117,-0.23725678026676178,1.147431492805481,-0.49570605158805847,1.1675798892974854,-0.07321294397115707,1.573813557624817,-0.4545321464538574,1.0004853010177612,1.046859860420227,1.1938871145248413,-1.0651015043258667,1.8988592624664307,-0.4103853404521942,0.24604915082454681,1.0495494604110718,-1.888696551322937,-0.08896002173423767,-0.29444411396980286,1.8089098930358887,0.4848841726779938,-0.5789781808853149,-2.8549094200134277,-0.012233245186507702,-0.07507514953613281,-2.2315313816070557,-2.49003005027771,-0.7043769359588623,0.760219931602478,0.2831779420375824,0.26622697710990906,0.08057630807161331,3.5879077911376953,-0.42418575286865234,1.1481658220291138,-1.3669276237487793,1.225813388824463,1.4538780450820923,-1.1657973527908325,0.5516064763069153,0.6730008125305176,0.1875394731760025,-0.4363829791545868,-1.0137768983840942,1.0466669797897339,-1.333815097808838,-2.017186164855957,-2.845673084259033,-0.3790111243724823,-0.04144534468650818,0.8432605862617493,-2.3512752056121826,2.0249931812286377,1.2056288719177246,3.2608859539031982,-0.11840470135211945,2.6393914222717285,1.1409962177276611,0.3335883319377899,3.4946651458740234,0.26407989859580994,-1.0259984731674194,-1.7521870136260986,1.7757530212402344,-0.31027790904045105,-1.434346318244934,0.8176037073135376,1.9284974336624146,-1.097670078277588,1.0546051263809204,0.8751146197319031,-1.3230042457580566,-0.8168299794197083,0.10270129144191742,-0.036419566720724106,0.50420743227005,-0.5091235637664795,-0.12528769671916962,0.7076491117477417,-2.4747540950775146,0.23069708049297333,-0.7591773271560669,0.7041482329368591,0.6823902130126953,2.510920763015747,-0.09030507504940033,0.7593312859535217,1.167568564414978,0.6747073531150818,0.8730412125587463,0.8227109909057617,1.1261699199676514,0.5399957299232483,-2.084470510482788,0.45442765951156616,-1.641043782234192,-0.16959457099437714,-0.11726706475019455,1.927224040031433,0.6482846736907959,1.4691929817199707,0.08033964037895203,0.3845185339450836,1.2582745552062988,-1.4331631660461426,-0.8429693579673767,-0.10256048291921616,-0.06666100770235062,-1.1206363439559937,-0.21375881135463715,0.18194866180419922,0.7831068634986877,-0.5953146815299988,0.9614549279212952,0.9928509593009949,-1.2218968868255615,-1.9496772289276123,1.0475281476974487,0.660372257232666,1.3774702548980713,-0.7888612747192383,-0.46629929542541504,-0.6949083209037781,-0.5491688251495361,0.6155113577842712,-0.10057349503040314,-0.18215124309062958,-0.2419177144765854,0.22206531465053558,0.7602111101150513,0.9572973251342773,-1.8441543579101562,0.8625874519348145,1.5399432182312012,-1.2525862455368042,0.41756927967071533,-3.3879196643829346,-1.6942354440689087,0.46997207403182983,-0.7219963669776917,0.0663110688328743,-0.3901204466819763,1.0000689029693604,0.697880744934082,0.9507725238800049,-1.1445873975753784,0.5282300710678101,-0.19662372767925262,2.9965994358062744,0.4444376826286316,1.1061618328094482,-0.9237545728683472,2.4506046772003174,1.7675584554672241,0.8254254460334778,0.05036493390798569,0.9019519686698914,2.84993314743042,1.043538212776184,-0.004923203960061073,3.1649181842803955,-1.2223681211471558,-2.8284995555877686,-1.3408849239349365,1.6006278991699219,1.6728891134262085,0.7953658103942871,-0.2202061414718628,-1.422078251838684,0.8113857507705688,-3.124028444290161,0.4443589150905609,-0.8401500582695007,1.9147584438323975,-3.0836727619171143,0.6058427691459656,-1.2832142114639282,-1.1566768884658813,-1.088950753211975,1.0296335220336914,-0.6979920268058777,0.5300799012184143,-0.25662022829055786,1.8668105602264404,3.0918996334075928,-0.932623028755188,-1.6927775144577026,-1.4451652765274048,-0.7156729102134705,1.5823652744293213,-3.4487202167510986,-1.3759820461273193,-1.5596935749053955,1.9973623752593994,-0.6992197036743164,-1.7481862306594849,-0.7935987710952759,0.35491418838500977,-2.1551167964935303,-2.7612268924713135,-0.5991681218147278,-0.5551051497459412,2.951146125793457,2.077897310256958,-0.3547403812408447,1.6594916582107544,3.040015935897827,1.2405844926834106,-0.7020959258079529,-0.7075939774513245,-0.39820364117622375,0.317432701587677,2.247061014175415,-0.04689271003007889,0.7518741488456726,-0.132926806807518,-4.099950313568115,1.172505259513855,-0.5293539762496948,0.6811968088150024,-0.5818268060684204,2.403974771499634,-1.0262216329574585,2.210725784301758,2.672023296356201,-2.2760560512542725,0.2778266370296478,0.011148950085043907,1.6964939832687378,-0.5529130697250366,0.8261933922767639,3.2248551845550537,-0.8447093367576599,-0.4824356734752655,0.07009391486644745,1.1918374300003052,1.4323500394821167,-0.2973082959651947,-0.6986726522445679,0.640519917011261,0.6673939228057861,0.6703256368637085,-0.5902335047721863,0.7522646188735962,1.005494475364685,1.348138689994812,-0.28923600912094116,-0.7404139041900635,-0.9282035231590271,-2.251873016357422,-0.7005362510681152,-0.24338045716285706,1.4353148937225342,0.6473784446716309,2.432934522628784,-0.9788755178451538,-3.05366849899292,0.47481173276901245,-0.6929589509963989,1.5672905445098877,-2.143012523651123,-0.45752158761024475,1.0521737337112427,0.04598115757107735,-1.9689470529556274,-3.419571876525879,1.5336873531341553,0.6801741719245911,0.6470012068748474,1.6149615049362183,-0.16998183727264404,-1.3706715106964111,3.0719785690307617,0.5074933171272278,0.3262823224067688,-0.16096387803554535,3.0509471893310547,0.6791303753852844,1.4779267311096191,0.9718966484069824,0.15081949532032013,-1.3314590454101562,-1.9568798542022705,1.7703537940979004,-0.4128994643688202,-0.5714325308799744,0.24203521013259888,1.352793574333191,0.23435664176940918,-0.1109011247754097,1.433480143547058,-0.8012949228286743,-1.8586714267730713,0.48644447326660156,0.8350369334220886,0.48075422644615173,-0.20310361683368683,1.0062494277954102,0.7181909084320068,1.4727801084518433,0.2513638138771057,0.0339132659137249,-1.7642762660980225,0.39329269528388977,-0.3754933178424835,0.424551784992218,-1.1097660064697266,0.1048230305314064,-0.4868396520614624,-0.19441291689872742,1.9181524515151978,-0.6429485082626343,0.04303602874279022,0.4459291398525238,-0.4696667790412903,-1.957967758178711,2.131495952606201,1.3449774980545044,1.57991623878479,-1.4196239709854126,0.44759175181388855,0.7542824149131775,1.6105406284332275,0.15818347036838531,-1.5768450498580933,0.4905220866203308,-0.6046686768531799,-0.1892998069524765,-1.3968572616577148,-0.23809853196144104,1.224661946296692,0.2084469348192215,-0.4856915771961212,-2.7612767219543457,2.264352321624756,-0.14428353309631348,-1.4684555530548096,0.5136140584945679,1.5748876333236694,1.8746058940887451,-1.2049529552459717,1.442779541015625,-2.0484044551849365,0.4715423285961151,-1.0630395412445068,-0.3016361594200134,-0.9206803441047668,1.1278756856918335,-0.4546772241592407,0.16455696523189545,0.03711778670549393,0.6543428301811218,-1.4734532833099365,-2.437748670578003,1.47962486743927,-1.0880556106567383,-0.28852173686027527,2.6937456130981445,-0.4231722056865692,0.1315552443265915,1.862865686416626,0.8550883531570435,-0.049460507929325104,-1.7458720207214355,0.3127642869949341]},"forgetHidden":{"rows":20,"columns":20,"weights":[-1.79395592212677,0.12912702560424805,0.04873993247747421,-0.8622442483901978,1.5782116651535034,-1.8818504810333252,2.096038818359375,-0.5926067233085632,0.4158343970775604,-0.7067559361457825,-2.1995644569396973,1.0914525985717773,-1.6198078393936157,0.09406260401010513,-0.37559351325035095,0.28315967321395874,-1.703909993171692,-0.01018209382891655,-0.4755118489265442,-0.6999884247779846,0.7264477014541626,-2.8453612327575684,-0.333679735660553,1.25653076171875,-0.1717734932899475,0.7621833682060242,0.5267360210418701,-0.6782826781272888,0.37846770882606506,1.3653265237808228,0.15670092403888702,0.7762377858161926,2.1695966720581055,0.8104816675186157,0.8475713133811951,-1.6373506784439087,0.5249021053314209,0.6521030068397522,0.5429742336273193,-0.31069591641426086,-1.1627070903778076,3.6536357402801514,2.7792866230010986,-1.229715347290039,-0.22585901618003845,-3.205815076828003,-2.1043336391448975,-0.4761548638343811,-0.4112492501735687,-2.8005826473236084,1.7377713918685913,-0.2829621434211731,0.8300563097000122,1.8064076900482178,0.6268787980079651,0.33094239234924316,0.6361768245697021,-0.08138635009527206,-3.206327199935913,-0.7655753493309021,1.2782219648361206,1.782432198524475,1.0873385667800903,-0.5061980485916138,-2.0120084285736084,1.371046781539917,-1.6258209943771362,0.3535376489162445,0.10585144907236099,-0.45358806848526,-0.3149486184120178,-0.8804700374603271,-0.5286740064620972,-0.9439384937286377,0.2875593602657318,0.5728335976600647,-2.4994194507598877,1.183645248413086,1.0963716506958008,-0.22808657586574554,-0.4336123764514923,-0.30780279636383057,2.387200355529785,0.8579922914505005,1.824815273284912,0.919719398021698,0.10322020947933197,0.9925400614738464,2.27873158454895,-0.8484931588172913,0.1265014111995697,-1.402685523033142,2.1134603023529053,2.329801321029663,0.478370726108551,-3.2465522289276123,1.2600656747817993,-0.9939261078834534,-0.9943130016326904,-1.0734573602676392,-1.1568316221237183,0.17244605720043182,1.2689763307571411,-1.029252052307129,1.1432960033416748,-2.161247491836548,-1.3414908647537231,0.49503782391548157,1.1538846492767334,-1.0780839920043945,-0.5839775204658508,-0.6745266318321228,0.6683819890022278,-1.230370044708252,-0.7484327554702759,0.7965630888938904,0.351372629404068,-2.2288007736206055,-0.9290031790733337,-1.4708789587020874,0.825084924697876,0.010169108398258686,0.6803895235061646,0.13943074643611908,-0.5055912733078003,-0.12439969182014465,0.7294998168945312,2.4684808254241943,0.9169955849647522,-1.0926905870437622,0.7358207702636719,0.4722656011581421,-0.03653239086270332,0.1425188183784485,0.3522922098636627,-0.18433716893196106,-0.24489115178585052,0.5719097852706909,1.1938164234161377,-1.907500147819519,0.7690715789794922,0.33060258626937866,-0.4897557497024536,-1.4530203342437744,-0.8429131507873535,0.41723740100860596,-0.7636085152626038,-0.5894221067428589,0.972534716129303,-1.2637988328933716,-0.3876405954360962,-2.0610268115997314,-0.7558205127716064,0.8186596035957336,-0.03759793937206268,0.4647587537765503,1.2559473514556885,-0.337638795375824,2.22354793548584,1.6992664337158203,0.7358340620994568,-0.1309245228767395,-0.9558526277542114,-0.5058063268661499,-0.3967375159263611,0.853398323059082,0.11048737913370132,-0.3531062602996826,-1.2026982307434082,-0.7445530891418457,-0.8059039115905762,-2.0233237743377686,-0.7729235887527466,0.5877077579498291,-0.8819515705108643,0.6359584927558899,0.5654807686805725,-0.6848181486129761,1.4807112216949463,0.47392594814300537,-0.2117576003074646,-1.5406734943389893,-0.03654006868600845,-1.7462689876556396,-0.3629835546016693,0.6960588097572327,-0.3364177644252777,0.5360168218612671,-1.1773070096969604,-0.9349309206008911,-0.3550490140914917,1.1231135129928589,-0.5208342671394348,-0.3526003956794739,0.07187684625387192,0.8847466111183167,-0.3667750060558319,-0.2955629825592041,0.7387012243270874,-0.973991870880127,-0.1087929904460907,-0.9267845153808594,-0.8920599818229675,-1.8427435159683228,-1.983992338180542,-0.5028233528137207,1.050242304801941,-1.0679762363433838,-3.579312562942505,-0.8685911893844604,1.2452006340026855,0.8575941920280457,-1.687514305114746,-0.3913792371749878,0.5398115515708923,-0.061110977083444595,-0.15551060438156128,1.3481788635253906,1.9563450813293457,1.4611856937408447,1.5710948705673218,-1.3369873762130737,-0.09000488370656967,0.7128511667251587,-2.3539023399353027,0.7015452980995178,-0.17519232630729675,-2.0984551906585693,-0.36737585067749023,0.6218082308769226,0.29971250891685486,-0.9532740116119385,2.764103412628174,-0.9968472719192505,2.617532730102539,-3.7581324577331543,0.7430029511451721,0.4649944305419922,0.4800955653190613,3.3984580039978027,-1.6182342767715454,-0.990027666091919,-0.7638023495674133,-0.2973388135433197,2.4508769512176514,1.4030096530914307,0.2698110044002533,1.1635067462921143,-1.617615818977356,-0.4377887547016144,1.7587566375732422,2.466970682144165,-2.5457584857940674,2.0307998657226562,0.7829552888870239,-0.31513890624046326,-2.220914363861084,-0.5631422996520996,1.1202296018600464,-2.1505649089813232,0.32691746950149536,2.043461799621582,1.86605703830719,0.310867577791214,-0.36571168899536133,-0.8203791975975037,0.15862956643104553,-1.6707931756973267,-1.8876762390136719,0.1226811334490776,0.23470614850521088,-0.9255951046943665,0.6590541005134583,-1.2336022853851318,-0.5980828404426575,0.1647220402956009,0.6541303992271423,-0.8035617470741272,-0.5237680673599243,1.9237087965011597,-0.19766764342784882,0.6346153616905212,0.6777262687683105,-0.379655659198761,-0.7057092785835266,0.496406614780426,-0.32066723704338074,-0.15667535364627838,-1.0439949035644531,-0.25547176599502563,-0.7588956952095032,-0.7227420806884766,-0.9923179745674133,0.07185279577970505,0.6449888348579407,0.3362477123737335,-1.1684273481369019,0.8113062977790833,0.7873973846435547,-0.2660953998565674,0.8945105075836182,1.1123476028442383,0.6415225267410278,1.1497557163238525,1.914908766746521,3.0141568183898926,-3.5162644386291504,-1.4798191785812378,-3.4202702045440674,-0.9176504611968994,0.6713855862617493,0.03352990746498108,1.6107138395309448,-1.356717824935913,-1.0604662895202637,0.19457238912582397,-0.6989032030105591,2.7760915756225586,-0.056686799973249435,0.493351012468338,-1.3683642148971558,-1.4299098253250122,1.4555177688598633,0.6540167331695557,1.1445014476776123,-1.276865839958191,0.17974165081977844,-1.026367425918579,-0.14144796133041382,0.7545726299285889,0.18738432228565216,0.26066282391548157,1.0508756637573242,-1.5058324337005615,-0.5591340065002441,-1.5451284646987915,1.2589492797851562,-0.6265926361083984,1.303322196006775,0.6341158151626587,0.3377391993999481,0.5169370770454407,0.9080711007118225,0.35739973187446594,-0.9567484259605408,1.9325388669967651,-0.0649615004658699,-1.239923357963562,-0.475673109292984,-1.0791940689086914,-0.9989829063415527,-0.9839988946914673,0.8466167449951172,0.9827728271484375,0.94154292345047,-0.5112000107765198,-1.6150391101837158,1.6645052433013916,1.9393032789230347,1.093959093093872,-1.7764745950698853,-3.3238275051116943,-2.447385787963867,-1.0614522695541382,2.9079384803771973,-0.8918818235397339,1.6241130828857422,0.682538628578186,0.05206147953867912,0.5286021828651428,0.1394967883825302,3.454587459564209,-0.17977583408355713,-0.5891331434249878,-1.3696054220199585,1.9852585792541504,0.8469818830490112,-0.3002570569515228,-1.5095102787017822,-2.5696332454681396,0.14035935699939728,0.31787803769111633,-0.010106135159730911,0.8272843956947327,0.005251075606793165,-0.3086114227771759,0.6128094792366028,0.9341486692428589,-0.4045252501964569,-0.6496053338050842,0.2828664183616638,-0.0056956554763019085,-1.101953148841858,1.523292899131775,-0.9739010334014893,-0.2335798442363739,-0.7806909680366516,-0.02104063704609871,0.4404422342777252,-0.1917448341846466]},"forgetBias":{"rows":20,"columns":1,"weights":[0,0,0,0,0,0,0,0,0,0,0,0,0,0,0,0,0,0,0,0]},"outputMatrix":{"rows":20,"columns":22,"weights":[0.7616722583770752,0.6327573657035828,-1.9382210969924927,1.309413194656372,0.8194314241409302,1.2263416051864624,-2.9994213581085205,1.6556024551391602,0.17773963510990143,7.045376300811768,0.5825159549713135,0.7198847532272339,3.0106101036071777,1.260424017906189,0.14944607019424438,0.49935826659202576,1.3257015943527222,-3.528414249420166,1.5621905326843262,-2.2232043743133545,-2.4483039379119873,-1.3895374536514282,1.5153427124023438,0.047826267778873444,-3.3962948322296143,1.6929938793182373,0.48482373356819153,0.7954337000846863,1.0996147394180298,3.334139347076416,1.3204472064971924,-1.1507244110107422,-0.7429161667823792,0.9114096164703369,1.8056560754776,-1.436166524887085,1.926085114479065,-0.5019100308418274,-3.807681083679199,0.22557204961776733,-0.9298958778381348,2.8218839168548584,0.9272903203964233,4.3760085105896,2.114661455154419,-2.1982421875,-1.7492082118988037,-0.06772457808256149,1.0609477758407593,-2.4005770683288574,-2.6729960441589355,-2.060168504714966,2.4835727214813232,-0.4188959002494812,-2.566514492034912,-0.8422589898109436,1.2734136581420898,0.23839640617370605,3.069913625717163,-1.499784231185913,3.234816074371338,-0.1906769573688507,-3.0740017890930176,-3.3550684452056885,1.9319777488708496,-0.8021596074104309,-2.5249435901641846,0.9210512638092041,0.04519824683666229,-3.6549994945526123,-2.544938802719116,1.9607951641082764,0.22339126467704773,3.2505407333374023,1.6157876253128052,2.53410267829895,0.5509584546089172,1.6532206535339355,-0.10970807075500488,-1.7765306234359741,-5.513731479644775,2.515930414199829,1.0808563232421875,1.5565730333328247,2.175450325012207,-0.3800041079521179,0.8455637097358704,-1.0373579263687134,-4.152978897094727,-0.7034880518913269,2.54829740524292,0.1035495400428772,0.26218801736831665,1.4359685182571411,-0.6820722818374634,0.24079251289367676,1.3396333456039429,1.1939185857772827,-0.1774812936782837,1.707586646080017,-0.7818407416343689,4.710928916931152,-2.3688602447509766,-1.1708952188491821,-0.264032244682312,0.06919300556182861,-0.17110712826251984,-1.5165066719055176,-1.0987454652786255,-3.688322067260742,0.3889766335487366,2.699449300765991,2.5643539428710938,2.8292598724365234,3.3958933353424072,-2.870523691177368,-0.6692880988121033,0.04697306826710701,-0.30647850036621094,0.275055855512619,0.22365519404411316,-0.9560409188270569,0.6696304678916931,3.0104053020477295,-1.11619234085083,-0.9717608094215393,0.7044423818588257,-0.07671783864498138,-2.019310712814331,-0.18085992336273193,4.81074333190918,-0.8922259211540222,0.6746609807014465,-2.1300432682037354,1.6636149883270264,-3.72043776512146,0.28966689109802246,-4.121387004852295,1.3170514106750488,-2.10978102684021,-1.9366042613983154,-0.747737467288971,-0.6743156909942627,-0.6122035980224609,-0.9982821941375732,1.7288283109664917,-0.21997781097888947,-2.6948390007019043,2.9448492527008057,1.1768633127212524,-0.7640465497970581,-0.6688991785049438,-0.10860119760036469,-2.6037001609802246,0.7983584403991699,-3.542537212371826,-2.2811713218688965,-1.8991894721984863,0.6934252381324768,-1.0202678442001343,0.22462809085845947,-0.850216805934906,0.5669336915016174,-1.6157773733139038,-1.0179250240325928,-2.043175220489502,-0.3758060038089752,-1.0655163526535034,3.223574638366699,-2.1223485469818115,-0.8652763366699219,3.994358777999878,-2.3510634899139404,-1.0155843496322632,-3.3133742809295654,3.995347738265991,-0.9206222295761108,-0.45477738976478577,-1.8070383071899414,4.210760593414307,0.5947579145431519,0.38205423951148987,-1.374286413192749,1.3013700246810913,1.051314115524292,3.8942408561706543,0.6397683620452881,0.760051429271698,2.6389448642730713,-0.03215087950229645,-0.6530807614326477,1.6982601881027222,-0.7071241736412048,-3.5613648891448975,-0.7280616760253906,0.8659120798110962,2.0873754024505615,-2.002254009246826,-3.4829440116882324,2.9786834716796875,-0.42934733629226685,-3.8768868446350098,-1.7469593286514282,1.4071259498596191,0.7983086705207825,-1.2372061014175415,-0.6387372612953186,1.1055974960327148,2.514505624771118,2.7636961936950684,-2.1465463638305664,0.28705573081970215,-1.286709189414978,0.25799185037612915,3.5668699741363525,-0.6784882545471191,3.4685311317443848,-3.2642288208007812,-0.8732882738113403,-1.3345139026641846,-2.944719076156616,0.984222948551178,5.9299845695495605,1.4910292625427246,1.7001471519470215,1.2592926025390625,-1.2259478569030762,1.395293116569519,0.08133257925510406,-3.6518356800079346,-0.5170843005180359,3.301811933517456,1.3082815408706665,-1.735654354095459,0.37063437700271606,-2.2481701374053955,-1.5364030599594116,2.643117904663086,-2.0835490226745605,2.977936029434204,-0.3603319525718689,3.42568039894104,0.1690964549779892,0.31431835889816284,-1.1226913928985596,2.6514241695404053,1.2199808359146118,1.6775403022766113,1.1426459550857544,3.2843852043151855,0.5158252120018005,0.11317111551761627,-0.2849876880645752,0.5088615417480469,0.02853989414870739,-3.520946741104126,0.8902276754379272,1.843015193939209,-0.7473030090332031,-3.902717351913452,-0.4867626428604126,3.6044344902038574,-0.7795508503913879,4.854649066925049,-2.582367181777954,-0.08677889406681061,2.9247772693634033,0.9869281649589539,0.5942506194114685,-0.49269038438796997,1.871778130531311,1.1335458755493164,-1.1120047569274902,-0.8837156891822815,-0.0627402514219284,1.9303256273269653,-0.9730232954025269,-3.195293664932251,-2.1280369758605957,-0.9119850993156433,-0.005297461058944464,0.2329605519771576,0.2770649194717407,3.886535882949829,1.349714994430542,4.043377876281738,0.6487452983856201,-0.5004834532737732,1.6642125844955444,-2.3435022830963135,-6.640164852142334,-2.5249454975128174,0.5197420716285706,-0.8325369954109192,-0.7656461596488953,-1.2106873989105225,-0.08119196444749832,-0.8303305506706238,1.7268637418746948,-0.9281976222991943,-2.101686477661133,-1.3096871376037598,0.19017678499221802,3.241084575653076,3.0345983505249023,0.1232229694724083,-1.5240024328231812,1.7754993438720703,1.6979548931121826,-3.270599603652954,-1.8338911533355713,-3.0687341690063477,1.2433539628982544,-0.16030322015285492,-0.6197969913482666,-0.8833642601966858,-2.8068761825561523,1.9958995580673218,-1.618484616279602,-3.1793482303619385,-0.5824074745178223,1.0533266067504883,0.8733446598052979,-1.408172369003296,-0.3239555358886719,1.5223056077957153,0.7703911662101746,0.27607032656669617,-3.957172155380249,0.5905571579933167,-4.141447067260742,0.6503421068191528,0.06508371978998184,1.240683674812317,1.302941918373108,1.7418020963668823,-2.3434879779815674,3.21147084236145,2.211789846420288,-0.673372745513916,1.3248438835144043,2.258744716644287,0.24107401072978973,0.32450392842292786,-0.9978091716766357,2.473665952682495,0.2932659685611725,1.710498332977295,0.47329744696617126,0.2140626311302185,2.4609134197235107,-2.2214834690093994,0.18598198890686035,3.1261026859283447,0.9111406207084656,0.18508628010749817,-2.187713861465454,3.138314962387085,3.5416789054870605,2.1782758235931396,-2.3376004695892334,0.003181533655151725,1.1543911695480347,0.9974364638328552,1.717737078666687,1.1430069208145142,-2.6863467693328857,-0.03919433429837227,-0.7867019176483154,-0.9656661152839661,-3.7638208866119385,-2.2221169471740723,0.7559703588485718,0.7456295490264893,-0.43136271834373474,2.3679370880126953,-0.4361380636692047,0.8755868673324585,-0.4194278419017792,-2.035172462463379,3.433260917663574,0.8005141019821167,-1.091893196105957,0.09864276647567749,2.55708384513855,-1.216806411743164,4.8668928146362305,0.5624992847442627,-3.3127663135528564,-0.5731501579284668,-0.7011741399765015,-0.8569111824035645,-0.6326174139976501,0.09341370314359665,2.5711536407470703,-2.052063226699829,-2.8115086555480957,1.5497841835021973,3.0621602535247803,2.161811351776123,-3.444197177886963,1.608168601989746,0.5937053561210632,-0.4641694724559784,-0.7476310133934021,1.1825634241104126,1.7279728651046753,-0.6656004786491394,0.9669153094291687,-0.5744256377220154,-4.14071798324585,2.9830589294433594,-0.30022212862968445,-1.216475486755371,1.8121670484542847,-0.12048643082380295,3.504577398300171,-3.590717315673828,4.579207420349121,-0.9294507503509521,1.2988389730453491,-1.8482640981674194,-0.8771873712539673,-1.9455567598342896,1.8019425868988037,-3.3146543502807617,-2.825294256210327,-0.4590458273887634,0.7288582921028137,-2.3698160648345947,0.29128262400627136,0.5829089283943176,-0.2382993996143341,-0.8435673117637634,1.2585113048553467,0.044983841478824615,-1.8229809999465942,-2.274094820022583,-1.6581610441207886,-0.5425170063972473]},"outputHidden":{"rows":20,"columns":20,"weights":[0.7318320274353027,-0.5035848617553711,0.11455222219228745,7.204428672790527,-0.333391010761261,1.8611267805099487,-1.298957347869873,0.39031389355659485,-2.318847179412842,1.4202680587768555,2.5349535942077637,-0.9842351675033569,0.724947452545166,3.3672633171081543,4.072282791137695,-3.2347469329833984,0.5163208246231079,0.06884550303220749,2.730036735534668,4.232739448547363,1.4237269163131714,0.40709325671195984,1.0919290781021118,0.2518295347690582,-3.776132822036743,0.7410393953323364,0.15864884853363037,-1.2165807485580444,1.7491933107376099,-0.7187468409538269,1.1324925422668457,-0.4966062605381012,0.8650411367416382,0.8424454927444458,1.4728789329528809,-0.9961557388305664,-0.21176403760910034,0.6601352095603943,1.9333592653274536,0.38280966877937317,-0.9627142548561096,2.1831917762756348,2.6910598278045654,0.1816306859254837,2.471369981765747,-0.22030645608901978,-0.826019287109375,-0.1060883179306984,1.3906915187835693,-1.1579821109771729,1.7013366222381592,0.03671276941895485,0.5093506574630737,0.8177235722541809,2.202759027481079,-1.4777120351791382,0.3847227394580841,0.8303218483924866,-2.4471349716186523,-2.3242568969726562,-1.3110841512680054,-0.06746727973222733,3.994291067123413,3.70770001411438,2.816783905029297,1.0312730073928833,1.591810703277588,-0.8237506747245789,0.014185790903866291,2.7267725467681885,-1.0454694032669067,0.18584801256656647,0.5269720554351807,-0.21869201958179474,0.3584316372871399,-0.6499683856964111,2.5442090034484863,1.8991799354553223,-1.7395410537719727,1.720252275466919,-7.505383491516113,-2.153818130493164,1.1731001138687134,-3.736119270324707,4.251936912536621,-0.981985867023468,-1.2915310859680176,-2.276623487472534,1.0741157531738281,-2.9888229370117188,-4.518654823303223,0.2980876564979553,0.023397153243422508,-1.7288061380386353,-1.1880578994750977,7.405429363250732,-1.3946533203125,-1.6237634420394897,-3.2059805393218994,-3.4499409198760986,-0.014219312928617,1.190267562866211,0.5746316313743591,1.7443275451660156,0.1577797383069992,1.4246563911437988,-1.7444982528686523,2.347368001937866,-1.2325364351272583,0.6079875230789185,0.755918562412262,1.552721381187439,-1.634461760520935,-1.2557350397109985,2.195772647857666,-3.824463129043579,-0.7132614254951477,2.3558545112609863,1.408129096031189,1.1136332750320435,1.4472862482070923,-0.4152742624282837,-1.4815129041671753,-2.617326021194458,1.3042223453521729,3.1915597915649414,-1.363000512123108,-0.38971683382987976,-0.23093818128108978,-4.371368885040283,0.8543850183486938,-0.03229403495788574,-0.3283199965953827,-1.1205214262008667,1.4449328184127808,3.861433267593384,3.1322426795959473,1.1525157690048218,-0.5758303999900818,2.427513837814331,0.3676636815071106,2.218194007873535,0.8512700200080872,-0.9491245150566101,-0.9826457500457764,0.9116926789283752,0.0462435707449913,2.6316680908203125,0.5897927284240723,1.009613275527954,1.068769097328186,-0.46624091267585754,-5.458454608917236,-0.6486272811889648,1.45241379737854,0.9413926601409912,-0.319995641708374,-0.6215818524360657,1.7579870223999023,-0.20343013107776642,1.3326417207717896,-0.9445573687553406,-0.5532044172286987,-0.7034070491790771,-1.3676520586013794,1.5567668676376343,-1.609696388244629,-4.19534969329834,-2.5957226753234863,0.5358806252479553,-1.9552220106124878,0.7979830503463745,3.1761178970336914,-0.2768439054489136,-1.7017489671707153,-0.769791305065155,-0.13086161017417908,0.3291589021682739,-0.6568203568458557,4.053238391876221,1.806644082069397,-2.4926857948303223,-0.5812209248542786,2.9120326042175293,-1.1957210302352905,-2.1335387229919434,2.171058177947998,-0.691218376159668,-2.012857675552368,2.2649567127227783,3.141444444656372,3.7755439281463623,-2.8770453929901123,4.8964996337890625,1.964522123336792,-2.652719020843506,-0.3943410813808441,0.262755811214447,3.5133633613586426,0.12969401478767395,0.27319037914276123,3.174211263656616,-1.1885956525802612,-4.306236743927002,-1.8111045360565186,-2.1475956439971924,1.2986397743225098,0.5401030778884888,-3.731983184814453,-2.417512893676758,-7.107576370239258,-1.7815322875976562,1.4011074304580688,-0.6124141812324524,-4.217801094055176,2.3361828327178955,-0.7626022100448608,1.7217326164245605,-2.242194175720215,-2.4139320850372314,0.2842452824115753,0.7283845543861389,0.2277316153049469,0.6965129375457764,0.9676411151885986,1.2068960666656494,-1.7573158740997314,-0.17399615049362183,-0.8520265221595764,-0.31287261843681335,-1.079803228378296,3.2465920448303223,1.6759157180786133,1.0057252645492554,-0.2229732871055603,-1.142345905303955,-2.5510153770446777,1.532355546951294,1.5240389108657837,-0.030073659494519234,1.5380592346191406,-2.070676326751709,-1.6701337099075317,-0.8687504529953003,-0.02881033532321453,2.494009256362915,-0.141075000166893,-1.139156699180603,2.854844093322754,-0.37467464804649353,0.7338680624961853,-3.001844644546509,-2.605928421020508,-1.4679526090621948,-0.15011420845985413,-0.5727483630180359,1.7254375219345093,1.0764966011047363,-0.5479974150657654,4.212113380432129,-2.4550955295562744,1.1563342809677124,2.996474266052246,0.36214423179626465,1.3328202962875366,-0.8123562335968018,-3.675774335861206,0.25227805972099304,0.9304391741752625,1.8558452129364014,0.06330925226211548,-0.5456820130348206,0.5354726910591125,-1.7773470878601074,-1.7578673362731934,0.28172144293785095,-1.3494722843170166,-0.6516788005828857,-0.5487266778945923,-2.419481039047241,-0.5298992395401001,-0.9064012765884399,0.8061822652816772,1.1011922359466553,-1.0877397060394287,-0.1515135020017624,0.3033726215362549,1.5870951414108276,0.8950380682945251,0.5561946630477905,2.510712146759033,-2.111639976501465,-1.149569034576416,-0.15150605142116547,2.6467654705047607,-2.329838991165161,0.8304917216300964,-0.7607846260070801,-1.2020699977874756,-1.800917148590088,4.124617099761963,-0.7672123312950134,1.6322799921035767,2.2130348682403564,0.6718122959136963,4.38919734954834,-0.2518841028213501,-1.6750682592391968,-0.2082410752773285,1.6396290063858032,-1.37539803981781,2.3607804775238037,-1.275622010231018,-0.7744476795196533,-3.640187978744507,-0.9772352576255798,2.872356653213501,3.268782377243042,3.0861570835113525,3.781863212585449,-0.36011528968811035,0.967880129814148,-1.060280680656433,-0.08740975707769394,-0.7915475368499756,-1.9070823192596436,-0.6980654001235962,-1.6321051120758057,-0.18475085496902466,-1.5907692909240723,-1.8860143423080444,-0.23383213579654694,1.068088412284851,2.7062366008758545,-1.5551596879959106,1.049883246421814,0.5132004022598267,-0.7320061326026917,0.7817494869232178,3.175971746444702,0.1467997133731842,4.308367729187012,6.071139812469482,1.4400016069412231,-1.945892095565796,2.6300055980682373,-2.639028549194336,-2.1859261989593506,0.46786442399024963,-0.181430846452713,-4.410675525665283,-3.4921627044677734,-0.16205015778541565,-0.40656623244285583,0.3491933345794678,2.10107159614563,1.4005624055862427,4.458673477172852,4.121872901916504,5.211510181427002,-1.8526180982589722,-0.2965695858001709,-1.3621437549591064,-0.7727336287498474,4.525865077972412,-0.897972583770752,-1.226238489151001,-2.2575371265411377,0.1447926163673401,0.6900010704994202,0.7055888772010803,-0.5743843913078308,2.0313150882720947,3.1143758296966553,0.1784418523311615,-0.14834949374198914,1.0051357746124268,-0.29280441999435425,-0.48119765520095825,-1.8601093292236328,-2.106717824935913,-2.308542251586914,2.7541024684906006,-0.12480880320072174,3.846766471862793,0.344433069229126,1.5314269065856934,0.3292677402496338,1.4645137786865234,0.2988695502281189,-2.9542410373687744,1.0066802501678467,2.6667308807373047,-1.676993727684021,-1.898275375366211,-0.5613491535186768,0.7805244326591492,-1.3285300731658936,-2.1509861946105957,-3.3695430755615234]},"outputBias":{"rows":20,"columns":1,"weights":[-0.6730070114135742,2.1539504528045654,0.9565865993499756,-0.11071310937404633,-0.5156450271606445,-0.2980141043663025,1.1293400526046753,0.16212420165538788,1.4599946737289429,0.2608092427253723,-2.7828376293182373,-0.26120588183403015,0.40454524755477905,2.1941559314727783,-2.0929718017578125,2.658055305480957,0.8094279766082764,-0.924238920211792,0.793009340763092,0.9884732961654663]},"cellActivationMatrix":{"rows":20,"columns":22,"weights":[-1.6752809286117554,0.18263982236385345,-0.44919437170028687,0.5872716903686523,0.03489769250154495,0.1860787272453308,-3.4170029163360596,-0.8330247402191162,0.6204580068588257,0.47084447741508484,-0.6509690880775452,2.4513580799102783,-0.9171673059463501,-0.3521081507205963,-0.7458224296569824,3.489353895187378,-0.8693487644195557,-1.5246624946594238,-0.22234784066677094,1.303594946861267,-1.0745904445648193,0.8376262187957764,-0.9581358432769775,0.6978638172149658,0.5954825282096863,0.6607759594917297,0.11699239164590836,-0.7156845927238464,-2.1578731536865234,0.8541206121444702,0.933908224105835,0.4692964553833008,-0.7579979300498962,1.3574872016906738,-0.7254754304885864,-1.2523545026779175,-0.12908215820789337,2.1034183502197266,-0.2291378378868103,-1.1765445470809937,0.13420362770557404,1.5632092952728271,1.6830850839614868,-1.0882855653762817,-2.190697193145752,0.837137758731842,-1.3407565355300903,0.03788788989186287,-0.7455960512161255,0.5266382694244385,-0.7267351746559143,-0.12787069380283356,2.6257576942443848,-0.5226446390151978,0.13218823075294495,2.143289804458618,-2.368886947631836,0.8308067917823792,0.8035181164741516,-0.3353329598903656,-0.23414058983325958,0.10061030834913254,1.037208080291748,-2.0688529014587402,1.4350428581237793,-1.8011186122894287,1.118693232536316,0.2673506438732147,1.0450718402862549,-2.0893568992614746,0.1725926250219345,-1.2548469305038452,0.5344624519348145,-2.9408628940582275,-1.1823580265045166,-1.2542730569839478,1.0973294973373413,-1.3245494365692139,-0.5431248545646667,-0.5482592582702637,0.9390813708305359,-0.9180875420570374,1.1152732372283936,1.5190989971160889,-0.291216105222702,-1.139251708984375,0.5655196905136108,-1.1710199117660522,-0.9901107549667358,0.8385059237480164,-1.2960270643234253,0.18827304244041443,1.2353354692459106,-1.9778709411621094,0.7324903011322021,1.004675030708313,0.4348922371864319,0.5609350204467773,2.311123847961426,-0.7283790111541748,-0.3885709345340729,-0.801020622253418,0.25333648920059204,-2.4522817134857178,1.1314218044281006,-1.986461877822876,2.2791576385498047,-2.9443626403808594,1.3416125774383545,-3.8093340396881104,-1.6156057119369507,-0.09353271871805191,-2.9201107025146484,-0.4100358784198761,1.418697714805603,2.4553020000457764,-1.1867032051086426,0.13317790627479553,0.7503335475921631,-0.5215765237808228,-1.688966989517212,0.6613459587097168,-2.5715079307556152,-0.3946603536605835,2.3496029376983643,0.35240063071250916,0.9615328907966614,-0.8371701836585999,1.1337389945983887,-0.7387937307357788,-0.4357675015926361,-1.3395270109176636,0.32757875323295593,-0.5358338952064514,3.405083179473877,-1.4915614128112793,-2.012601137161255,-0.4568292200565338,0.8237720727920532,-1.6947722434997559,-1.1926621198654175,-1.5717105865478516,1.5041497945785522,-0.411349356174469,1.5142897367477417,-0.7563387155532837,-1.5927711725234985,1.0929780006408691,2.2659101486206055,0.2714395523071289,-0.9389309287071228,-1.1196914911270142,-0.247776597738266,-0.5365618467330933,-0.7110458612442017,0.8228470683097839,0.15157191455364227,2.9428048133850098,2.813070774078369,-1.314412236213684,-0.40275901556015015,-0.8927190899848938,-0.39748695492744446,-0.19122470915317535,-0.2898794710636139,-2.800278902053833,1.7854676246643066,3.174395799636841,-0.24854138493537903,-0.7891152501106262,0.3876497447490692,-1.9779869318008423,-0.8902273774147034,0.1706124097108841,1.7726507186889648,-2.1181304454803467,-0.08563113957643509,-1.6812989711761475,-0.1509408801794052,-0.8016030788421631,-0.5691823363304138,1.236264944076538,0.832015872001648,0.39010554552078247,0.5617050528526306,0.9407927989959717,0.48833656311035156,-0.11090897023677826,-1.1699225902557373,-0.16958054900169373,0.24395868182182312,1.9252574443817139,0.4159163236618042,-2.5037271976470947,0.4489673674106598,-2.024130344390869,-0.5714858770370483,-1.4423813819885254,-0.9846339225769043,2.011298179626465,0.3458162248134613,0.30646613240242004,0.25272494554519653,-0.06063340976834297,-0.7653656601905823,0.4502094089984894,-1.4914538860321045,1.001065969467163,0.36386963725090027,0.17795294523239136,1.6852174997329712,-0.38129720091819763,-0.9268508553504944,-1.9025477170944214,-0.38747844099998474,-0.2489013969898224,-0.539781391620636,0.7479250431060791,-0.4568682014942169,0.36057049036026,1.4446461200714111,0.4138178825378418,-0.20694443583488464,-1.286628246307373,-0.8135412335395813,2.291480779647827,-0.2508699297904968,-0.5278835892677307,-2.087740659713745,-0.7360590100288391,2.03942608833313,0.13815641403198242,-0.061976294964551926,1.2319746017456055,-1.8426486253738403,-1.3275632858276367,1.8942699432373047,-0.5860329866409302,-1.0346825122833252,-2.9556498527526855,-0.6585837006568909,-1.8310576677322388,0.36994096636772156,-2.2973475456237793,1.4988919496536255,-2.578558921813965,-1.5778132677078247,-1.569524884223938,2.9775309562683105,-1.9030050039291382,-2.2652761936187744,-1.33939790725708,-0.8625004291534424,-3.594911575317383,-1.4555814266204834,0.7073158621788025,-1.1999363899230957,0.28867995738983154,1.1761547327041626,4.603971481323242,-0.22746862471103668,0.02233760803937912,-1.1460084915161133,-0.6935244202613831,-0.5929392576217651,1.0265265703201294,1.4857430458068848,0.18299059569835663,-0.28703129291534424,1.9346650838851929,0.6696606874465942,-0.8963571190834045,-1.6097073554992676,0.17249074578285217,-1.1837427616119385,-0.5515832901000977,-0.4903188645839691,-0.10008905082941055,-0.25098150968551636,-1.2708348035812378,-1.689130187034607,1.185359001159668,-3.3717281818389893,0.6451870203018188,0.8067944049835205,2.5754477977752686,-1.7783316373825073,-2.5634512901306152,0.11339777708053589,-0.0975269302725792,0.9526633024215698,0.6230423450469971,-0.5737302899360657,0.46428245306015015,0.2646240293979645,-2.898240327835083,-1.2533180713653564,2.672837257385254,-1.1979972124099731,0.24994973838329315,1.7031879425048828,0.15123851597309113,-0.9846565127372742,0.45602819323539734,1.7807698249816895,1.256932258605957,0.5762719511985779,-2.2885868549346924,0.8254995942115784,0.7481632232666016,-2.399186611175537,0.24702481925487518,1.9601967334747314,2.296119451522827,0.6462894082069397,0.9690016508102417,0.8406563401222229,0.17044475674629211,0.6251936554908752,0.6326774954795837,-0.9483635425567627,1.0041662454605103,1.4242273569107056,0.21335665881633759,0.662977397441864,-1.061193823814392,-0.683195173740387,-1.0375770330429077,0.72922283411026,-1.8881466388702393,-1.9386043548583984,0.15452486276626587,1.8454533815383911,0.2166861891746521,-1.7279894351959229,-0.5037680268287659,-0.9285513758659363,0.22490441799163818,0.8632675409317017,1.9132534265518188,-1.375616192817688,-0.7744776606559753,-1.2763742208480835,-2.3924756050109863,-0.781815230846405,0.3071526288986206,-1.1665153503417969,-0.5171010494232178,2.4063706398010254,1.7726035118103027,0.6619862914085388,0.21690413355827332,2.098379373550415,-0.4924369156360626,0.4654158055782318,0.510489821434021,0.18311475217342377,-1.8714954853057861,1.3503572940826416,0.7063215374946594,-0.6046534180641174,-0.37017637491226196,1.356720209121704,-0.6693869829177856,1.347952127456665,-0.08524062484502792,-0.11347714066505432,-1.9829750061035156,0.7787829041481018,0.626433789730072,-0.026695970445871353,-1.275545597076416,-0.8483502864837646,-0.35350891947746277,-0.7218424677848816,-0.12812183797359467,-1.8158910274505615,-1.0010186433792114,1.1920589208602905,0.5461910963058472,-1.852864384651184,0.7491341829299927,0.5445070862770081,-0.24686689674854279,-0.5984886884689331,0.7046579122543335,-1.2987030744552612,0.7751443386077881,1.2459760904312134,0.6327619552612305,-0.08109873533248901,-0.2281351536512375,0.24356332421302795,0.25986695289611816,-0.33606669306755066,-1.1798149347305298,0.372098833322525,-2.97121000289917,-3.4852499961853027,0.16517846286296844,0.8047471642494202,2.162017345428467,0.040478043258190155,0.17758791148662567,0.8163369297981262,-0.34289291501045227,-2.3451731204986572,-1.8497625589370728,-1.8529560565948486,-0.6205390691757202,3.1278374195098877,1.4792406558990479,-0.6402416229248047,0.062333423644304276,-0.6207529902458191,0.5006284117698669,0.5094728469848633,0.6066505312919617,-1.1239842176437378,-1.6371052265167236,-2.3674869537353516,-0.16073358058929443,0.1837744265794754,-0.5240716934204102,-1.3979483842849731,0.22191183269023895,2.1501810550689697,-2.434708595275879,-0.9558402895927429,0.5157043933868408,-1.0846394300460815,-0.7504046559333801,0.7349163889884949,1.7860320806503296,-0.06743564456701279,-0.5383557081222534,1.1627421379089355,0.513711154460907,-0.11656580120325089,0.42459598183631897]},"cellActivationHidden":{"rows":20,"columns":20,"weights":[-0.05354316905140877,0.4569668471813202,-1.3355005979537964,0.8205721378326416,-1.306159496307373,-2.3006370067596436,-0.9991918802261353,-0.9824364185333252,-1.1513539552688599,-0.26867905259132385,2.213277578353882,-3.6721997261047363,3.964296579360962,7.582038879394531,1.1839557886123657,2.5010740756988525,-7.800509452819824,-1.951154351234436,-2.052842855453491,1.0073951482772827,1.3097953796386719,-0.26350995898246765,0.775046706199646,-0.06769879162311554,-0.6118636131286621,0.9338901042938232,-0.7150139212608337,-0.14704613387584686,-0.6640100479125977,0.3589727580547333,-0.4889209568500519,0.34224557876586914,-0.04176008328795433,-0.6108075380325317,-0.32154178619384766,-0.030287673696875572,-0.03164869174361229,-0.16169345378875732,1.29055655002594,0.4442589282989502,-0.1576855182647705,-1.1222162246704102,-0.6262006163597107,-0.4943390488624573,0.9304414391517639,-0.0711350366473198,-0.35403770208358765,-0.25327742099761963,-0.25848519802093506,0.8361573219299316,-0.6730183959007263,0.3954892158508301,-0.05680806189775467,0.7131046056747437,-2.0934085845947266,1.1696518659591675,0.975470244884491,-1.7976101636886597,-0.8641389012336731,-1.6790504455566406,-0.25671300292015076,-0.6097832918167114,-1.2498211860656738,-0.25890570878982544,-0.052015289664268494,-0.6026718616485596,-0.8366189002990723,0.8347796201705933,0.8720684051513672,-0.2929859459400177,0.9884536266326904,2.3558590412139893,0.6606345772743225,-0.08692537993192673,-0.07388158142566681,1.2880117893218994,-0.08515018969774246,-0.37788456678390503,-0.6951718926429749,-0.8037707209587097,-0.5784380435943604,-1.6223820447921753,-0.31991901993751526,0.2930569350719452,-0.11686661839485168,-0.985609769821167,1.4048290252685547,-0.4287414848804474,1.470041036605835,0.9061434268951416,-0.12585768103599548,0.30165335536003113,-0.6488415598869324,0.3566543161869049,0.34461477398872375,0.3313295245170593,0.8112101554870605,-0.16752181947231293,-0.2565569579601288,-1.3847787380218506,0.7783163189888,-1.1178661584854126,-0.3663523197174072,0.3433770537376404,-1.3067773580551147,0.3619486093521118,0.46766868233680725,-0.040738482028245926,0.9685819149017334,0.4493201971054077,-1.0343494415283203,0.3841556906700134,-0.7033624053001404,0.18220539391040802,0.6593209505081177,0.477690190076828,0.26230406761169434,-0.033742234110832214,0.3646617531776428,-0.43726691603660583,0.3414570689201355,-0.6038482189178467,-0.0712277889251709,1.1123509407043457,-1.4266691207885742,1.4115355014801025,-2.162778854370117,1.0236485004425049,0.21554334461688995,-1.1615452766418457,0.9186652302742004,-0.4931905269622803,0.8669981956481934,0.4454152286052704,-2.6426761150360107,-1.4883042573928833,-1.6457093954086304,-0.3009485900402069,1.2066898345947266,-0.7921647429466248,-0.6544263958930969,0.17497459053993225,-1.4494482278823853,1.2503609657287598,-1.182990312576294,1.2332557439804077,0.4089139699935913,-0.279033362865448,0.4963622987270355,1.2898377180099487,1.2406688928604126,0.34501922130584717,0.7505089044570923,0.06709565967321396,-0.5315690040588379,-1.4713698625564575,-0.3281102776527405,1.3102455139160156,1.0400841236114502,0.8334112763404846,-1.2841752767562866,-0.2893899381160736,-1.160571575164795,-2.694852590560913,-0.06872866302728653,-2.3370559215545654,2.0710346698760986,-1.4644216299057007,0.807995080947876,-0.952886700630188,0.3701355755329132,-1.0168205499649048,-0.06388519704341888,1.2844067811965942,-8.94748306274414,3.139244794845581,0.7520509362220764,-2.236346960067749,-2.900956869125366,-1.8513715267181396,0.6831942796707153,0.12514109909534454,-0.09324456751346588,0.999022901058197,-0.6343168616294861,0.31435248255729675,-0.1989290416240692,-0.6946117281913757,0.5606385469436646,-0.2094350904226303,0.9052337408065796,0.4537774324417114,1.1319421529769897,1.3496500253677368,-1.7473020553588867,-0.2531883716583252,0.14633800089359283,-0.7729190587997437,-0.22792989015579224,0.9366668462753296,0.17514237761497498,0.2792726457118988,-0.48893091082572937,-1.310935616493225,-0.1208556741476059,-0.5446975231170654,1.136163592338562,-1.7810986042022705,-1.7310086488723755,0.198031947016716,-0.03658600524067879,-0.8617914319038391,-0.32748422026634216,2.487053155899048,0.4880673885345459,0.3217949867248535,-0.6264598369598389,-0.04237954318523407,1.1518003940582275,3.721964120864868,0.5745862126350403,-1.4016469717025757,-0.0551929771900177,1.1312240362167358,-0.2207508385181427,1.1110496520996094,-0.9643727540969849,0.037580713629722595,-0.9873702526092529,0.5681629776954651,-0.22078603506088257,-0.558212399482727,0.4289751946926117,-1.1163287162780762,1.1118295192718506,-2.1712806224823,0.056883689016103745,0.28109899163246155,-0.016711512580513954,0.2585418224334717,-0.6260417699813843,0.7139912247657776,-1.1766268014907837,-1.365067481994629,0.2598365843296051,0.42660993337631226,-0.9915264248847961,-0.8551515936851501,0.20622676610946655,-1.2890959978103638,0.4497537910938263,-0.37153685092926025,-1.2010799646377563,0.11482376605272293,-3.372174024581909,1.4430298805236816,1.2044905424118042,-1.6504136323928833,-0.426744669675827,-0.9347976446151733,0.2482331246137619,0.5879632830619812,-0.044349487870931625,-1.1182290315628052,2.4317357540130615,0.055724360048770905,-0.4099752902984619,0.32285982370376587,0.11639108508825302,-0.286777138710022,-0.22624702751636505,-0.8767665028572083,0.46867403388023376,0.8975315093994141,0.5842793583869934,0.7353266477584839,-0.19134880602359772,0.10444363951683044,0.6048440933227539,1.0662400722503662,0.006737398449331522,-0.09748665988445282,-0.8269165754318237,-0.5872960090637207,0.6506587862968445,-0.7075257301330566,-0.06566665321588516,0.08669557422399521,0.2870485782623291,0.16256994009017944,-0.3861137330532074,-1.1104918718338013,0.06367701292037964,0.4461205005645752,-0.008025464601814747,0.34918513894081116,-0.3791084885597229,-0.23904883861541748,0.37231239676475525,-0.32654276490211487,0.8109776973724365,1.2953013181686401,0.964058518409729,1.9406278133392334,-1.851912021636963,0.9286059737205505,-0.9811185002326965,-2.213191032409668,-1.374030590057373,2.206676721572876,-1.190911889076233,-1.6109100580215454,2.097320079803467,2.0722126960754395,-1.2502541542053223,-2.9915640354156494,-0.3698924481868744,1.8555091619491577,0.8886920809745789,1.7914496660232544,0.654962420463562,0.8758839964866638,1.6248396635055542,-0.2563607096672058,-0.4313037693500519,-0.21055153012275696,-1.477525234222412,0.49776774644851685,-0.5461487770080566,-0.241922527551651,-0.00512558501213789,-1.5737160444259644,-0.8045401573181152,-1.2049554586410522,1.0797621011734009,-0.7021811008453369,-1.3425368070602417,0.7833459973335266,-0.8172444701194763,-0.31187403202056885,-0.7505443692207336,-0.5545532703399658,-2.3639976978302,-0.6768337488174438,0.9409594535827637,-0.7550621628761292,0.49737483263015747,0.7250354290008545,-0.05114208906888962,0.8942170143127441,0.950650691986084,1.1800562143325806,-0.9189372062683105,0.4457266330718994,-0.4479468762874603,0.7401215434074402,0.2975466549396515,-0.6625679731369019,-0.7734104990959167,0.04792572185397148,-0.5651625990867615,-0.8047128915786743,0.1622597575187683,1.2169618606567383,0.43178147077560425,1.5000874996185303,-1.287534236907959,-1.631180763244629,-0.9283406734466553,0.7859348058700562,-1.7732887268066406,-1.2226601839065552,1.3868293762207031,1.756169319152832,0.23679199814796448,0.9308611154556274,-0.8066256642341614,1.6543114185333252,0.9575960636138916,0.02316616289317608,0.7791763544082642,0.6164035201072693,1.458242654800415,-0.24106436967849731,-0.7290334701538086,-0.6753748059272766,-0.7698290944099426,-0.9537652730941772,-2.894265651702881,0.6051082015037537,0.8318138718605042,0.519050121307373,0.08145944029092789,-0.9857362508773804,1.5287023782730103,0.1786240041255951,0.8886062502861023,0.8490117192268372,0.33749881386756897,0.1418725997209549]},"cellActivationBias":{"rows":20,"columns":1,"weights":[-0.6032794713973999,-0.7770661115646362,-1.0799386501312256,-0.6989666223526001,0.8958495855331421,-0.4442082643508911,1.385432481765747,0.34307992458343506,0.5273398756980896,-0.014144145883619785,-0.3872705399990082,0.9186398386955261,-0.2286016047000885,1.1056886911392212,-0.3989196717739105,0.9065744876861572,0.9000358581542969,-0.9608745574951172,0.019181275740265846,-0.5854400396347046]}},{"inputMatrix":{"rows":20,"columns":20,"weights":[1.48845636844635,-0.34652385115623474,3.360374927520752,0.8409652709960938,-1.096232533454895,4.9655866622924805,-7.599097728729248,-2.761423349380493,-1.6387685537338257,0.5319318175315857,-2.181178331375122,-0.2272476851940155,-5.401066303253174,-2.7341012954711914,3.9491286277770996,-4.004885196685791,2.4752023220062256,0.3482172191143036,-1.4882491827011108,5.513082981109619,-0.1961013823747635,-1.8199644088745117,-2.123347282409668,-3.1801412105560303,0.7180737853050232,1.1842378377914429,1.081893801689148,4.557564735412598,5.86109733581543,-4.39769172668457,-2.652439832687378,-3.324469566345215,-2.483304738998413,-7.657904148101807,4.908758640289307,-0.42809101939201355,0.025868667289614677,-0.14932964742183685,-2.3861124515533447,-2.8604354858398438,-1.2566421031951904,-3.525329351425171,0.02912295050919056,1.6072609424591064,-0.3035218119621277,5.545675277709961,-1.6007963418960571,-6.652533531188965,0.24214455485343933,3.3647053241729736,2.221668243408203,0.5530754923820496,0.47299113869667053,1.9296727180480957,-2.153726816177368,-6.283969879150391,4.562417507171631,1.83278489112854,2.200648784637451,3.3103725910186768,0.855293333530426,1.115495204925537,1.6532317399978638,-5.457009315490723,-4.484397888183594,2.0779001712799072,-2.5127522945404053,5.764641284942627,-4.565657615661621,-4.3235039710998535,1.2625243663787842,-0.3622282147407532,-6.221114635467529,-2.037710189819336,-0.2502223253250122,6.085805892944336,-5.739272117614746,2.0074892044067383,-1.3962892293930054,-6.595967769622803,-2.2015533447265625,-7.225540637969971,6.243815898895264,8.247444152832031,10.26751708984375,-0.439055472612381,-1.8154057264328003,1.7954734563827515,0.28246986865997314,4.084879398345947,0.8473691344261169,-0.8344137668609619,-2.2913522720336914,-5.758664131164551,7.398639678955078,-0.35146331787109375,-4.313192844390869,-2.8719959259033203,-2.631208658218384,-6.714217185974121,6.871696949005127,3.945669174194336,4.525420665740967,4.3011016845703125,-5.27573823928833,-1.1569445133209229,-6.774341106414795,-1.954197883605957,-0.07388496398925781,-3.057446241378784,0.7922618985176086,0.4796452224254608,1.006501317024231,3.004023313522339,-6.060808181762695,1.3308193683624268,1.3551280498504639,-2.565441608428955,1.4545066356658936,3.496889591217041,0.7393602728843689,-3.226792812347412,-2.5824997425079346,-0.4465324878692627,4.57720422744751,-0.2511596083641052,0.1239142045378685,1.9976154565811157,5.591320037841797,-2.074282169342041,4.058897495269775,3.542710065841675,2.038161277770996,-1.4721567630767822,4.892725467681885,6.764942169189453,3.8170337677001953,-4.794954776763916,-4.406063079833984,-1.3256112337112427,-2.1141858100891113,-0.6828482747077942,1.4748928546905518,1.0800601243972778,-0.8962722420692444,-1.075901985168457,4.701062202453613,7.295687198638916,1.690415859222412,4.051851749420166,3.421553373336792,-0.8883525133132935,-2.431520700454712,5.195487022399902,2.952610492706299,-3.3997769355773926,-0.02608727104961872,-1.6613240242004395,0.40906453132629395,-5.761096477508545,7.372058868408203,1.3232721090316772,-2.5562331676483154,-0.5297402739524841,-7.8496928215026855,1.3848235607147217,0.7665124535560608,-6.070458889007568,-1.2434897422790527,3.9156041145324707,2.795177459716797,1.775749921798706,3.530390977859497,0.9884909391403198,-6.491893768310547,2.659115791320801,1.860290765762329,-7.023250102996826,3.434654712677002,3.469163417816162,3.8185315132141113,-1.035515546798706,-5.663516044616699,3.5059592723846436,2.4550936222076416,-1.591969609260559,-8.148323059082031,-3.5758025646209717,-0.644837498664856,8.087616920471191,7.586272239685059,3.6183948516845703,-7.423407554626465,4.063817501068115,4.02652645111084,2.2637507915496826,0.5487897396087646,-5.516854286193848,2.2041232585906982,-2.8997273445129395,-0.8979560136795044,-4.520484924316406,-1.7659666538238525,8.664446830749512,0.8775621652603149,2.0596413612365723,2.679694175720215,-0.6144312024116516,2.4112625122070312,1.4147312641143799,-0.21317851543426514,-5.477234840393066,-2.9296834468841553,-5.3143205642700195,5.508570671081543,-3.641432523727417,-1.7440379858016968,0.4307100474834442,1.162854552268982,-1.0515844821929932,0.6967530250549316,6.157932281494141,4.132018089294434,-2.9541237354278564,0.3611477315425873,3.995980739593506,3.0876455307006836,-2.7535758018493652,-7.526400089263916,-1.2093392610549927,-3.5668513774871826,-9.921093940734863,-2.1866073608398438,1.0722359418869019,0.39438268542289734,4.862727642059326,-7.9862871170043945,0.5197387933731079,-1.660589575767517,-1.3610550165176392,-1.6802209615707397,-3.696176528930664,2.1377711296081543,7.027129650115967,-1.953439712524414,-2.3497447967529297,0.695247232913971,0.45533329248428345,6.569790840148926,6.10899543762207,-3.4827487468719482,2.30610728263855,6.549022197723389,1.943353295326233,1.625199317932129,3.45674729347229,0.5078760981559753,-1.855610728263855,1.632039189338684,-0.001731022959575057,-0.7124112248420715,-2.971038341522217,8.939711570739746,1.2127457857131958,4.038238048553467,-1.5583069324493408,-1.3481413125991821,-1.9597560167312622,4.874186992645264,3.258219003677368,5.455384731292725,3.977071523666382,-1.6368845701217651,7.13545560836792,1.2854431867599487,-1.1490825414657593,-1.373270034790039,-2.083806276321411,-4.733093738555908,-6.643205165863037,-2.1835334300994873,-0.2892027795314789,1.4683421850204468,8.307086944580078,2.5661444664001465,-4.461215972900391,-1.2639628648757935,-1.2541522979736328,-0.2713591158390045,4.110506057739258,1.0215864181518555,4.053035736083984,-0.5040324926376343,0.9434412717819214,2.1770598888397217,-8.986992835998535,3.075779914855957,-8.321964263916016,-1.4576869010925293,-1.5103858709335327,-0.9767487049102783,-2.2037930488586426,-6.956371307373047,-0.020484434440732002,-1.4065021276474,-0.6098655462265015,1.942541241645813,-3.6576199531555176,2.110140085220337,2.149986982345581,-0.4192548096179962,3.819333553314209,-7.65038537979126,-2.0095055103302,10.908357620239258,-3.6516573429107666,3.7937161922454834,4.240293979644775,1.1949193477630615,1.671230435371399,0.9730764627456665,-0.6542587876319885,-0.353168249130249,3.929948568344116,1.8318169116973877,-1.3405581712722778,-3.662358045578003,1.5436170101165771,5.59627103805542,0.32618704438209534,-1.303171157836914,1.5996440649032593,1.1370424032211304,4.822836875915527,4.869860649108887,-0.31182828545570374,-10.215323448181152,-9.01257038116455,-1.430396556854248,6.494227886199951,0.8246588110923767,1.6469663381576538,2.1249287128448486,-1.1680856943130493,2.3920931816101074,6.382153034210205,-2.3434596061706543,-5.5392632484436035,-4.692686557769775,3.92919659614563,2.832341432571411,1.2629287242889404,0.6912368535995483,-1.7355238199234009,-4.367800235748291,-2.9755563735961914,1.8818163871765137,-6.482293605804443,-3.3410305976867676,-0.8489810228347778,0.46681109070777893,3.9677956104278564,-2.685204029083252,-1.380998134613037,2.4547863006591797,-0.48412325978279114,-6.4433112144470215,-3.175562620162964,0.401753693819046,-0.5281651020050049,-2.4330170154571533,-2.4496660232543945,2.18965744972229,-0.4837903082370758,-0.5116658210754395,0.8671404719352722,-3.108572483062744,-1.2985572814941406,-4.265219211578369,2.0760796070098877,0.9387312531471252,5.694719314575195,-3.2781083583831787,-3.5047004222869873,-4.387696743011475,2.925377130508423,-5.3176655769348145,-0.6597186923027039,0.2771012783050537,-6.712014675140381,-1.8106056451797485,-0.47297146916389465,2.8176512718200684,-0.11397065222263336,-1.5937858819961548,7.219738006591797,-6.222172260284424,6.154338836669922,-4.067874431610107,-2.000887870788574]},"inputHidden":{"rows":20,"columns":20,"weights":[-2.323117256164551,8.158475875854492,-1.3367056846618652,-4.383494853973389,-1.8267000913619995,-2.8125483989715576,0.9273425340652466,-1.7659152746200562,8.570597648620605,-4.215556621551514,-1.5475211143493652,-4.449575901031494,2.417424201965332,5.0605034828186035,-1.1042044162750244,-7.58635139465332,6.387096405029297,0.2854907512664795,-5.481668472290039,-10.111516952514648,1.8173620700836182,3.700568914413452,-3.529491424560547,-1.2517200708389282,2.5960304737091064,6.715648651123047,-4.99319314956665,-4.257274150848389,1.124515175819397,-2.0832910537719727,2.919640064239502,-6.939697265625,0.747470498085022,-3.437291145324707,-4.262383937835693,2.299858331680298,1.6284390687942505,-3.551272392272949,-4.917901515960693,2.883103609085083,10.403702735900879,-3.9606144428253174,-0.4339647591114044,-0.8597533106803894,5.805663585662842,-3.075845718383789,1.9720897674560547,5.860636234283447,3.410766124725342,-0.6680376529693604,3.5887365341186523,0.6586394906044006,4.941003322601318,-0.02564515918493271,-6.972644805908203,4.254063129425049,1.0001376867294312,0.07464588433504105,-5.058420658111572,0.27045828104019165,4.652943134307861,6.2088093757629395,-3.441322088241577,-2.642233371734619,-6.7336883544921875,10.98513126373291,-1.7162072658538818,5.400939464569092,-0.18509703874588013,-5.033242225646973,-2.172161102294922,0.8155562877655029,2.3154561519622803,-2.5510122776031494,-2.5105109214782715,-1.7311700582504272,-2.880988359451294,2.119006395339966,0.455989807844162,-1.5229555368423462,-0.9460670948028564,0.4413699209690094,-3.824266195297241,-3.625136137008667,1.8530243635177612,0.36990177631378174,6.003156661987305,-1.2959368228912354,-1.7333476543426514,1.844631314277649,0.9992101788520813,-2.8094444274902344,-8.699592590332031,0.13572539389133453,-3.0079233646392822,-2.421699285507202,5.403764247894287,4.3291239738464355,-2.44123911857605,4.656204700469971,1.6954255104064941,2.6145102977752686,5.8512091636657715,1.71359384059906,-4.7666401863098145,-2.2040233612060547,-4.740922451019287,-4.233364582061768,2.4343936443328857,-0.7488369345664978,-2.5862715244293213,4.380151748657227,-1.9529300928115845,-4.8248186111450195,5.090681552886963,8.155901908874512,-1.329815149307251,-7.300856590270996,-0.6268740892410278,1.3413419723510742,-0.41316062211990356,5.833958625793457,-1.150758147239685,4.714776039123535,1.772558569908142,-3.541186571121216,2.4525396823883057,0.7929489016532898,-4.228971481323242,3.3174805641174316,-0.43736276030540466,3.011347770690918,-2.5988965034484863,2.110976457595825,3.471297264099121,7.935529708862305,2.4261419773101807,-1.7618910074234009,0.9790107607841492,-3.6112239360809326,-0.9944893717765808,-1.6452078819274902,-0.34394964575767517,1.118245244026184,2.1185805797576904,-8.00348949432373,4.257889270782471,7.064615249633789,-0.5468412637710571,4.0484299659729,2.0115060806274414,0.28496253490448,2.005751132965088,-4.385336399078369,-1.4030582904815674,3.672760009765625,-1.3350750207901,-1.1032214164733887,0.7459406852722168,1.7444707155227661,-1.496669888496399,-2.818380117416382,-3.7940685749053955,1.4295687675476074,3.261669397354126,0.8324723839759827,-0.4421737492084503,0.7078608274459839,1.4072439670562744,-2.107236385345459,-8.466338157653809,4.51470422744751,0.6311942338943481,1.6031419038772583,-0.17144714295864105,-1.054349422454834,-4.772104740142822,-9.627217292785645,-2.5196659564971924,4.114632606506348,9.324965476989746,7.324023723602295,1.350356101989746,-0.4350312054157257,6.278970241546631,4.555102825164795,-2.6347498893737793,-1.207299828529358,-6.897243976593018,2.3185808658599854,-1.7973554134368896,1.1879339218139648,-1.1764225959777832,2.5369174480438232,3.9690756797790527,0.3539140820503235,-0.7857192754745483,3.0452311038970947,-2.012118339538574,-4.041051864624023,-1.003988265991211,1.081644058227539,1.2554479837417603,-2.487598419189453,-1.8617936372756958,-1.4178276062011719,0.9319584369659424,1.1753811836242676,1.6591624021530151,-2.0157251358032227,1.44221031665802,-2.765810012817383,-9.655943870544434,-9.622444152832031,-2.585249423980713,-5.7847981452941895,-0.33279797434806824,-4.25688362121582,-1.2184069156646729,3.3621504306793213,8.417596817016602,3.1274447441101074,0.926277756690979,6.443974494934082,2.203577995300293,-7.101101398468018,-0.5279251933097839,-0.08938873559236526,8.120710372924805,-7.009276866912842,-5.209935188293457,-1.0924386978149414,-1.103131651878357,4.614044189453125,-3.6995058059692383,-6.703617572784424,-2.81650447845459,-0.6012852191925049,3.268941640853882,3.1293323040008545,-6.250417709350586,-8.103114128112793,-4.563002586364746,-0.1617860645055771,4.474498748779297,0.48018679022789,4.577669620513916,-0.12786205112934113,-0.11225765943527222,1.1101891994476318,3.4965076446533203,-0.2938874661922455,-5.384311199188232,-3.0427334308624268,1.0525635480880737,-0.5173139572143555,6.560811996459961,5.608582973480225,-4.031093597412109,6.090804576873779,2.7006113529205322,8.926154136657715,-4.1779656410217285,-3.0236551761627197,0.08815403282642365,-2.920090913772583,-0.055180538445711136,3.3023006916046143,-0.945737361907959,2.5130715370178223,3.997774839401245,-1.6460678577423096,-0.5899011492729187,-5.392454147338867,-2.2546818256378174,-1.4039088487625122,7.310069561004639,1.3262659311294556,-5.142345428466797,3.9944536685943604,6.589444160461426,-3.0486814975738525,4.520451545715332,-6.103490352630615,-0.643932044506073,1.054836630821228,-4.320401668548584,6.2674736976623535,1.7338145971298218,6.645779132843018,2.6295552253723145,-1.000590205192566,-2.672882080078125,2.1078875064849854,2.2447822093963623,5.476587295532227,-5.4386444091796875,-0.5718713402748108,-1.6931759119033813,-1.9293750524520874,1.2143969535827637,-7.972023963928223,-4.33100700378418,3.0245840549468994,0.09217134863138199,-2.997772216796875,-0.22972896695137024,2.0315279960632324,-0.7734292149543762,0.41125431656837463,3.8583643436431885,2.079956531524658,4.846881866455078,4.658702373504639,0.7215683460235596,7.986746788024902,-4.861259937286377,6.3539018630981445,4.378385543823242,-1.7793654203414917,-3.044588088989258,2.1978166103363037,-5.165767192840576,5.1309309005737305,-1.939049243927002,-0.4256296753883362,0.0034366624895483255,-0.3816305994987488,2.336160659790039,6.719062805175781,0.24760447442531586,0.4952414035797119,-3.1395297050476074,-0.6369502544403076,-4.229705333709717,-3.7531590461730957,-2.2447361946105957,8.998162269592285,3.839951753616333,4.341980934143066,-3.245116710662842,-4.097345352172852,0.7543862462043762,-4.669861316680908,0.4747571051120758,4.732746601104736,-0.940392017364502,-0.3155553638935089,0.17321977019309998,-1.9357887506484985,6.472814083099365,-2.233471632003784,-0.44171756505966187,1.3241724967956543,-7.312044143676758,-4.858893871307373,0.845371663570404,6.006015777587891,-3.312763214111328,5.865026473999023,-3.2127575874328613,-7.909084796905518,3.6484196186065674,4.653101444244385,1.3628979921340942,0.8422343730926514,-2.0977935791015625,0.809831440448761,-1.1742750406265259,-0.8762894868850708,1.9137855768203735,7.87701940536499,-3.40267276763916,2.828404188156128,-2.0998566150665283,-3.1357271671295166,-0.49496543407440186,-5.735342979431152,2.8008787631988525,7.257531642913818,1.185978651046753,-0.3863076865673065,-1.8181811571121216,5.633030414581299,0.8654954433441162,6.2573065757751465,0.6986306309700012,-5.099833965301514,-7.791571140289307,-1.8677453994750977,-1.48150634765625,-2.2603940963745117,-1.4599108695983887,0.7988528609275818,1.4891119003295898,-2.055236577987671,6.050252437591553,-1.7014672756195068,-3.9150009155273438,0.28183335065841675]},"inputBias":{"rows":20,"columns":1,"weights":[-1.830693006515503,0.43597567081451416,3.46028733253479,-1.0605478286743164,0.4247814416885376,-4.556499481201172,1.4175318479537964,-1.6937134265899658,-0.9849424958229065,-4.011144161224365,-2.281066417694092,-2.8451292514801025,-3.5720949172973633,-7.311891555786133,11.199050903320312,-10.090396881103516,-6.0574445724487305,1.9664087295532227,-4.144304275512695,-1.7886580228805542]},"forgetMatrix":{"rows":20,"columns":20,"weights":[-4.873767375946045,1.6154190301895142,7.164803504943848,0.2470460832118988,1.9697530269622803,2.0896785259246826,-2.439984083175659,3.5012576580047607,1.77273690700531,6.579192638397217,-2.51993465423584,0.07408996671438217,2.3259940147399902,-6.483504772186279,4.244848251342773,-2.2096755504608154,-5.128747463226318,0.36935487389564514,-0.5741971135139465,-0.9213550686836243,0.9731663465499878,-6.779081344604492,-1.0080527067184448,-0.5288965106010437,-0.09771722555160522,-3.9291634559631348,1.7814569473266602,-1.9610787630081177,-0.25312867760658264,2.0982651710510254,4.702229022979736,2.345503568649292,-1.2260135412216187,1.0854413509368896,1.1867843866348267,0.9593788385391235,-0.3523779511451721,1.2074532508850098,0.024479186162352562,-1.272926926612854,-5.309421062469482,3.404961347579956,3.6167914867401123,-6.455963611602783,-6.7019429206848145,-2.8429903984069824,1.7404108047485352,-0.11970386654138565,7.972257614135742,-5.406238079071045,-1.5290248394012451,2.0107431411743164,-0.7937785983085632,-4.106204986572266,-5.037050247192383,5.217358112335205,2.6774094104766846,2.942688226699829,-1.1104798316955566,2.8682873249053955,-4.467255115509033,2.921189785003662,0.05652553588151932,-0.27905943989753723,-0.863828718662262,0.05877102166414261,2.1157212257385254,-1.5787063837051392,0.10691845417022705,-1.1791112422943115,-2.8128809928894043,1.1943163871765137,-1.8065636157989502,0.6503530144691467,-1.4306532144546509,-1.4255822896957397,-1.2027664184570312,0.1689562350511551,-0.38837847113609314,3.1250171661376953,-0.06646747142076492,-0.54148930311203,9.602437019348145,2.4341137409210205,5.851251125335693,2.9788544178009033,0.13683922588825226,-2.9018783569335938,-1.34233820438385,2.361013889312744,5.804283618927002,0.9597076177597046,5.30195951461792,10.363933563232422,-8.740352630615234,1.3625236749649048,2.1235790252685547,-0.9738574624061584,0.010575780645012856,-3.768204689025879,4.218371391296387,0.17298579216003418,-0.035375457257032394,6.011499404907227,3.3844215869903564,0.4027952551841736,-3.307408571243286,4.404764175415039,-3.3583736419677734,7.410800457000732,5.164386749267578,3.646178960800171,3.5056607723236084,9.042495727539062,8.255073547363281,-6.95098352432251,0.8268440365791321,3.1390340328216553,1.0948219299316406,-0.19845688343048096,-1.3016417026519775,3.3280527591705322,-9.148823738098145,-2.0073702335357666,0.9219275712966919,1.7218652963638306,4.66803503036499,0.8347439169883728,5.076109409332275,-1.5414493083953857,-3.9029011726379395,3.3128654956817627,-2.2491531372070312,2.6804709434509277,6.582849025726318,-0.6767160892486572,-3.2978270053863525,9.395780563354492,0.9048699736595154,5.436919212341309,-0.1446433663368225,-0.8377269506454468,-0.7290076613426208,5.565329551696777,-0.8812078833580017,2.5350968837738037,-8.064937591552734,-2.650798797607422,0.12177413702011108,4.696036338806152,1.5574740171432495,3.1830358505249023,4.503005027770996,-0.38141679763793945,-2.7046213150024414,-0.9580684900283813,0.061680808663368225,5.486554145812988,4.004116535186768,4.257298469543457,-1.457964539527893,3.6504228115081787,8.170668601989746,5.8610005378723145,-3.9708025455474854,2.668273448944092,-1.1975946426391602,-7.070916175842285,-3.23119854927063,5.886008262634277,3.4186229705810547,1.9264695644378662,6.734799385070801,3.787842035293579,-10.498734474182129,-4.146225929260254,1.769018292427063,-4.140251636505127,1.1664997339248657,6.938191890716553,2.15291690826416,1.9736688137054443,-3.2293615341186523,2.877978801727295,-5.732824325561523,2.644558906555176,-9.140931129455566,-4.028429985046387,-3.1004230976104736,2.562129497528076,4.379483222961426,4.287805557250977,-1.9466687440872192,3.3962643146514893,-3.115508556365967,-4.036402225494385,1.951971411705017,6.611269950866699,4.27161169052124,4.824820518493652,1.1621713638305664,0.2597609758377075,-7.376227855682373,1.1942250728607178,-2.2925100326538086,2.079249858856201,3.967222213745117,0.8015899658203125,-8.72765064239502,1.4404370784759521,-8.318259239196777,2.1363236904144287,7.137294292449951,1.3919963836669922,-0.5246322751045227,-1.4230026006698608,0.6504770517349243,2.0822603702545166,4.307081699371338,4.437841415405273,-0.5212271809577942,-7.327261447906494,4.081429481506348,4.19326114654541,2.9150121212005615,3.0701448917388916,2.3374156951904297,0.10914386808872223,0.9459316730499268,-0.9187567234039307,-3.097414970397949,-1.4823623895645142,0.20026855170726776,-0.013912232592701912,0.49251312017440796,-1.9170382022857666,13.439666748046875,-0.01769426465034485,1.2560464143753052,2.204339027404785,2.0173089504241943,2.064635753631592,-0.5627071261405945,2.3624775409698486,0.4077967405319214,-0.8162913918495178,3.2557756900787354,6.139226913452148,-1.712040901184082,5.486721038818359,-2.0314762592315674,-1.286507487297058,-2.9716849327087402,-5.080766201019287,7.596457004547119,-4.519062042236328,-0.07012590765953064,-0.7304266691207886,-1.2040824890136719,-5.245748043060303,1.8003649711608887,0.5751233696937561,4.616425514221191,1.263209581375122,3.1069939136505127,-2.5955517292022705,-4.558239459991455,0.42343059182167053,2.0742578506469727,-3.52052640914917,0.8353157639503479,-1.525965929031372,3.488013505935669,6.138731479644775,1.1093454360961914,-1.1475805044174194,-6.642696857452393,3.9346423149108887,1.7464884519577026,-1.7993078231811523,-0.3629705309867859,1.2093007564544678,3.071484088897705,-4.883081436157227,